When LR = 0.8 and Momentum = 0.1

0.1742831574989473,0.7898705973602616,0.41515839041887054,-0.15551698317304313,0.08062599684850374,0.4986970382456603,-0.08481217706236652,-0.669837769981179,0.10861831437511282,0.8601813914560202,-1.4141266287370433,-1.158606915822547
-0.6256143976272893,1.4682697046746123,-0.41540806697478355,-0.5553793336801331,-0.2674378912709155,1.5519042956301337,-0.34264262722156946,-1.171620583343919,0.9697407094860424,1.3022245669869716,-1.7960159528892046,-1.4195547649312399
-1.8845177186881286,2.061067703047994,-1.1374124430298318,-0.1592271637765327,-0.8306817040418631,2.4152342231880803,-0.8362372922671141,-2.3654140763165983,2.32568387472055,2.6413326814530085,-2.1328239894689025,-1.4479439216148247
-3.0796865308706036,1.898267865430298,-0.9471609941240303,1.075419645319748,-1.8756754222748695,2.522897743194857,-1.167097649243671,-3.2186908969198536,3.5334223277053463,4.192944821968973,-2.406379349952682,-1.3233944970662836
-4.097798629488628,1.5583796122512712,-0.3442142002975322,2.148880885217745,-2.936455338956064,2.7178277942452147,-1.312077116341131,-3.9451559919782873,4.241790140107795,5.410480578852261,-2.625507788729427,-1.2687333112119572
-4.768286682736928,1.3210449740901982,0.16472919648609988,3.053757038582377,-3.7800052725431463,2.784678304796051,-1.2247806920286206,-4.473352069257035,4.482799263433703,6.209116814258432,-2.8616533320675552,-1.2397941596725166
-5.210799561455653,1.1739607418621087,0.471853449998136,3.790236864213477,-4.446418226014569,2.7323353602416076,-1.0114492799597157,-4.79292192750494,4.476559493149519,6.81320627184494,-3.06644740190617,-1.2319339263134517
-5.489659943928842,1.072070624430853,0.6444582179238714,4.392831455251016,-4.982974152956576,2.630444338991157,-0.7533594772472918,-4.989733659424888,4.331238100075579,7.378290434327722,-3.185686015475594,-1.284563534492774
-5.600241108789944,1.0100437467156653,0.7204058981903599,4.908340303256554,-5.428447603661243,2.4968928689483914,-0.4698370642072298,-5.1202983074396435,4.0946961536304105,7.979578425916297,-3.2149108540856868,-1.404293808226073
-5.531611077897862,1.0000216215708448,0.7197421757932652,5.374225339015558,-5.810302621312415,2.348180438521947,-0.17801051265058931,-5.205496886676906,3.8296495853183368,8.665057637688086,-3.173553773604201,-1.580477160725747
-5.31707278771472,1.0423073120625652,0.6911325438567473,5.81185838420467,-6.14714048368563,2.2164717371387437,0.07144926005155999,-5.229061564007614,3.6191416242236416,9.445408518188852,-3.0924882272007586,-1.7741270504483326
-5.060795102050407,1.1095314928168853,0.6914813083226766,6.190337211048402,-6.472681216607753,2.119849019965612,0.23638389670760496,-5.171199274698269,3.4875272117076928,10.279023641748925,-3.0080627264831614,-1.9285628393952212
-4.84145336674406,1.172586059905933,0.7224973935767236,6.481301169489653,-6.832841770759186,2.041091350158358,0.3454351851970453,-5.055009475316288,3.395212297520536,11.106251155412991,-2.9515019750797187,-2.0259758378019233
-4.671208023704153,1.2231410039963146,0.7695093842022913,6.698606266496216,-7.23484504137582,1.9667896754456409,0.43077119887762694,-4.925954950926624,3.3166787434825307,11.896040676876545,-2.9253360580942536,-2.07978370191119
-4.5386152225676915,1.263147084192664,0.8278360850773515,6.8655383361546205,-7.654735337000084,1.8990915981632555,0.501619038371232,-4.811102845098439,3.245183709356416,12.642815252241643,-2.915302711995447,-2.109621563354286
-4.432106322532994,1.2957095591920684,0.8949349008225739,6.999057358067832,-8.071638802218741,1.840371715562503,0.560449012621181,-4.714807205382365,3.1787778619000266,13.347812305021648,-2.9111492877441045,-2.1279794547757023
-4.3439497216874265,1.3230065278401606,0.9672598269286437,7.109535316223459,-8.474739030919986,1.7902430351997298,0.6093930172726953,-4.633187708476262,3.1167495187376253,14.013523229224804,-2.9086392155901106,-2.140735990756849
-4.269265713000472,1.3464098379490332,1.0413948352491806,7.203285110223974,-8.859547442559457,1.7473744877025634,0.6504695859947082,-4.562214355949119,3.0588573903734035,14.64293848910791,-2.906328139909724,-2.1505140655024
-4.204852192235797,1.3668160196814974,1.1148485340262912,7.284368512609016,-9.224738605746403,1.71044043249034,0.6853330955465169,-4.499225878782428,3.004918586517539,15.239220680736752,-2.90376433384161,-2.1585526028824846
-4.148492964441281,1.384847758826009,1.1860629442775779,7.355559605879203,-9.570524429370465,1.6783316640885741,0.7152648179958346,-4.442531827462114,2.954685389823199,15.805433371086611,-2.9008447194267943,-2.1654807288806666
-4.098590644576203,1.4009576265110169,1.2541460071677912,7.418838939294859,-9.897838356529512,1.6501587327955927,0.7412436107380654,-4.39097071990545,2.907882350117038,16.34441643673651,-2.8975921142047496,-2.1716399352820943
-4.053961309691152,1.415484294527948,1.3186240927654413,7.475664734288071,-10.207916352071745,1.6252178336872176,0.7640186884684032,-4.34369468822748,2.8642508435420533,16.85875786952383,-2.8940697354890044,-2.1772285764240826
-4.013708178298551,1.428686752163154,1.3792830559610236,7.527136629706093,-10.502088124235293,1.6029534953893745,0.7841687047527567,-4.300076338996157,2.8235579343940294,17.35079661561916,-2.8903470899804886,-2.182369632801804
-3.9771384296466805,1.4407669387347128,1.4360772293172048,7.574101596010197,-10.781677218155185,1.5829254328755022,0.8021460743445176,-4.259652834359721,2.7855872931923282,17.82263129057715,-2.8864874909494453,-2.187143697804643
-3.9437066837083496,1.4518852389343628,1.4890759210038829,7.617224903722791,-11.04795339344248,1.5647817998144435,0.8183089084750131,-4.2220801672840835,2.7501303078004558,18.27613156742725,-2.882544501781895,-2.191606078331116
-3.9129760663779116,1.4621712192607548,1.538428350830886,7.657038555006266,-11.302109150254166,1.5482387758303329,0.8329437433861484,-4.187095087602627,2.71698271653169,18.71295302194133,-2.8785617431645845,-2.195796389126767
-3.8845910997697777,1.471731134606239,1.584337914802857,7.69397481654143,-11.545247987886057,1.5330653540888903,0.8462818684740716,-4.154486007616927,2.6859455055091632,19.134555124601718,-2.874573820921327,-2.19974430306269
-3.8582585735877983,1.4806532457904245,1.6270420010068603,7.728389807708417,-11.778379247562745,1.5190720208670985,0.8585113080710459,-4.124072772712457,2.6568276509061435,19.542221114421018,-2.8706075480365985,-2.2034731277281563
-3.8337338203812275,1.4890116541493708,1.6667958931395446,7.76058039777122,-12.002417300990302,1.506102237546028,0.869785829897558,-4.0956938569289765,2.629449001622048,19.93707833194973,-2.8666831750964796,-2.2070020512850275
-3.810810676160119,1.4968691256617381,1.7038601446057546,7.7907965532040935,-12.218183882277597,1.494025926847047,0.8802318669163134,-4.06919908869686,2.6036424700618097,20.320117861083098,-2.862815533068745,-2.2103475375886164
-3.7893139843285213,1.5042792178881021,1.7384910378673781,7.819250547324901,-12.42641270212663,1.4827344090475663,0.8899539256185495,-4.0444461131068525,2.579255287111202,20.692212718591936,-2.8590150561860073,-2.2135241717567524
-3.76909388325074,1.5112879170214049,1.7709337565284382,7.846123968477772,-12.627755613937573,1.4721364092064557,0.8990388599742531,-4.021299136339631,2.5561493874272156,21.05413418591016,-2.8552886751386386,-2.2165451557872737
-3.7500213692383824,1.5179349229124612,1.801417861276417,7.87157315291371,-12.822789695972777,1.4621548743572579,0.9075592719595985,-3.9996288908542588,2.534201116180475,21.40656614775265,-2.8516405805019533,-2.219422588643134
-3.731984791392839,1.5242546748554602,1.8301546399358213,7.895733466390592,-13.012024719632922,1.4527244167870699,0.9155762265194177,-3.9793131156255295,2.5133004703520156,21.750117481934574,-2.8480728620737987,-2.2221676202373772
-3.7148870424589115,1.5302771817372072,1.8573359129155471,7.918722726349206,-13.195910591827785,1.443789249809131,0.9231414221710681,-3.960237127518604,2.4933500614426234,22.08533264920475,-2.8445860338094633,-2.2247905369410006
-3.6986432805887435,1.5360287011945504,1.8831339139974494,7.94064396952691,-13.374844476870607,1.435301515748748,0.930298927022434,-3.9422942619869126,2.4742639440116116,22.412700681265157,-2.841179456684752,-2.2273008139771244
-3.68317906379201,1.5415322999700491,1.9077019218218976,7.961587711984135,-13.549177408447434,1.4272199286786618,0.937086567407341,-3.9253860936239255,2.4559664121312585,22.732662778429173,-2.8378516731540655,-2.229707154976895
-3.668428810369921,1.546808319323483,1.9311753788604373,7.981633809395825,-13.719220288117452,1.4195086707740467,0.9435370391618393,-3.9094224256239034,2.43839083039988,23.045618720425434,-2.834600667049936,-2.232017529200595
-3.654334520253459,1.5518747636388628,1.9536732941921633,8.00085299849283,-13.885249231570098,1.4121364933924963,0.9496787979323136,-3.8943210779813273,2.4214785392398097,23.351932275115622,-2.8314240620649214,-2.234239210958456
-3.640844707358612,1.5567476263274356,1.9752997792864382,8.019308181519015,-14.047510269030086,1.4050759834941062,0.9555367738410823,-3.8800075207595,2.405177855105891,23.651935766953585,-2.828319270677853,-2.2363788223871275
-3.627913504026262,1.5614411641830854,1.9961456101364428,8.03705550183098,-14.206223435057606,1.3983029635971767,0.9611329467860107,-3.866414401033881,2.389443173406229,23.945933943712276,-2.825283603819065,-2.238442379032504
-3.615499906717444,1.5659681291378686,2.01628974417318,8.054145248602051,-14.361586299346849,1.391795999588241,0.9664868112634089,-3.8534810070357937,2.37423417379529,24.234207258302256,-2.8223143499335364,-2.240435336996031
-3.603567138272019,1.5703399646663327,2.03580074714936,8.070622620910402,-14.513776997522209,1.3855359956784719,0.9716157536129788,-3.8411527049137493,2.359515122661207,24.517014663286318,-2.8194088305426424,-2.24236264027672
-3.5920821067789483,1.5745669727531617,2.0547381048453532,8.086528375577203,-14.662956822316568,1.3795058598365522,0.9765353597647571,-3.829380374903674,2.3452542650401096,24.79459599913263,-2.816564438008782,-2.2442287670968026
-3.5810149448282957,1.5786584562753823,2.0731534083644827,8.10189937849596,-14.809272433148863,1.3736902262990922,0.9812596677241909,-3.8181198658421747,2.3314232970641506,25.067174043275774,-2.813778660007168,-2.2460377742677475
-3.5703386158725023,1.582622840793957,2.0910914112395265,8.116769075539283,-14.95285773762654,1.3680752243997585,0.9858013759862359,-3.807331480409368,2.3179969098454394,25.334956275384496,-2.811049094210722,-2.247793338938676
-3.5600285767990743,1.5864677790538648,2.1085909626784907,8.131167896206772,-15.093835492998037,1.3626482850810593,0.9901720166723196,-3.7969794983584264,2.3049523960384564,25.598136404564347,-2.8083734558826805,-2.2494987973263245
-3.550062487732272,1.590200240924225,2.1256858249444357,8.145123600832756,-15.232318669800765,1.3573979781551724,0.994382100304262,-3.787031741170022,2.292269310964015,25.85689569626502,-2.8057495804248784,-2.2511571802348955
-3.540419961640485,1.5938265910457259,2.1424053848145457,8.158661580271799,-15.368411614322461,1.3523138747417365,0.9984412376599999,-3.77745917885505,2.27992918095572,26.111404130108454,-2.80317542242161,-2.252771245333272
-3.531082347594202,1.597352656070375,2.15877526983753,8.171805115441758,-15.502211041280038,1.3473864303982293,1.0023582430098408,-3.7682355777985412,2.2679152524099213,26.36182141448782,-2.800649052325175,-2.2543435062709274


When LR = 0.8 and Momentum = 0.1

0.688485835374701,0.405939145905616,0.05775192899698031,0.3183991309848214,0.695608247138722,-0.3279778220224156,0.10327960215193445,-0.5370221730978452,-0.5042493832727242,0.640149291977171,-0.9581846605644279,-0.8443651704101985
0.82097922334426,0.23715210993235028,-0.38396411875836683,0.04394903895424951,0.5465698868927563,-0.16614952106057673,0.450171574782181,-0.8282984353341264,-0.2864396918590265,0.5014785375312567,-0.9409087278722467,-1.246369947828252
1.183390650701348,0.0627345434783254,-1.57031368535386,-0.37354592488643007,0.4371769295956745,-0.08409427440936965,1.0648511676344328,-1.9856089251256934,0.10764855200608993,0.8114137944709138,-0.6282845859557529,-1.7509499028314686
1.8689486564179807,-0.1682387250400657,-2.7576617645194714,-0.933079810314186,0.39705352494444807,-0.2091397101885455,2.053996261472484,-3.553396770858163,0.8158216216616356,2.3104493163688207,-0.1161087230161276,-2.294854924748441
2.6257802633998515,0.01642948002149204,-2.884380636396856,-1.465533161946975,-1.3172841208668815,-0.4989676611063707,3.059482149601518,-4.1167346869337935,1.764060425026675,4.246395348851719,-0.4945081322331394,-2.64680899000287
3.0410248095241537,0.5460659185433355,-2.246410663179549,-1.8324312152218758,-3.1639709140404353,-0.3615536220943092,3.5709815207358058,-5.2345058671657005,2.5427114182754793,6.508953548446071,-0.6205361927852138,-3.02000017739333
3.421847456087402,0.7796873912477037,-1.368551408479122,-1.915121832949496,-4.610612081768693,-0.10836446489710015,3.76367066659201,-6.458312810330684,2.6395649092441626,8.34475406062933,-0.6884638719423715,-3.354452406170136
4.045821477185213,0.6412885089439304,-0.5900126891178861,-2.136366491415815,-5.717125900630385,0.6596454811428983,4.076260564144895,-7.210359929030155,2.235187801400333,9.6658446641842,-1.0811866989163994,-3.4217051133853724
5.005061809809735,0.42363744384663965,0.018962088167731872,-2.6942878477166587,-6.547740191722043,2.4595879295090417,4.4007215852295385,-7.498188947635137,1.6567155961059694,10.7745502369769,-1.7776890499110047,-3.166407968263693
6.282034506506047,0.3225034146306489,0.502870441440315,-3.3268112858687524,-7.168861254188362,5.019281289337855,4.137541622998115,-7.534939437235541,1.39563825178223,11.806440418650405,-2.5064446676089545,-2.822501677135334
7.48133155437212,0.22236303605358446,0.8243526007212193,-3.765498064042867,-7.667609398527675,6.957306312107753,3.634161944359228,-7.611967332122087,1.4373797533965136,12.67739535848236,-3.041895857066131,-2.6063252758812356
8.424800954772241,0.12013034921006127,1.0069284214426957,-4.06502604198896,-8.037220265590504,8.216906375839125,3.1789608569042267,-7.772762428692568,1.5698825268716619,13.413654497923012,-3.38189045381219,-2.463504458558235
9.150283181205548,0.04314299350153383,1.1034628671211844,-4.3047872651624575,-8.31267703914916,9.04212767472151,2.8041017524332177,-7.972306279764786,1.6885425084165306,14.04780986706508,-3.5513901135961072,-2.349441681803616
9.727351435425362,-0.007711176522332646,1.1494846399290288,-4.5223710988204875,-8.529773873400579,9.591499722057788,2.497206451404376,-8.193580953433873,1.7739077254089635,14.602850449750003,-3.58790954994424,-2.248604947955684
10.212985831248353,-0.037056336957796115,1.1681618706005041,-4.734272410298121,-8.712067816538383,9.960521671561946,2.2501795024476015,-8.427798401002063,1.8305274738384425,15.096166170797504,-3.5318759975965284,-2.1600038594388655
10.648408746274228,-0.04914629585940563,1.1747978094270466,-4.94709461999401,-8.874331328916623,10.213335937895213,2.0589380047978314,-8.664261060611901,1.863274276659322,15.541143235973259,-3.423159256305228,-2.0860279604386145
11.060697207599555,-0.04830434742715266,1.1788279230905705,-5.1614573267255155,-9.025396002636784,10.395818036448667,1.918339274693934,-8.891491820499429,1.8753316191971081,15.94821360697899,-3.2961843649179308,-2.0276276847061596
11.46453122164137,-0.03917575659056143,1.1847782873370742,-5.3750192232309955,-9.169804948713205,10.538765470971493,1.8200137754425414,-9.101256307090372,1.8702191258504863,16.32541611041785,-3.1735742507331497,-1.9832127397257997
11.865417492842631,-0.025819876545934088,1.1935631552674324,-5.585332175593338,-9.30932672912685,10.659521902628484,1.753650487592408,-9.290877003864834,1.8523684067129291,16.6787451286939,-3.064566627015487,-1.9495910464014636
12.263917390791475,-0.010860690534219699,1.20429892742658,-5.791100129622214,-9.44436400701023,10.766049238004719,1.7094511396068552,-9.461957170857719,1.8263140442671104,17.012565596444585,-2.9696503045314784,-1.9234578118994843
12.6588924677242,0.004486989579190635,1.215769785568324,-5.991928207600473,-9.574900387416392,10.861729242637518,1.6796713004094295,-9.617644907484348,1.7958351830004609,17.33006875218558,-2.8863693782438142,-1.9022920264224688
13.049009882241453,0.01987315824073631,1.2270850451248854,-6.187771921088567,-9.700933042995574,10.948365983836661,1.6588858237956556,-9.760902766292388,1.7636380558084428,17.63363885537714,-2.812361472683008,-1.8844711033805184
13.433165675099753,0.035314393278154305,1.2377736423467645,-6.378661503377471,-9.822590886858142,11.027324632851688,1.6435938868563273,-9.894024595396903,1.7314351326181507,17.925102708488065,-2.746010278303819,-1.8690283287080565
13.81053143388509,0.05091332369035617,1.2476729822636747,-6.564635359062664,-9.940122673939515,11.09979678210179,1.6316753099569932,-10.018697119767925,1.7001780288867347,18.20589548492563,-2.6862594838542977,-1.8553914432702558
14.180515800261501,0.06674352055310664,1.2567973269824602,-6.745740485060313,-10.053849212462689,11.166821131215007,1.6219084103472117,-10.136167137831096,1.6703077985453456,18.47717276055545,-2.6323552432180857,-1.8432034061078955
14.542715921936225,0.0828226023355662,1.2652415731733173,-6.922041104083933,-10.164117270825795,11.229272105306297,1.6136108247490648,-10.247382867293073,1.6419609273009645,18.739886361428717,-2.5836854699314205,-1.8322195737713
14.896875850387204,0.09912185531669415,1.273124164995804,-7.093622342568989,-10.27126690779041,11.287862944091854,1.6064027101977247,-10.353090652826573,1.6151131176454314,18.99483555408491,-2.5397050497166713,-1.8222550574775602
15.242854679592762,0.11558502301380144,1.280558543565588,-7.260588973385657,-10.375612774739855,11.343163981445434,1.6000651347019206,-10.453895680532272,1.5896677080369002,19.242701830403654,-2.4999109935250816,-1.8131601094894145
15.580602739584634,0.13214481701941402,1.2876418373159644,-7.423061674343722,-10.477435946384277,11.395627831205315,1.5944618361882523,-10.550299251478407,1.5655043307340162,19.484073065073442,-2.4638396105348863,-1.804809231681726
15.910143357626955,0.14873408834474605,1.2944525742598623,-7.581172760349596,-10.576982356342018,11.445614735958852,1.5894987587011984,-10.642722566031736,1.5425027024136435,19.719460872887225,-2.4310697536578685,-1.797096169600045
16.231558277032573,0.1652920608741978,1.301052397931755,-7.735062371883345,-10.674464829031136,11.493414429968386,1.585104270823652,-10.73152301213277,1.5205524673367488,19.94931355189583,-2.4012252824642024,-1.7899310631877088
16.544975587613244,0.1817670244080854,1.3074890974976607,-7.884875380786447,-10.770066710293932,11.539263244262091,1.581219920053117,-10.817005974686325,1.4995559717311613,20.174026091023503,-2.373974939936183,-1.78323827120467
16.85055954567013,0.19811688143881925,1.3137996772468268,-8.030758983277806,-10.863945835423563,11.58335714147199,1.577796194067769,-10.89943419261313,1.4794278480606582,20.393948184952343,-2.349029763605859,-1.776954425267859
17.14850192061464,0.21430851983673985,1.3200129473954114,-8.172860867277775,-10.95623830548733,11.625861479574617,1.57479047942715,-10.979035532440186,1.460093468447219,20.609390777123366,-2.326138958588074,-1.7710265920475197
17.439014668777737,0.23031663239870503,1.3261515270036421,-8.311327744917616,-11.047061886355827,11.666917657702845,1.5721659231940281,-11.056008863461747,1.4414872211826222,20.820631470472886,-2.3050853500877815,-1.7654105838318759
17.722323773072596,0.2461224106146071,1.3322333141653664,-8.446304202161551,-11.136518849516861,11.706648128027345,1.5698906114132753,-11.130529106887332,1.4235509747554067,21.02791909051407,-2.2856806835821843,-1.7600694730972863
17.998664112594724,0.2617122817665361,1.3382725277316012,-8.577931818357426,-11.224698340310475,11.74516032473917,1.5679367584497033,-11.202751668133288,1.406232938417665,21.231477517059325,-2.2677611712217325,-1.7549722882742045
18.26827528748503,0.27707677389415636,1.344280435544814,-8.706348379148034,-11.311678362453819,11.782548893528972,1.5662799014148867,-11.272815246492748,1.3894868748116365,21.431508908601383,-2.251183883116878,-1.7500929387351587
18.531398185264095,0.29220954109980674,1.35026583269542,-8.831687362636885,-11.397527419436505,11.818897948838158,1.564898208952818,-11.34084484014793,1.3732714887122668,21.6281964344451,-2.23582336487355,-1.7454092826242003
18.788272244505283,0.3071065947168445,1.356235404846431,-8.954077498667473,-11.482305827127709,11.854282731006442,1.5637719148745866,-11.406954033241266,1.357549906832366,21.82170663615393,-2.2215688384707573,-1.7409024095530659
19.039133322531807,0.32176570116769815,1.3621939831760728,-9.073642379596734,-11.566066820587162,11.888770384944818,1.562882917273925,-11.471246216532785,1.342289200919976,22.012191463294826,-2.2083221560215236,-1.7365560947207346
19.284211963618088,0.3361858488951972,1.3681447199786765,-9.190500390430591,-11.648857587677213,11.922421496720476,1.5622143850117431,-11.533816702672164,1.3274600756792023,22.199789956994834,-2.1959956846034965,-1.7323562386995448
19.523732242566545,0.350366943543292,1.374089313158783,-9.30476444746603,-11.730719955420998,11.955290438590719,1.561750308560795,-11.594753211903083,1.3130366821270585,22.38462977286216,-2.184511042961155,-1.7282905834272344
19.757910812194122,0.3643094483437505,1.3800280970700853,-9.416542099421699,-11.811691218051466,11.987426258516555,1.5614752443926285,-11.654137110901047,1.298996415659055,22.56682837067259,-2.173797797525053,-1.724348302100463
19.98695629765708,0.37801421979009386,1.385960227119938,-9.525935520388366,-11.891804647881488,12.018873375205656,1.561374222983929,-11.712044249923778,1.285319556576578,22.746494168461037,-2.163792357572259,-1.7205198079381472
20.211068931768008,0.3914824049383643,1.39188380847536,-9.633041533550891,-11.971089974952061,12.049671771536696,1.5614327916610233,-11.768545150335418,1.2719888647556172,22.923727549825728,-2.154437345398601,-1.716796613829433
20.430440278129687,0.40471526004852093,1.3977960110593677,-9.737951912507112,-12.049573983091012,12.079857918466521,1.5616369242753105,-11.823706156727678,1.2589893900536604,23.098621633007834,-2.145680632433382,-1.7131710594808887
20.645253320560524,0.41771419975368873,1.4036932621298703,-9.840753347776536,-12.12728070308284,12.109464640289843,1.5619728387302576,-11.877589066286886,1.2463083433397932,23.27126307919753,-2.137475090035279,-1.709636331281274
20.85568239547974,0.4304805889183143,1.409571283362548,-9.941527923565102,-12.204232039785564,12.138522001196371,1.5624270393286288,-11.930252297290874,1.2339348840050186,23.441732587892975,-2.129777778782333,-1.7061861496885298
21.061893485372842,0.4430159134765656,1.4154253078955679,-10.040353039598838,-12.28044774417748,12.167057179795538,1.562986475228576,-11.981750479895782,1.2218596671052673,23.610105658602077,-2.122549761931544,-1.7028149271605428
21.264044302177677,0.45532161594183523,1.421250092674742,-10.137301909236594,-12.355945981379454,12.195095153649968,1.563638641959172,-12.03213535849875,1.2100746250505205,23.776452960848772,-2.115755517084551,-1.6995174937222024
21.462284718891578,0.467399234402427,1.4270401206372536,-10.232443558912296,-12.430743295332078,12.222658593826104,1.5643714059495382,-12.081455430796005,1.1985729200038318,23.940840886701753,-2.109362818015191,-1.6962892126797628
21.6567569553327,0.47925023862359367,1.4327895881151032,-10.325843325467485,-12.504855105974395,12.249768402656956,1.5651730238166042,-12.129756689279303,1.1873488452106367,24.103331783757756,-2.103342265547998,-1.693125723944715
21.847596019017526,0.4908762013224437,1.438492575204326,-10.41756283513487,-12.578295588178756,12.276443660155627,1.5660323226776949,-12.177082368381425,1.1763974295029065,24.263984486899677,-2.097667149426831,-1.6900231091028928
22.034929931633027,0.5022786876429511,1.444143032161971,-10.507660438465644,-12.65107806712578,12.302702059085581,1.5669387956705398,-12.223473538292115,1.1657142706496197,24.422854533822182,-2.092313076293484,-1.6869776977816897
22.2188802085749,0.5134593700571556,1.4497349150226406,-10.596191243071042,-12.723214936614788,12.32855979694437,1.5678823997245563,-12.268968810497263,1.1552955934723947,24.579994523825146,-2.0872579279135586,-1.6839861685807878
22.399562087829796,0.5244198873336212,1.4552621496647191,-10.6832075470949,-12.794718029925695,12.35403195786199,1.5688535821866179,-12.313604925777414,1.1451381778596077,24.73545423622841,-2.0824814895689583,-1.6810453453347618
22.57708495418576,0.5351620048247211,1.4607187379399977,-10.768758811444203,-12.865598457069186,12.379132452512597,1.56984346458638,-12.357416537698697,1.135239014765548,24.889281028393718,-2.077965410387251,-1.6781523559957805
22.75155259877621,0.5456875199790897,1.4660987370970668,-10.852891999570424,-12.935866867324457,12.403874266668108,1.570843795846254,-12.400436599118851,1.1255953114103652,25.041519953988782,-2.0736929306367307,-1.6753044904231464
22.923063590157117,0.555998303901184,1.4713963026358796,-10.93565168941625,-13.005533446766151,12.428269455722104,1.5718467709955368,-12.442696287570215,1.116204602212918,25.19221395695202,-2.069648843039375,-1.6724992214975827
23.091711539986758,0.5660962731666008,1.4766056856486223,-11.017080269442687,-13.074608019010709,12.452329266406196,1.5728451548352411,-12.484225227487604,1.1070645518032765,25.341404042233957,-2.065819273914776,-1.6697341643615988
23.25758537687511,0.5759834202071581,1.4817212374044835,-11.097218071639542,-13.143100075067188,12.476064251984727,1.5738323633555438,-12.525051613924845,1.0981728017123522,25.48912946987926,-2.0621915832367277,-1.6670070825075651
23.420769658595255,0.5856618131859763,1.486737420188911,-11.176103495311953,-13.211018795121896,12.49948425059448,1.5748022531008357,-12.565202179346183,1.0895271433075457,25.635427876644197,-2.0587543071452563,-1.6643158775380988
23.58134477316103,0.5951335423446673,1.4916487712414255,-11.253773216068618,-13.278373178048545,12.522598504541934,1.5757491567205517,-12.604702433573737,1.081125447430686,25.78033536655466,-2.0554969829790926,-1.661658517635912
23.739387190807452,0.6044007810165203,1.4964499106784779,-11.330262227351858,-13.345171980782123,12.54541570445951,1.5766679916270292,-12.643576693762768,1.0729654803296544,25.923886709362097,-2.0524101016011347,-1.6590330926480026
23.894969697984827,0.6134657578272821,1.5011355173164846,-11.405603983382102,-13.411423776237301,12.567943994263201,1.5775540789180849,-12.681848123311191,1.06504507167234,26.066115410664644,-2.049485043378002,-1.6564377743157996
24.048161568973715,0.6223307266277129,1.5057002903815595,-11.47983054764382,-13.477137028586508,12.590191036407804,1.578403158458344,-12.71953888926394,1.0573620729830813,26.20705379508058,-2.046713964848599,-1.653870774116325
24.199028765253868,0.6309980080245587,1.5101389357097872,-11.552972634044822,-13.542320047337897,12.612164045024214,1.579211465245302,-12.756670206216208,1.0499142258118817,26.346733161645183,-2.044089761287066,-1.6513303802250265
24.347634114081618,0.6394699622470692,1.514446124109094,-11.625059734768692,-13.606981041316697,12.633869788664875,1.5799755714678305,-12.793262384697888,1.0426993192389808,26.485183834459136,-2.041606020428915,-1.648814917293608
24.49403744468284,0.6477489816838522,1.5186164460925191,-11.696120219334308,-13.671128151386501,12.655314624321305,1.5806924460259604,-12.829334945975425,1.03571510186767,26.622435257548506,-2.0392569468876274,-1.6463227302545707
24.638295744466415,0.6558375130071784,1.522644374724759,-11.766181389571038,-13.734769429559648,12.67650451339196,1.581359444331029,-12.864906663166032,1.0289592637368745,26.758516104323665,-2.037037343948253,-1.6438521965252082
24.780463277516464,0.6637380333902037,1.5265242029382835,-11.835269600011243,-13.79791289685791,12.697445025640318,1.5819742231615128,-12.89999563865024,1.0224295253799285,26.893454325969564,-2.03494256937077,-1.6414016850130735
24.92059169604548,0.6714530712782211,1.5302499873511677,-11.903410312652422,-13.860566531392651,12.718141350891118,1.582534811410667,-12.934619377114045,1.0161235369234505,27.02727726491765,-2.0329685067060588,-1.638969565063688
25.058730143476826,0.6789852046036577,1.5338154751595527,-11.970628190909558,-13.922738295705349,12.738598293112897,1.5830395287888333,-12.968794839650126,1.010038962494679,27.160011719356966,-2.0311115531504607,-1.636554182238982
25.19492532621056,0.6863370677717269,1.5372140181260625,-12.036947186359885,-13.98443616140589,12.758820268522868,1.5834870225249496,-13.002538533684849,1.004173433646802,27.291684031830652,-2.0293685936100583,-1.6341538415228525
25.32922158853315,0.6935113728833554,1.5404384780293081,-12.102390614603827,-14.045668113747205,12.778811290918094,1.5838762422941692,-13.035866570092983,0.9985245715142207,27.422320180530537,-2.0277370077148604,-1.6317667973837513
25.461660951011204,0.7005109212034635,1.5434811043655348,-12.166981262686486,-14.106442190832876,12.79857495050663,1.5842064502715056,-13.068794756440472,0.9930899819736084,27.551945863591804,-2.026214662799495,-1.6293912240657846
25.592283144032148,0.7073386395806084,1.5463333958512082,-12.230741480014457,-14.16676649363266,12.818114381897873,1.5844772287491773,-13.101338674175055,0.9878672505379615,27.680586606064637,-2.0247999360104667,-1.6270252005373587
25.721125605024966,0.7139976146183241,1.5489859225306297,-12.29369330734855,-14.226649228267869,12.837432218018709,1.584688498870512,-13.133513784875047,0.9828539386902049,27.808267862603373,-2.0234917348402743,-1.6246666747196277
25.848223455792045,0.7204911539576988,1.5514281102345502,-12.355858610413975,-14.286098733364154,12.856530526331671,1.5848405493632496,-13.165335539327824,0.9780475716932159,27.935015144483305,-2.022289544648342,-1.6223134329649695
25.97360943592622,0.7268228642229224,1.5536479622312942,-12.417259258049222,-14.34512353025977,12.875410719693884,1.5849340864473371,-13.196819518838426,0.9734456176781088,28.060854158481916,-2.0211934898833674,-1.6199630523354496
26.09731379156093,0.7329967683550531,1.5556317013545427,-12.477917342061245,-14.403732376495896,12.894073432156814,1.5849703000305477,-13.227981603210097,0.9690454616382003,28.18581097415652,-2.0202044297823063,-1.6176128441961808
26.2193640942104,0.7390174744737886,1.5573632934591297,-12.537855472979281,-14.461934339733338,12.912518342688088,1.5849509702120552,-13.258838191065145,0.9648443574995653,28.309912225113173,-2.019324093140752,-1.6152597772423554
26.339784963364497,0.7448904283673918,1.5588238009835818,-12.597097187635779,-14.519738896662197,12.930743920249517,1.5848786191740927,-13.289406493459829,0.9608393632088055,28.4331853581069,-2.018555275640717,-1.6129003729769351
26.45859764571627,0.7506222980719717,1.5599904898876533,-12.65566752781961,-14.577156073349277,12.94874704503544,1.5847567428534013,-13.319704945945823,0.9570272398811943,28.555658951638264,-2.017902129522328,-1.6105305615306955
26.575819379875988,0.7562215637085372,1.5608356031013182,-12.713593872601372,-14.634196666333363,12.966522431564773,1.5845901653675645,-13.349753816184112,0.9534043013491539,28.677363132958085,-2.017370588330369,-1.6081454822876564
26.69146245836823,0.7616994002510799,1.561324801649143,-12.770907082765111,-14.690872637597577,12.984061741292644,1.5843855878861068,-13.379576141101658,0.9499661872095054,28.798330136484125,-2.0169689661745083,-1.605739229032739
26.80553295562015,0.7670708475119069,1.5614157769380699,-12.827642774767979,-14.747197934176299,13.00135226495761,1.584152426479052,-13.409199211946593,0.9467075175202164,28.918595050889536,-2.0167086723094227,-1.6033046182088064
26.918029485590658,0.7723557196837996,1.5610594668296,-12.883841478168348,-14.803190396194871,13.018375265477966,1.5839039836892226,-13.438656869290096,0.9436213607770028,29.03819675821576,-2.016604524898391,-1.60083336514812
27.02894387465948,0.7775767040043133,1.5602123596871247,-12.939542869563335,-14.858876398313317,13.035105151867107,1.583658629262264,-13.467992524018081,0.9406983787445995,29.157178839896222,-2.0166725804211914,-1.5983180101904848
27.138269995828843,0.782746580729751,1.5588835098007825,-12.994759950542992,-14.914301636244938,13.051514296605946,1.5834393315938244,-13.497260869699774,0.9379252671891749,29.275589480565344,-2.0169192268258023,-1.5957593129811896
27.24603485917151,0.7878276688688901,1.5572626615772682,-13.049404352911598,-14.969552138154476,13.067596552784684,1.5832669179002328,-13.526520108145222,0.9352811958262295,29.393477726173003,-2.0173085537650484,-1.5931863384304552
27.352363189791653,0.7926569531659303,1.5559520810790206,-13.103148542240357,-15.024779107496945,13.083427570544956,1.5831415457555986,-13.555796957033065,0.9327285481629801,29.510881717789115,-2.0177006878414647,-1.590692444132573
27.457525957486936,0.7969240895513517,1.5561050988927358,-13.155354877317414,-15.080186174028013,13.099240789952574,1.5830249056414616,-13.58501848198952,0.9301929369296235,29.627807291829132,-2.017815612195952,-1.5884554260296044
27.56183550559451,0.8003883916106471,1.5590033465731659,-13.205379471911183,-15.135929558423753,13.115401270410054,1.5828723475818485,-13.613975078537308,0.9275387716490218,29.74420490120993,-2.0173529340451717,-1.5866671428626302
27.665406625477207,0.8032150202101269,1.565164840117788,-13.253159254765619,-15.192005762837272,13.132208044837048,1.5827275203556523,-13.64240854081924,0.9245656553118364,29.8599599316867,-2.0162266262139186,-1.5853869096985576
27.7680831474534,0.8059414476527424,1.5740049418069617,-13.299356055797169,-15.24827342084784,13.149712291936506,1.5827768360835828,-13.670166430188486,0.9210403695128891,29.974913234859184,-2.0146176492547965,-1.584486386009346
27.869617429401465,0.8090863582276003,1.5844018950596641,-13.34487143124433,-15.304569580834256,13.167739685761669,1.5832887516129812,-13.697263006757922,0.9167500902598648,30.088912134192768,-2.012790431361104,-1.58375157595055
27.969849292477658,0.8128905523520176,1.5953777423820963,-13.390363918126408,-15.360783247266138,13.18604016235997,1.5845058561132097,-13.723816915014584,0.911547853999695,30.201854528172436,-2.0109264642719618,-1.5830060937342967
28.068736234861106,0.817344895274332,1.606341119485219,-13.4361435275089,-15.41686261195275,13.204403404329128,1.5865824479568709,-13.749962335278479,0.9053676175196379,30.313695764579265,-2.0090967874646295,-1.5821505378805678
28.166302525468378,0.8223239116953892,1.6170150844713693,-13.482287801889429,-15.472796944676064,13.222691789707628,1.5895828780651393,-13.775802628340086,0.8982100452830376,30.42443162282684,-2.0073065920041366,-1.5811429134390316
28.262591533227997,0.8276837804039205,1.6273030355926206,-13.528768475963941,-15.528598453846065,13.240827575076388,1.5935089909458982,-13.801403554838982,0.8901166028602059,30.53408026886578,-2.005538610300881,-1.579971251851961
28.357643101808492,0.83330373517579,1.6371953189666817,-13.575523885498676,-15.584290505266365,13.258771474906666,1.5983291155984087,-13.826801831804039,0.8811468837093828,30.64267111558735,-2.003775326598015,-1.5786367969921644
28.45148775302355,0.8390944294704269,1.6467204722954012,-13.62248911889383,-15.63990117634654,13.27650667300411,1.603997994990824,-13.852014896437568,0.8713644899278539,30.75023947923434,-2.0020061962580793,-1.5771464106639246
28.54414789466919,0.8449940042528228,1.6559229771147457,-13.66960510254558,-15.695459720905856,13.294029421168206,1.6104672104889717,-13.87704792890622,0.8608306534212143,30.85682456186391,-2.000228373080245,-1.5755097961605682
28.635640899271113,0.8509617658260672,1.664853726287166,-13.716819289879604,-15.750994226567066,13.311344076460488,1.6176888669688323,-13.90189826357134,0.8496029637096326,30.962469058171934,-1.9984455624060682,-1.5737387501691051
28.725982126088915,0.856972678734195,1.6735659198094521,-13.764083653563137,-15.806529668166963,13.328460567016947,1.6256153857933275,-13.9265581533413,0.8377367803078023,31.06721939310058,-1.9966666460604428,-1.5718471032079784
28.815187325767184,0.8630131405735189,1.6821130065418886,-13.81135226681405,-15.862086154767834,13.34539298114163,1.6341975351383502,-13.951016700116174,0.8252876013605419,31.171126002635855,-1.9949043916835516,-1.5698507447101833
28.9032743135512,0.8690777259816186,1.6905471980047024,-13.858579370538845,-15.917677457407777,13.362158534622493,1.6433821319770032,-13.975261452297538,0.812313287672301,31.27424330530811,-1.993174164549479,-1.5677674629198048
28.990263921696414,0.875166529973628,1.698917985176628,-13.905718268884861,-15.973309999652686,13.378776548964831,1.6531103183989262,-13.999279897447204,0.7988755196377828,31.376629180346658,-1.991492555208305,-1.5656165029785218
29.07618029331972,0.8812828816332033,1.7072705431954731,-13.952721124619506,-16.028982467016558,13.395267330250045,1.6633168975535955,-14.02306087507516,0.7850402299320807,31.478343915385707,-1.9898759495208964,-1.5634178607378189
29.16105062826143,0.8874313519943192,1.7156441437067977,-13.999539544564852,-16.084686093397796,13.411651006321428,1.6739308631743248,-14.046595809203641,0.7708770350084295,31.579448716703862,-1.9883391746034478,-1.5611914099473583
29.244904535864528,0.8936160845114538,1.724070792457133,-14.046125717139596,-16.140405559086226,13.42794646324163,1.6848769696042456,-14.069879618786391,0.7564578839990848,31.68000397137709,-1.9868943977652727,-1.558956002721841
29.32777317209755,0.8998395178423401,1.7325743042588466,-14.092433801307209,-16.19612033068605,13.444170524800876,1.6960779946798952,-14.092911198128991,0.7418552460534675,31.780067494388383,-1.985550422652219,-1.5567286826106936
29.409688328791994,0.9061015562812127,1.7411699499473665,-14.138421277652691,-16.25180622006136,13.460337462857646,1.7074572694091672,-14.11569344022111,0.7271401693247517,31.879692978688162,-1.9843124404672674,-1.5545241125410565
29.490681605125836,0.912399194587902,1.7498647000492924,-14.184050043979779,-16.307436945037477,13.47645884744279,1.7189410810684613,-14.138232863176789,0.7123804879116667,31.978928804954666,-1.983182196508369,-1.5523542637769359
29.57078374014756,0.9187265474666464,1.7586579872582941,-14.229287138160151,-16.36298552472169,13.492543678514185,1.730460665143639,-14.160538960472062,0.6976393598182727,32.07781728538094,-1.9821584611676937,-1.5502283571845497
29.650024135755697,0.9250751908188216,1.767542841764624,-14.274105066601425,-16.418425411676182,13.508598705436109,1.7419536382491825,-14.182623415370301,0.6829742214193323,32.176394337974195,-1.9812376672080256,-1.5481530091845481
29.728430562493834,0.9314347024889881,1.7765072289613726,-14.318481785725268,-16.47373132865207,13.524628836862863,1.7533648473911867,-14.204499304148873,0.6684361640229436,32.27468953171289,-1.9804145870248855,-1.5461325169171827
29.806029018997364,0.9377932940246665,1.7855354314792484,-14.362400419760213,-16.528879825641184,13.540637562213742,1.7646466975533832,-14.226180377045582,0.6540696852694415,32.37272641390552,-1.9796829581440625,-1.5441692174025312
29.88284370785575,0.9441384447475949,1.794609352494172,-14.405848806036468,-16.583849600279397,13.556627333043348,1.7757590649914725,-14.24768046608815,0.639912741610426,32.470523025550484,-1.979036005070966,-1.5422638670034863
29.95889709165034,0.9504574761918589,1.8037096600527898,-14.44881894887082,-16.638621634520646,13.5725998783421,1.7866689153091382,-14.269013035642352,0.6259970218376137,32.56809252056869,-1.978466839293025,-1.5404160033917442
30.034209998628416,0.9567380313782194,1.812816732027521,-14.491306444834013,-16.693179198873654,13.58855644713557,1.7973497353547496,-14.290190868776289,0.6123483680367573,32.66544382237007,-1.9779687421190268,-1.5386242675692714
30.108801754700536,0.9629684451190238,1.8219113925942765,-14.53330992268239,-16.747507767938842,13.604497983709818,1.8077808674174338,-14.31122587009226,0.5989872829148346,32.76258227031483,-1.977535347413487,-1.5368866757892055
30.182690325302918,0.9691380069943406,1.83097545230135,-14.57483052432672,-16.80159488148551,13.62042524660494,1.8179468111372405,-14.332128961075652,0.5859294766382039,32.85951022566348,-1.9771607457318854,-1.5352008397653818
30.255892456339932,0.9752371280744128,1.8399920758906714,-14.615871440323916,-16.855429976209255,13.636338884120907,1.827836537588588,-14.35291004439034,0.5731864194853293,32.95622762008937,-1.976839530882847,-1.533564138736062
30.32842380769741,0.9812574270744803,1.8489460071502786,-14.65643750447396,-16.90900420566529,13.652239478250058,1.8374428431133474,-14.373578016543307,0.5607658775770665,33.052732439577284,-1.976566806978674,-1.5319738495528632
30.40029907585136,0.9871917528459255,1.857823680489292,-14.696534846500752,-16.96231025993611,13.668127567007572,1.8467617579833924,-14.394140812291326,0.5486724174251596,33.14902114300076,-1.9763381702376683,-1.5304272418382536
30.471532104102014,0.9930341592227235,1.8666132465403171,-14.736170598629664,-17.015342192257155,13.684003652897983,1.8557920163386987,-14.414605468113521,0.5369078712516069,33.245089018648216,-1.9761496761121977,-1.5289216450823022
30.54213598025059,0.9987798462459768,1.8753045353485955,-14.775352650372094,-17.068095256765073,13.699868203178259,1.8645345882522912,-14.434978195534253,0.5254717593817947,33.34093048410193,-1.9759977991644024,-1.5274544938361079
30.612123122277072,1.004425079366482,1.8838889765379452,-14.814089445377022,-17.120565759474662,13.715721645840482,1.8729922714016525,-14.455264457893822,0.5143616689397461,33.43653933579945,-1.9758793906313528,-1.5260233562257286
30.68150535297635,1.0099670957979714,1.8923594918265927,-14.852389814366152,-17.172750923237263,13.731564363895226,1.8811693379798253,-14.475469046319562,0.5035735899547802,33.53190895476341,-1.975791636779749,-1.5246259500554444
30.750293964686108,1.0154040049923676,1.9007103716848013,-14.890262838654918,-17.224648766584895,13.747396689544603,1.8890712316357163,-14.495596152245634,0.49310221113514496,33.62703247469278,-1.9757320198439163,-1.5232601498898535
30.818499775271345,1.020734688332764,1.9089371449059596,-14.927717739377908,-17.276257995852255,13.763218899143315,1.8967043090099467,-14.515649434959254,0.4829411782046096,33.721902918074996,-1.975698282454338,-1.5219239877470183
30.88613317647986,1.0259587016134317,1.917036447404691,-14.964763788183793,-17.327577909688213,13.779031209378143,1.904075620576682,-14.535632083430272,0.47308331800039694,33.81651330535729,-1.9756883958882039,-1.5206156494085283
30.953204175701494,1.0310761826755668,1.925005894619132,-15.00141023578456,-17.378608314930275,13.794833774800498,1.9111927258425856,-14.555546872197393,0.4635208316103926,33.91085674156497,-1.9757005321191576,-1.519333467849613
31.019722432050227,1.0360877656507856,1.932843960403309,-15.037666255300344,-17.429349452779615,13.810626686670016,1.9180635383891529,-14.57539621141411,0.45424545976730885,34.00492648415223,-1.9757330394405777,-1.5180759148973704
31.085697287579727,1.0409945025863978,1.9405498641774799,-15.073540897831473,-17.479801934223175,13.826409972968246,1.9246961967084224,-14.595182191354795,0.44524862356808975,34.09871599529631,-1.9757844213326439,-1.5168415919207214
31.151137794337586,1.04579779273552,1.9481234672787486,-15.109043058110647,-17.529966683707126,13.842183599400279,1.9310989572389423,-14.614906621787794,0.43652154338924914,34.192218981368356,-1.9758533182072868,-1.5156292201237715
31.216052737861894,1.0504993194524077,1.955565178866767,-15.1441814484443,-17.579844890129852,13.857947471188908,1.9372801064406935,-14.634571066672365,0.4280553386441878,34.285429421864,-1.975938491662687,-1.5144376308396497
31.280450657640326,1.055100994405202,1.9628758713255738,-15.178964579453243,-17.629437964303317,13.87370143547729,1.9432478891418046,-14.654176874646126,0.419841110794911,34.37834158972128,-1.9760388109027278,-1.5132657560927636
31.344339864972827,1.0596049086720571,1.9700568048267864,-15.213400746373893,-17.678747502109196,13.889445284173293,1.9490104507472292,-14.673725205754673,0.4118700117979135,34.47095006462673,-1.9761532410086884,-1.512112619601961
31.407728458614056,1.0640132902030364,1.9771095605437523,-15.247498019889521,-17.72777525265432,13.90517875709209,1.9545757912169208,-14.693217054851438,0.4041332999394301,34.56324974064685,-1.9762808327878723,-1.5109773283284693
31.47062433851405,1.06832846709192,1.9840359819022892,-15.281264240638471,-17.77652309080545,13.920901545279891,1.9599517290025854,-14.712653272058132,0.3966223848027478,34.655235829296224,-1.97642071396097,-1.5098590646224987
31.5330352179279,1.0725528360926238,1.9908381232035601,-15.314707016688201,-17.824992993549888,13.936613294420415,1.9651458733791525,-14.732034580641727,0.38932886291208313,34.74690385896443,-1.9765720814840841,-1.5087570789883893
31.59496863412491,1.0766888358277231,1.9975182049421973,-15.347833723387316,-17.87318701969414,13.952313608251671,1.9701656038246211,-14.751361592627768,0.38224454541565855,34.83824967146535,-1.9767341948329975,-1.5076706834639175
31.656431957891943,1.0807389241633747,2.0040785751530135,-15.38065150510784,-17.921107292466903,13.968002051933738,1.9750180552904675,-14.77063482243274,0.3753614790044047,34.929269416336105,-1.9769063701045437,-1.506599245593573
31.71743240199718,1.0847055592589916,2.010521676148395,-15.413167278473354,-17.968755984647792,13.983678155325192,1.9797101083706952,-14.7898546987667,0.3686719611123775,35.01995954341105,-1.9770879748135157,-1.5055421829658042
31.777977028755487,1.0885911838381723,2.01685001604856,-15.445387736739484,-18.01613530588746,13.999341416139115,1.9842483835205975,-14.809021575027744,0.3621685503106394,35.11031679409299,-1.9772784232830263,-1.504498958277878
31.838072756817613,1.0923982122691287,2.0230661445493885,-15.47731935505177,-18.06324749192563,14.014991302956805,1.9886392386011307,-14.828135738381883,0.3558440726850486,35.20033819167238,-1.9774771725440887,-1.5034690748895434
31.89772636728327,1.0961290200827665,2.0291726324188666,-15.508968396352557,-18.11009479545151,14.030627258089083,1.99288876913185,-14.8471974176987,0.3496916248820793,35.29002103098528,-1.9776837186732907,-1.5024520728257609
31.956944509229725,1.0997859355943245,2.0351720542631337,-15.540340917753104,-18.156679478382717,14.046248700275951,1.9970028107299087,-14.866206790491818,0.3437045744119751,35.37936286763479,-1.9778975935090222,-1.5014475251887816

When LR = 0.01 AND Momentum = 0.1
0.37659811377790847,0.7179871988839724,0.33832427153362904,0.7081703310853106,0.546835985975947,0.4242192787207989,-0.03587574567174783,0.7979298524832781,0.6224003575694436,0.14164752051835738,0.7953057417071929,0.6659785040296821
0.37658806536222117,0.717975204518424,0.33825456906512236,0.7081510341073783,0.5467053222267645,0.3955502180658046,-0.07752040149639478,0.7727386511510871,0.5854986197015098,0.14158462403452546,0.7590243074075667,0.6120808518250207
0.3765803475575345,0.7179656744495987,0.3381882336859237,0.7081368214052648,0.5465816213416327,0.3664339151059665,-0.11809857150972891,0.7471614675472579,0.5495362150194444,0.14152512038710682,0.7221990736797854,0.5595360159445316
0.3765748163140969,0.7179584845003858,0.33812565665695105,0.7081274135338359,0.5464656464517215,0.33700570773251,-0.15710768177494927,0.7213180945567619,0.5149573440405819,0.14146936675736674,0.6850049336195498,0.5089911507571062
0.37657125945048564,0.717953439645514,0.33806709963074616,0.7081223806573868,0.546357896287735,0.3074255591271037,-0.1941170052715641,0.6953499696944992,0.48214276978309495,0.1414175924095304,0.6476481086555921,0.46100146140444437
0.37656942258276543,0.7179502995942498,0.3380126946599617,0.7081211952207441,0.5462586049497368,0.2778752850054095,-0.22879795528767183,0.6694177099300597,0.4513830448151598,0.14136990007866104,0.6103625215858657,0.41599114919362634
0.3765690357974364,0.717948805472767,0.3379624590174235,0.7081232876787169,0.5461677717373525,0.2485535455879986,-0.2609380033244581,0.6436966775833854,0.4228662020755229,0.1413262815440047,0.5734033125341301,0.3742353785974354
0.37656983535698296,0.7179487017306919,0.3379163181840095,0.7081280932172432,0.5460852079490743,0.21966869702254344,-0.290438227891729,0.6183706627913546,0.3966799062550476,0.14128664082535086,0.537037627295933,0.3358632866799863
0.3765715776364744,0.7179497503017507,0.3378741302056039,0.7081350831252504,0.5460105870847489,0.19142998022829694,-0.31729852143188075,0.593624105936943,0.3728245103805965,0.14125081841715142,0.5015332978877041,0.3008768820184052
0.3765740455248811,0.717951737155048,0.337835706833867,0.7081437807040967,0.5459434891204307,0.16403788896585147,-0.34159616506272117,0.569633603788854,0.3512319750388643,0.14121861219147125,0.46714649900490596,0.26917850607026095
0.3765770494027924,0.7179544733414125,0.3378008297109332,0.7081537656254355,0.5458834350795306,0.13767479324785575,-0.3634629885233241,0.5465596488297207,0.3317860414369441,0.14118979336209503,0.43410976073109053,0.2406001512580601
0.3765804252505415,0.7179577931417153,0.3377692619761325,0.7081646717761924,0.5458299123235935,0.11249691334536008,-0.38306468122461595,0.5245395669991073,0.3143405075577603,0.14116411792050662,0.4026217382159589,0.2149300453184078
0.3765840318976765,0.717961551395882,0.337740756609368,0.7081761826976649,0.5457823929139407,0.0886285234083226,-0.40058402254516684,0.503682427322042,0.29873404442063184,0.14114133482498958,0.37283985827935767,0.19193421942774117
0.37658774853654936,0.7179656211828445,0.33771506282333297,0.708188027014825,0.5457403475021657,0.06615887104880773,-0.4162084285380689,0.4840663498999902,0.2848012005741262,0.14112119220311367,0.34487645742292933,0.17137254034566202
0.37659147285277167,0.7179698922171887,0.33769193136503733,0.7081999747173789,0.5457032564274628,0.045141844278411745,-0.43012140713219116,0.4657382373308961,0.27237995436573553,0.14110344239166175,0.31879844225285303,0.15300972375739452
0.37659511966408066,0.7179742698361837,0.33767111909221936,0.7082118342092436,0.5456706188118484,0.025598021026623303,-0.44249717175946807,0.44871560555880163,0.26131647605440045,0.14108784617205564,0.294629996856509,0.1366222881928173
0.376598619794565,0.717978674268236,0.3376523928590548,0.7082234496831721,0.5456419598462666,0.007518481888181006,-0.4534976134501071,0.43298996628791026,0.25146780613804987,0.1410741762537293,0.2723575377530098,0.12200247505659662
0.3766019189382448,0.7179830398968341,0.3376355326138935,0.708234698403141,0.5456168362208834,-0.009130322115160534,-0.463270927517209,0.4185311354961286,0.2427030715622876,0.14106221994016094,0.2519360058394549,0.10896003826029889
0.3766049763731817,0.717987314347308,0.33762033362325067,0.7082454876682416,0.54559483966793,-0.02440130468860883,-0.4719513372623633,0.4052918876314199,0.23490373233425052,0.14105178092612244,0.23329565161011714,0.09732261980573387
0.37660776349708486,0.7179914573443957,0.33760660781388896,0.7082557514338009,0.5455755987140445,-0.03836160384392843,-0.4796595024146676,0.393212495907358,0.227963222784559,0.1410426802462439,0.21634864653473745,0.08693524144657051
0.3766102622312253,0.7179954393762416,0.33759418430875726,0.7082654467039685,0.5455587788731918,-0.051087919538354676,-0.48650332259167617,0.3822248474770449,0.2217862434638595,0.14103475646928842,0.2009950696721498,0.07765928524678019
0.3766124633745657,0.7179992402448346,0.33758290929149803,0.7082745498703389,0.5455440815972139,-0.06266252453884222,-0.49257894066060387,0.37225596214205403,0.21628787610788508,0.1410278652816798,0.18712802208728668,0.06937121435468104
0.37661436499339984,0.7180028475929189,0.33757264536037357,0.7082830531713542,0.5455312423274342,-0.07317001706002667,-0.49797181978851235,0.36323085490584256,0.21139263322708954,0.14102187862196217,0.1746377838528809,0.06196119672873793
0.37661597091643284,0.7180062554856306,0.3375632705308208,0.7082909614118018,0.5455200279690294,-0.08269479575524377,-0.5027578161353978,0.35507476016855977,0.20703351132069167,0.14101668352094557,0.16341504082788583,0.055331732590233634
0.3766172893826364,0.7180094631037908,0.33755467702660163,0.7082982890336664,0.5455102340600052,-0.09131918513630499,-0.5070042017160445,0.34771478153510677,0.20315108793252962,0.14101218077997113,0.153353275246958,0.049396344444072635
0.3766183318666638,0.718012473583218,0.3375467699719864,0.7083050575831481,0.5455016818452163,-0.09912211467756947,-0.5107706133426779,0.3410810529647987,0.1996926838653923,0.14100828359114742,0.14435044550723874,0.044078360951737075
0.37661911208825205,0.7180152930147462,0.3375394660686965,0.7083112935810545,0.5454942154064292,-0.10617824908656087,-0.5141099171855813,0.3351075019633995,0.19661159982657764,0.14100491617474512,0.1363100875284754,0.039309808364632104
0.3766196451986469,0.7180179296052754,0.33753269231532224,0.7083170267773454,0.5454876989474655,-0.1125574730085652,-0.5170689868679971,0.32973230031855744,0.19386642936942902,0.14100201248379488,0.129141962312722,0.03503041240270374
0.3766199471289439,0.7180203929902187,0.33752638480573144,0.7083222887543758,0.5454820142923944,-0.1183246451552819,-0.5196893979221431,0.32489807746611615,0.19142044565244376,0.14099951500581098,0.12276235904868868,0.031186707106839517
0.37662003408087047,0.7180226936821518,0.33752048762659576,0.7083271118353673,0.5454770586242793,-0.12353955073050604,-0.5220080441004635,0.3205519592767972,0.18924105717730727,0.14099737367646506,0.1170941451261591,0.027731243729372666
0.3766199221391205,0.7180248426381506,0.337514951862559,0.708331528252483,0.5454727424707413,-0.12825699478829714,-0.52405768228649,0.3166454828773971,0.18729932655969134,0.1409955449094555,0.11206663665862182,0.02462189109178854
0.3766196269849874,0.7180268509275969,0.33750973470953677,0.708335569530602,0.5454689879287543,-0.1325269915950653,-0.5258674131300782,0.31313442712883166,0.18556954604784623,0.1409939907398623,0.1076153470897331,0.021821218326941012
0.37661916369256154,0.7180287294834261,0.3375047986916417,0.7083392660465823,0.5454657271129435,-0.13639501567298395,-0.5274631044010306,0.3099785890144388,0.18402886361779036,0.14099267807403393,0.10368165781497689,0.019295951074115126
0.37661854659100136,0.7180304889212888,0.33750011097426,0.7083426467288823,0.5454629008071556,-0.1399022888932339,-0.5288677636414063,0.30714152851895987,0.18265695383772718,0.1409915780368261,0.10021244358286763,0.017016492713254405
0.37661778917873306,0.7180321394131209,0.33749564276445454,0.7083457388674406,0.5454604572977293,-0.14308608490246438,-0.530101866145092,0.30459029847654223,0.18143572818046655,0.14099066540605662,0.09715967656529599,0.014956502923403675
0.37661690407776666,0.7180336906036309,0.3374913687893601,0.7083485680086776,0.545458351366841,-0.14598003754180086,-0.5311836436917208,0.3022951711241327,0.18034907999311636,0.14098991812401673,0.09448002609401848,0.013092526615528786
0.37661590301837056,0.7180351515601083,0.33748726684342767,0.7083511579150489,0.5454565434255396,-0.14861444401878257,-0.532129338862893,0.30022936948083856,0.17938265986172855,0.14098931687636612,0.09213446580805079,0.011403667053663892
0.3766147968462649,0.7180365307476848,0.3374833173959749,0.7083535305725492,0.5454549987677632,-0.15101655666934216,-0.532953429201323,0.29836880896256535,0.17852367760927512,0.1409888447294842,0.09008789602053331,0.009871297702880404
0.3766135955460268,0.7180378360237042,0.3374795032512133,0.7083557062328518,0.545453686928642,-0.15321085941976975,-0.5336688249524435,0.2966918526391001,0.17776072762514816,0.1409884868182802,0.08830878620945821,0.008478808008680736
0.3766123082757972,0.7180390746460708,0.33747580925370546,0.7083577034797344,0.5454525811323115,-0.15521932671154873,-0.5342870436589088,0.2951790820858706,0.17708363463835552,0.14098823007736774,0.0867688404274243,0.007211378912441819
0.3766109434094284,0.7180402532916407,0.33747222203311145,0.7083595393115655,0.5454516578163924,-0.1570616638337641,-0.5348183644622198,0.29381308474281587,0.17648331741411755,0.1409880630094432,0.08544268691992227,0.006055784440609672
0.3766095085831189,0.7180413780813998,0.3374687297828002,0.7083612292337709,0.5454508962220515,-0.15875552843596005,-0.5352719645991953,0.2925782579649326,0.17595166817695534,0.14098797548549832,0.08430759218867243,0.005000216174528329
0.3766080107443278,0.7180424546101384,0.3374653220676184,0.7083627873564186,0.5454502780401507,-0.16031673355989393,-0.5356560402610042,0.2914606294524289,0.1754814458459951,0.14098795857227842,0.08334319901929194,0.004034127818071921
0.37660645620127164,0.7180434879786511,0.3374619896567887,0.7083642264935528,0.545449787105257,-0.16175943290132525,-0.5359779137036744,0.29044769342165516,0.1750661814143035,0.140988004383056,0.0825312875216572,0.0031480974375083437
0.37660485067184113,0.7180444828271698,0.33745872437845126,0.7083655582615946,0.5454494091307636,-0.1630962892454669,-0.536244128257121,0.2895282616747127,0.17470009401760633,0.14098810594835645,0.08185555793927032,0.0023337052582520106
0.3766031993310443,0.7180454433689124,0.3374555189928753,0.7083667931750798,0.5454491314790079,-0.16433862715159953,-0.5364605326700952,0.28869232861078,0.17437801642296358,0.14098825710378274,0.08130143382002632,0.0015834251721357417
0.3766015068564107,0.7180463734230724,0.3374523670817585,0.7083679407383862,0.5454489429615635,-0.16549657102298337,-0.5366323560467522,0.2879309491699206,0.17409532882829076,0.14098845239250749,0.08085588406743534,0.0008905283418737684
0.37659977747096357,0.7180472764467164,0.33744926295146055,0.7083690095327129,0.5454488336653485,-0.16657916970931416,-0.5367642744732238,0.28723612869156095,0.1738479000025594,0.14098868698036868,0.08050726238083115,0.0002489974912886396
0.3765980149835565,0.7180481555651848,0.33744620154824634,0.7083700072978394,0.5454487948009884,-0.16759450876652474,-0.5368604702963699,0.2866007236903926,0.1736320349168991,0.14098895658180866,0.08024516262502582,-0.0003465493551159383
0.3765962228264893,0.7180490136008245,0.3374431783840097,0.7083709410083124,0.5454488185703256,-0.16854981145429906,-0.5369246848985181,0.28601835259245384,0.17344442812125513,0.1409892573951776,0.08006028872952424,-0.0009009267678251041
0.376594404090316,0.718049853099924,0.3374401894710263,0.7083718169441833,0.5454488980505139,-0.16945152949358577,-0.5369602657093144,0.28548331552610395,0.17328212221192654,0.14098958604610295,0.07994433779407771,-0.001418442395950206
0.3765925615559951,0.7180506763577721,0.3374372312646075,0.7083726407562002,0.5454490270924206,-0.1703054245406688,-0.536970208106584,0.28499052232100636,0.17314247081416706,0.1409899395378578,0.0798898951635265,-0.001902950876877398
0.37659069772440296,0.7180514854418516,0.33743430061261404,0.708373417525777,0.545449200231421,-0.17111664126520879,-0.536957192780367,0.28453542792976005,0.17302310557271677,0.1409903152077983,0.07989034032512454,-0.0023579019100836247
0.376588814843349,0.7180522822132456,0.3374313947109532,0.7083741518198998,0.5454494126090349,-0.17188977284996357,-0.5369236190663704,0.2841139745486662,0.17292190670300495,0.14099071068906838,0.07993976257223372,-0.002786383146146826
0.37658691493224283,0.7180530683462671,0.3374285110643313,0.7083748477412427,0.5454496599039195,-0.17262891966163085,-0.536871634695985,0.2837225397746423,0.17283697670810463,0.1409911238768911,0.08003288546688755,-0.003191158465843495
0.3765849998045523,0.7180538453464491,0.33742564745157727,0.7083755089738265,0.5454499382710712,-0.17333774177679542,-0.5368031623579574,0.28335789019335866,0.17276661691232387,0.1409915528988682,0.08016499921865924,-0.0035747021576042607
0.3765830710882228,0.7180546145669151,0.33742280189498486,0.7083761388245104,0.5454502442881571,-0.17401950598498742,-0.5367199234217097,0.2830171398485035,0.1727093065024012,0.1409919960887742,0.08033190017748881,-0.003939229443193658
0.3765811302441647,0.7180553772233704,0.3374199726332047,0.7083767402606381,0.545450574908138,-0.17467712783285075,-0.5366234591319642,0.28269771309348585,0.17266368380257482,0.14099245196340915,0.08052983671316184,-0.004286723750208547
0.3765791785830346,0.7180561344076124,0.337417158097223,0.7083773159441138,0.5454509274173752,-0.17531320921968496,-0.5365151495497426,0.2823973113744534,0.17262852954071156,0.1409929192021395,0.08075546082363527,-0.004618961084906311
0.37657721728038324,0.718056887099905,0.33741435688907334,0.7083778682622227,0.5454512993985573,-0.17593007200501876,-0.5363962304835045,0.2821138835373964,0.17260275188999014,0.1409933966287934,0.08100578487848571,-0.004937531819175429
0.3765752473903451,0.7180576361800894,0.3374115677629703,0.7083783993554916,0.5454516886978567,-0.17652978804340605,-0.5362678086273269,0.2818455992922892,0.17258537309465588,0.1409938831956292,0.08127814296242325,-0.005243860170453668
0.37657326985799444,0.7180583824376935,0.3374087896085585,0.7083789111427798,0.5454520933958327,-0.17711420602019606,-0.536130875098672,0.28159082550395365,0.1725755175096279,0.14099437796912975,0.0815701563373798,-0.005539221622491939
0.3765712855304752,0.718059126581032,0.3374060214360373,0.7083794053439539,0.5454525117815912,-0.17768497542421444,-0.5359863175473175,0.2813481050127171,0.17257240090247636,0.14099488011738986,0.08187970259036834,-0.005824758507536719
0.37656929516702836,0.7180598692454545,0.3374032623629691,0.7083798835002642,0.5454529423299259,-0.17824356795910717,-0.5358349309880264,0.28111613771817373,0.17257532088292288,0.14099538889895094,0.08220488807850183,-0.006101493946318822
0.3765672994480155,0.7180606110007333,0.33740051160251777,0.7083803469927027,0.5454533836809377,-0.17879129666407942,-0.5356774274929774,0.280893763686811,0.17258364833972273,0.14099590365286493,0.08254402332246825,-0.006370344320809427
0.3765652989830416,0.718061352357768,0.33739776845303737,0.7083807970585204,0.5454538346219423,-0.17932933298678563,-0.5355144448651457,0.2806799480689631,0.1725968197778314,0.14099642378987376,0.08289560103587942,-0.006632130435697728
0.37656329431826224,0.7180620937745983,0.3373950322887646,0.7083812348060405,0.5454542940714379,-0.17985872202589065,-0.5353465544007638,0.2804737676328769,0.17261433046038188,0.14099694878457253,0.08325827651040708,-0.0068875875076756035
0.3765612859429166,0.7180628356618209,0.33739230255157987,0.7083816612280291,0.5454547610648045,-0.18038039613811602,-0.535174267837277,0.2802743987437704,0.1726357282702306,0.14099747816844452,0.08363085010589498,-0.007137374106621779
0.3765592742952373,0.7180635783874567,0.3373895787436451,0.7083820772136471,0.5454552347415634,-0.18089518708411945,-0.5349980435728986,0.2800811066337872,0.17266060821505527,0.14099801152365257,0.08401225162096874,-0.007382080159451418
0.37655725976773896,0.7180643222813352,0.33738686042085897,0.7083824835592102,0.5454557143341013,-0.18140383686924783,-0.5348182922346103,0.279893235825008,0.17268860750807413,0.14099854847753604,0.08440152634329172,-0.007622234115534774
0.3765552427119466,0.7180650676390206,0.33738414718703347,0.7083828809778201,0.545456199157593,-0.18190700741870144,-0.534635381663294,0.27971020158222404,0.17271940116372594,0.14099908869769184,0.08479782259984156,-0.007858309362029626
0.37655322344267583,0.7180658147253552,0.33738143868869813,0.708383270108049,0.5454566886010012,-0.18240528921188012,-0.5344496413773069,0.27953148228521396,0.17275269805415067,0.14099963188760978,0.08520038064660866,-0.008090729968059703
0.376551202241839,0.7180665637776397,0.3373787346104734,0.7083836515216755,0.5454571821191121,-0.18289920898743348,-0.5342613665693332,0.27935661262202044,0.1727882373779909,0.14100017778277346,0.08560852275415175,-0.008319875828290153
0.37654917936186655,0.7180673150084529,0.33737603467096505,0.7083840257306602,0.5454576792254151,-0.1833892366187074,-0.5340708216855443,0.27918517751510974,0.17282578549824368,0.14100072614720163,0.08602164436074253,-0.008546087268962454
0.3765471550287935,0.7180680686082488,0.3373733386190758,0.7083843931933781,0.5454581794857624,-0.18387579124861478,-0.533878243630849,0.27901680670179674,0.17286513311042828,0.1410012767703523,0.08643920617847649,-0.008769669172782569
0.376545129445005,0.7180688247476258,0.3373706462307362,0.708384754320223,0.5454586825127107,-0.18435924676350432,-0.5336838446394769,0.2788511698986236,0.1729060927064661,0.1410018294643807,0.08686072714997572,-0.008990894673096762
0.37654310279170605,0.7180695835793837,0.33736795730598457,0.708385109478609,0.5454591879604819,-0.18483993667705875,-0.5334878148459018,0.27868797248690325,0.17294849630327316,0.1410023840616705,0.08728577816424384,-0.009210008462465889
0.3765410752311253,0.7180703452403879,0.3373652716663733,0.708385458997468,0.5454596955204833,-0.1853181584876729,-0.5332903245875035,0.27852695166343755,0.17299219340837724,0.14100294041266234,0.08771397645002818,-0.009427229756001649
0.376539046908509,0.7180711098532091,0.337362589152632,0.7083858031712766,0.5454602049172798,-0.18579417756598252,-0.5330915264670256,0.2783678730062809,0.17303704919775764,0.14100349838389784,0.08814498057376675,-0.009642754945577583
0.3765370179538831,0.7180718775276159,0.3373599096226241,0.708386142263658,0.5454607159050356,-0.18626823062309483,-0.5328915571999155,0.27821052741092495,0.1730829428837142,0.14100405785628456,0.0885784859770582,-0.009856759977234593
0.3765349884836562,0.7180726483619073,0.3373572329494767,0.708386476510619,0.5454612282643226,-0.18674052880470512,-0.5326905392690873,0.2780547283569799,0.17312976625291585,0.1410046187235419,0.08901422099551916,-0.010069402480704877
0.3765329586020392,0.7180734224440982,0.3373545590199499,0.7083868061234253,0.5454617417992912,-0.18721126045137046,-0.5324885824071455,0.27790030946976835,0.17317742235684533,0.14100518089082367,0.08945194330719879,-0.010280823676948986
0.37653092840231966,0.7180741998529886,0.337351887732961,0.7083871312912097,0.5454622563351238,-0.1876805935609447,-0.532285784924153,0.27774712234504095,0.17322582433873657,0.14100574427348456,0.08989143676422841,-0.010491150086882013
0.3765288979680037,0.7180749806591352,0.33734921899828424,0.7083874521832778,0.5454627717157635,-0.1881486779852575,-0.5320822348970103,0.2775950346084471,0.17327489438274887,0.14100630879597936,0.09033250856642082,-0.010700495062039777
0.37652686737384944,0.7180757649257025,0.33734655273536707,0.7083877689512155,0.5454632878019171,-0.18861564738970224,-0.5318780112349532,0.2774439281844612,0.1733245627726328,0.14100687439088805,0.09077498673993235,-0.010908960155764709
0.3765248366867715,0.7180765527092315,0.3373438888723033,0.7083880817306881,0.5454638044692439,-0.18908162100129688,-0.5316731846340146,0.277293697752162,0.1733747670484517,0.1410074409980345,0.09121871788809743,-0.011116636351546014
0.37652280596667004,0.7180773440603273,0.33734122734490013,0.7083883906431798,0.5454643216067446,-0.18954670516802966,-0.5314678184320628,0.2771442493677482,0.1734254512511553,0.14100800856370804,0.09166356518507238,-0.011323605163412045
0.37652077526715905,0.7180781390242769,0.33733856809583956,0.7083886957974259,0.5454648391153412,-0.1900109947498569,-0.5312619693748045,0.27699549923573064,0.17347656524582208,0.1410085770399701,0.0921094065860969,-0.011529939621714313
0.37651874463623103,0.7180789376416212,0.3373359110739506,0.7083889972907731,0.5454653569065824,-0.19047457435950804,-0.5310556883020272,0.2768473726128224,0.17352806411539026,0.14100914638403084,0.09255613323100154,-0.01173570515624889
0.37651671411684706,0.7180797399486272,0.33733325623353694,0.708389295210378,0.5454658749015044,-0.1909375194693163,-0.5308490207623334,0.27669980283019646,0.17357990761751188,0.1410097165576953,0.09300364802010004,-0.011940960387416062
0.37651468374745295,0.7180805459777458,0.33733060353379957,0.7083895896342703,0.5454663930296306,-0.19139989739852448,-0.5306420075639108,0.2765527304213112,0.17363205969797257,0.14101028752686987,0.09345186434386997,-0.012145757835000314
0.37651265356246383,0.7180813557580042,0.33732795293829865,0.7083898806323125,0.5454669112280328,-0.19186176819396208,-0.5304346852679304,0.27640610234393104,0.17368448805476544,0.14101085926112308,0.09390070494981502,-0.012350144553154073
0.3765106235926866,0.7180821693153708,0.3373253044144954,0.7083901682670517,0.5454674294405487,-0.19232318541563,-0.5302270866305918,0.27625987128615304,0.17373716374755432,0.1410114317332845,0.09435010093170587,-0.012554162699271601
0.3765085938656881,0.7180829866730636,0.3373226579333262,0.7083904525944867,0.5454679476170341,-0.19278419683742537,-0.5300192409991368,0.2761139950474088,0.17379006084779175,0.14101200491910462,0.09479999082797994,-0.01275785004364094
0.37650656440614944,0.7180838078518448,0.3373200134688283,0.7083907336647682,0.5454684657127292,-0.19324484507219156,-0.529811174666648,0.2759684359862943,0.17384315612526027,0.14101257879693124,0.09525031981752663,-0.012961240426040166
0.3765045352361526,0.7180846328702815,0.3373173709978141,0.7083910115227999,0.5454689836876778,-0.19370516812925798,-0.5296029111899152,0.27582316052806044,0.17389642876724504,0.14101315334743564,0.0957010390023296,-0.013164364164804324
0.37650250637546345,0.7180854617449532,0.33731473049956295,0.7083912862087905,0.5454695015062084,-0.19416519991175188,-0.529394471674186,0.2756781387252889,0.17394986012693217,0.14101372855336144,0.09615210476759693,-0.013367248423312078
0.37650047784177415,0.7180862944906887,0.33731209195556294,0.7083915577587527,0.5454700191364774,-0.19462497066019807,-0.5291858750283358,0.27553334386602335,0.17400343349801262,0.1410143043993039,0.09660347821100515,-0.01356991753832561
0.3764984496509205,0.7180871311207278,0.337309455349272,0.7083918262049481,0.5454705365500698,-0.19508450734820826,-0.5289771381934147,0.2753887521242423,0.1740571339127233,0.1410148808715027,0.09705512463359575,-0.013772393314155112
0.3764964218170635,0.7180879716469046,0.3373068206659071,0.7083920915762644,0.5454710537216069,-0.19554383403540723,-0.5287682763474447,0.27524434224806826,0.1741109479609191,0.14101545795768086,0.09750701308566896,-0.013974695286206628
0.37649439435288795,0.7180888160797627,0.33730418789225375,0.7083923538985732,0.545471570628443,-0.196002972182256,-0.5285593030888983,0.2751000952816742,0.17416486362798492,0.14101603564686646,0.09795911596172896,-0.014176840957099913
0.3764923672697395,0.7180896644287269,0.3373015570164931,0.7083926131950699,0.5454720872503671,-0.1964619409308546,-0.5283502306010733,0.2749559943172152,0.17421887014960363,0.14101661392926773,0.09841140863918392,-0.01437884600821211
0.3764903405777718,0.718090516702201,0.3372989280280633,0.7083928694865265,0.545472603569333,-0.19692075735541595,-0.5281410697993577,0.2748120242735801,0.17427295788163985,0.14101719279613914,0.09886386915608184,-0.014580724489204862
0.3764883142860706,0.718091372907675,0.3372963009175151,0.7083931227915543,0.5454731195692333,-0.1973794366856717,-0.5279318304631748,0.2746681716990363,0.1743271181835752,0.14101777223966905,0.09931647792365572,-0.014782488987827995
0.3764862884027702,0.7180922330518309,0.33729367567639257,0.7083933731268407,0.5454736352356934,-0.19783799250615597,-0.5277225213542062,0.2745244245951721,0.1743813433140675,0.141018352252882,0.09976921746992333,-0.014984150782049992
0.37648426293514514,0.7180930971406083,0.33729105229713346,0.7083936205073433,0.5454741505558857,-0.19829643693395305,-0.5275131503222813,0.2743807722598953,0.17443562633737564,0.14101893282954556,0.10022207221099091,-0.015185719976357656
0.37648223788970203,0.7180939651792878,0.33728843077296705,0.7083938649464661,0.5454746655183537,-0.19875478077724032,-0.5273037244002862,0.274237205147368,0.1744899610395334,0.14101951396409537,0.10067502824705835,-0.015387205623870696
0.37648021327226755,0.7180948371725958,0.3372858110978316,0.7083941064562339,0.5454751801128863,-0.19921303367671053,-0.5270942498891558,0.27409371474308225,0.17454434185323442,0.14102009565155788,0.10112807318046405,-0.015588615835748892
0.37647818908805325,0.71809571312469,0.3372831932662943,0.7083943450474361,0.5454756943303657,-0.1996712042317066,-0.5268847324340699,0.27395029345244154,0.1745987637905452,0.14102067788749006,0.10158119595339056,-0.015789957879212817
0.37647616534171835,0.7180965930392971,0.3372805772734925,0.7083945807297362,0.5454762081626584,-0.20012930011273553,-0.526675177092659,0.2738069345013564,0.17465322238261163,0.14102126066792364,0.1020343867031037,-0.015991238265365023
0.37647414203743157,0.7180974769196949,0.33727796311506175,0.7083948135118366,0.5454767216024963,-0.20058732816182276,-0.5264655883961664,0.27366363184759857,0.1747077136256457,0.14102184398930886,0.10248763663282556,-0.016192462827871852
0.3764721191789223,0.718098364768788,0.33727535078708853,0.7083950434015176,0.5454772346434044,-0.20104529448202596,-0.5262559704042223,0.2735203801017288,0.17476223393252754,0.14102242784847602,0.10294093789656625,-0.016393636793456727
0.37647009676952903,0.7180992565891562,0.3372727402860633,0.7083952704057899,0.5454777472796066,-0.20150320451727968,-0.5260463267538965,0.27337717445655935,0.17481678008945037,0.1410230122425894,0.1033942834963947,-0.01659476484505931
0.3764680748122368,0.718100152383072,0.33727013160883407,0.7083954945309394,0.5454782595059562,-0.20196106312361017,-0.5258366607037122,0.27323401062425057,0.17487134921707348,0.14102359716911567,0.10384766719080588,-0.01679585117842085
0.3764660533097141,0.7181010521525323,0.3372675247525689,0.7083957157826085,0.5454787713178407,-0.20241887463265557,-0.5256269751729981,0.27309088478019405,0.17492593873571466,0.14102418262578878,0.104301083412994,-0.01699689955278136
0.3764640322643442,0.7181019558992949,0.33726491971471956,0.708395934165878,0.5454792827111745,-0.2028766429083265,-0.525417272777205,0.2729477935129539,0.17498054633417223,0.14102476861058053,0.1047545271979521,-0.017197913336302256
0.37646201167825766,0.718102863624903,0.3372623164929947,0.708396149685332,0.5454797936822947,-0.20333437139734342,-0.5252075558595238,0.27280473377964093,0.17503516994178356,0.1410253551216764,0.1052079941174468,-0.01739889554676007
0.37645999155336557,0.7181037753307071,0.33725971508532426,0.7083963623450762,0.5454803042279537,-0.20379206317431492,-0.524997826519213,0.27266170286607455,0.17508980770339794,0.14102594215745592,0.10566148022202304,-0.017599848888008703
0.37645797189136987,0.7181046910178671,0.3372571154898481,0.7083965721488269,0.5454808143452394,-0.20424972098193517,-0.5247880866369832,0.27251869835128023,0.17514445795694925,0.14102652971646717,0.10611498198926997,-0.017800775782644274
0.37645595269379833,0.7181056106874041,0.33725451770488996,0.7083967790999176,0.5454813240315654,-0.20470734726686296,-0.524578337897736,0.2723757180757923,0.1751991192133635,0.14102711779740673,0.10656849627768014,-0.018001678401273875
0.37645393396200216,0.7181065343401956,0.33725192172892704,0.7083969832013677,0.5454818332846283,-0.20516494421169476,-0.5243685818109567,0.27223276011341313,0.17525379013855916,0.14102770639911003,0.10702202028549085,-0.018202558688735705
0.3764519156972047,0.7181074619769925,0.3372493275605877,0.7083971844558902,0.5454823421023723,-0.20562251376350407,-0.5241588197289377,0.27208982274600135,0.1753084695373132,0.14102829552053253,0.10747555151397632,-0.01840341838759276
0.3764498979004904,0.7181083935984314,0.33724673519862464,0.70839738286595,0.5454828504829671,-0.20608005765928436,-0.5239490528631484,0.27194690444098857,0.17536315633882224,0.14102888516073853,0.10792908773470512,-0.018604259059181585
0.3764478805728276,0.718109329205059,0.33724414464190644,0.7083975784337729,0.5454833584247916,-0.20653757744865459,-0.5237392822989168,0.27180400383133574,0.175417849583747,0.14102947531888776,0.10838262696033048,-0.01880508210247014
0.3764458637150837,0.7181102687973187,0.3372415558894078,0.7083977711613687,0.545483865926396,-0.2069950745141027,-0.523529509008513,0.2716611196976389,0.17547254841261387,0.1410300659942262,0.10883616741854472,-0.019005888770953244
0.37644384732802555,0.7181112123755832,0.3372389689401941,0.7083979610505732,0.5454843729864902,-0.20745255008904342,-0.5233197338629402,0.2715182509521835,0.17552725205542702,0.14103065718607782,0.10928970752883936,-0.01920668018779046
0.3764418314123456,0.718112159940151,0.3372363837934095,0.7083981481030457,0.5454848796039365,-0.20791000527392708,-0.5231099576424649,0.2713753966247109,0.17558195982235716,0.14103124889383475,0.10974324588178315,-0.019407457359368364
0.37643981596865606,0.7181131114912502,0.33723380044827367,0.7083983323202873,0.5454853857777118,-0.20836744105060637,-0.5229001810460523,0.27123255584972417,0.17563667109539408,0.14103184111695072,0.11019678122053786,-0.019608221187451626
0.3764378009975043,0.7181140670290498,0.3372312189040728,0.7083985137036722,0.5454858915069136,-0.2088248582951551,-0.5226904046998342,0.27108972785518326,0.17569138532088277,0.1410324338549308,0.110650312424365,-0.01980897248007067
0.37643578649937726,0.7181150265536839,0.33722863916015006,0.7083986922544604,0.5454863967907435,-0.20928225778928852,-0.5224806291646903,0.27094691195237935,0.17574610200281643,0.1410330271073335,0.11110383849392463,-0.020009711961274254
0.37643377247470844,0.7181159900652262,0.3372260612158987,0.7083988679737945,0.5454869016284996,-0.20973964023057262,-0.522270854943034,0.27080410752695977,0.17580082069684544,0.14103362087375834,0.11155735853815447,-0.02021044027986923
0.3764317589238861,0.7181169575637112,0.33722348507075844,0.7083990408627177,0.5454874060195424,-0.21019700624150317,-0.5220610824848876,0.27066131403087146,0.17585554100489661,0.14103421515384418,0.11201087176257256,-0.020411158017249676
0.37642974584725314,0.7181179290491422,0.33722091072421434,0.7083992109222017,0.5454879099633259,-0.2106543563776265,-0.52185131219336,0.2705185309752101,0.17591026257036171,0.14103480994726605,0.11246437745883758,-0.02061186569441223
0.37642773324511253,0.7181189045214833,0.337218338175786,0.7083993781531267,0.5454884134593491,-0.21111169113476955,-0.5216415444295034,0.2703757579238242,0.17596498507378225,0.1410354052537284,0.11291787499544377,-0.020812563778239947
0.3764257211177336,0.7181198839806618,0.33721576742502196,0.7083995425563084,0.5454889165071858,-0.21156901095549846,-0.5214317795166931,0.2702329944876137,0.1760197082289793,0.14103600107296146,0.11337136380941631,-0.021013252687133728
0.3764237094653569,0.718120867426595,0.33721319847151265,0.7083997041325063,0.5454894191064527,-0.21202631623486423,-0.5212220177445474,0.2700902403194481,0.17607443177959378,0.14103659740472457,0.11382484339890778,-0.021213932796058103
0.37642169828819405,0.7181218548591567,0.33721063131486345,0.7083998628824116,0.5454899212568147,-0.21248360732554541,-0.521012259372472,0.2699474951096283,0.17612915549598537,0.1410371942487959,0.11427831331659041,-0.02141460444106018
0.376419687586431,0.71812284627822,0.3372080659547062,0.7084000188066858,0.54549042295798,-0.21294088454242355,-0.5208025046327547,0.2698047585818431,0.17618387917245207,0.14103779160497562,0.11473177316376777,-0.021615267923319165
0.37641767736023307,0.7181238416836363,0.33720550239069275,0.7084001719059282,0.5454909242096909,-0.21339814816666644,-0.5205927537334104,0.2696620304895621,0.17623860262473454,0.14103838947307856,0.1151852225851167,-0.021815923512775285
0.3764156676097471,0.7181248410752229,0.3372029406224961,0.7084003221806975,0.5454914250117202,-0.21385539844937138,-0.5203830068607203,0.2695193106128194,0.17629332568778638,0.14103898785293723,0.11563866126400245,-0.022016571451380272
0.37641365833510043,0.7181258444527936,0.33720038064980945,0.7084004696315302,0.5454919253638758,-0.21431263561481845,-0.5201732641814726,0.2693765987553396,0.17634804821377864,0.14103958674439954,0.11609208891829632,-0.022217211956009723
0.37641164953640555,0.7181268518161467,0.3371978224723287,0.7084006142589164,0.5454924252659855,-0.21476985986336392,-0.5199635258450003,0.26923389474198345,0.176402770070304,0.14104018614732258,0.116545505296649,-0.02241784522107203
0.37640964121375825,0.7181278631650622,0.3371952660897753,0.7084007560633307,0.5454929247179088,-0.21522707137402428,-0.5197537919849917,0.2690911984164534,0.17645749113877446,0.1410407860615756,0.11699891017516371,-0.02261847142084683
0.37640763336724387,0.7181288784993212,0.3371927115018786,0.7084008950452186,0.5454934237195194,-0.2156842703067867,-0.519544062721121,0.2689485096392656,0.17651221131298162,0.14104138648703968,0.11745230335442619,-0.022819090711579636
0.37640562599693694,0.7181298978186975,0.33719015870837843,0.7084010312049961,0.5454939222707094,-0.21614145680466293,-0.5193343381605136,0.26880582828593297,0.1765669304978112,0.14104198742360255,0.11790568465686536,-0.023019703233358196
0.3764036191029003,0.7181309211229377,0.33718760770901873,0.7084011645430632,0.5454944203713903,-0.21659863099552393,-0.5191246183990436,0.26866315424534676,0.1766216486080843,0.1410425888711624,0.11835905392438802,-0.023220309111793867
0.3764016126851904,0.7181319484117942,0.33718505850356356,0.708401295059809,0.5454949180214878,-0.21705579299373384,-0.5189149035225152,0.2685204874183188,0.176676365567527,0.14104319082962127,0.11881241101627572,-0.023420908459527393
0.37639960674385375,0.718132979685008,0.3371825110917774,0.7084014227555954,0.5454954152209383,-0.21751294290161435,-0.5187051936076947,0.2683778277163055,0.1767310813078426,0.14104379329889039,0.11926575580730649,-0.023621501377579558
0.3763976012789275,0.7181340149423118,0.33717996547342793,0.7084015476307648,0.5454959119696956,-0.21797008081074118,-0.5184954887232589,0.26823517506026034,0.17678579576788012,0.1410443962788851,0.11971908818608017,-0.023822087956559834
0.3763955962904447,0.7181350541834405,0.33717742164829856,0.7084016696856695,0.5454964082677216,-0.21842720680310732,-0.5182857889306314,0.26809252937959066,0.17684050889289296,0.14104499976952628,0.12017240805352675,-0.02402266827774976
0.37639359177843007,0.7181360974081117,0.3371748796161699,0.7084017889206244,0.5454969041149889,-0.21888432095215873,-0.5180760942847631,0.26794989061125873,0.1768952206338735,0.1410456037707378,0.12062571532157097,-0.02422324241407358
0.37639158774290926,0.7181371446160507,0.3371723393768302,0.7084019053359469,0.5454973995114689,-0.21934142332371565,-0.517866404834769,0.2678072586989634,0.17694993094695205,0.1410462082824511,0.12107900991194573,-0.02442381043096803
0.3763895841838951,0.7181381958069758,0.3371698009300725,0.7084020189319475,0.54549789445716,-0.21979851397680067,-0.5176567206245463,0.2676646335924073,0.17700463979286132,0.14104681330459906,0.12153229175513107,-0.0246243723871611
0.3763875811014001,0.7181392509805944,0.3371672642756925,0.7084021297089209,0.5454983889520546,-0.22025559296437192,-0.5174470416933437,0.2675220152466515,0.17705934713646831,0.14104741883711722,0.12198556078940966,-0.024824928335371026
0.3763855784954308,0.718140310136616,0.3371647294134881,0.7084022376671569,0.5454988829961415,-0.2207126603339742,-0.5172373680762093,0.26737940362153817,0.17711405294632804,0.14104802487994392,0.12243881696002358,-0.02502547832293027
0.37638357636600117,0.7181413732747574,0.33716219634326283,0.7084023428069371,0.5454993765894278,-0.22116971612832884,-0.5170276998044544,0.2672367986811675,0.17716875719431016,0.1410486314330207,0.12289206021842264,-0.025226022392346954
0.37638157471310896,0.7181424403947091,0.3371596650648245,0.7084024451285411,0.545499869731928,-0.22162676038585213,-0.5168180369060273,0.2670942003934425,0.1772234598552545,0.14104923849629317,0.12334529052159283,-0.025426560581806326
0.3763795735367522,0.7181435114961752,0.33715713557797944,0.7084025446322427,0.5455003624236586,-0.22208379314112323,-0.5166083794058628,0.26695160872965945,0.1772781609066557,0.14104984606970608,0.12379850783145599,-0.025627092925620536
0.37637757283693285,0.7181445865788518,0.3371546078825417,0.7084026413183068,0.5455008546646286,-0.22254081442529516,-0.5163987273262008,0.2668090236641353,0.17733286032839232,0.1410504541532051,0.12425171211434005,-0.025827619454632494
0.37637557261363874,0.7181456656424492,0.33715208197832175,0.7084027351869953,0.545501346454864,-0.22299782426646683,-0.5161890806868641,0.26666644517389,0.17738755810247547,0.1410510627467438,0.12470490334050152,-0.026028140196576007
0.3763735728668723,0.7181467486866537,0.33714955786512857,0.7084028262385639,0.545501837794395,-0.223454822690014,-0.5159794395055206,0.2665238732383399,0.1774422542128286,0.14105167185026862,0.1251580814836981,-0.02622865517639968
0.37637157359662093,0.718147835711162,0.3371470355427837,0.7084029144732757,0.5455023286832321,-0.22391180971888286,-0.5157698037978989,0.266381307839061,0.17749694864508844,0.14105228146373358,0.12561124652081604,-0.02642916441655634
0.37636957480287025,0.7181489267156689,0.3371445150110992,0.7084029998913719,0.5455028191214134,-0.22436878537385202,-0.5155601735779693,0.26623874895953364,0.17755164138642685,0.14105289158709303,0.1260643984315248,-0.026629667937263037
0.37636757648561603,0.7181500216998563,0.3371419962698986,0.7084030824931122,0.5455033091089793,-0.22482574967376448,-0.5153505488581874,0.2660961965849435,0.1776063324253884,0.14105350222029955,0.1265175371979828,-0.026830165756733117
0.37636557864484227,0.7181511206634171,0.3371394793189958,0.7084031622787376,0.5455037986459567,-0.2252827026357444,-0.5151409296495747,0.2659536507020107,0.17766102175175408,0.14105411336330884,0.12697066280456387,-0.027030657891385947
0.3763635812805349,0.7181522236060569,0.3371369641582124,0.7084032392484881,0.5455042877323774,-0.22573964427537035,-0.514931315961921,0.2658111112988043,0.17771570935640452,0.14105472501607705,0.12742377523761803,-0.027231144356032636
0.37636158439267775,0.7181533305274469,0.3371344507873733,0.7084033134026058,0.5455047763682803,-0.22619657460685494,-0.5147217078038997,0.2656685783646059,0.1777703952312103,0.1410553371785606,0.12787687448526197,-0.027431625164043013
0.37635958798125774,0.7181544414272886,0.33713193920629797,0.7084033847413377,0.5455052645537033,-0.22665349364318377,-0.5145121051831671,0.265526051889782,0.17782507936892614,0.14105594985071784,0.12832996053718382,-0.027632100327496526
0.3763575920462569,0.7181555563052634,0.33712942941480895,0.708403453264925,0.5455057522886931,-0.22711040139625227,-0.5143025081064992,0.26538353186565866,0.1778797617631032,0.14105656303250758,0.1287830333844746,-0.027832569857316112
0.37635559658765966,0.7181566751610611,0.33712692141272776,0.7084035189735978,0.5455062395732754,-0.227567297876982,-0.5140929165798604,0.2652410182844213,0.17793444240800482,0.1410571767238861,0.12923609301947758,-0.02803303376338806
0.3763536016054458,0.7181577979943633,0.3371244151998784,0.7084035818676009,0.5455067264075052,-0.22802418309542716,-0.5138833306084942,0.2650985111390235,0.17798912129852804,0.14105779092481202,0.12968913943565102,-0.028233492054670264
0.3763516070995961,0.7181589248048593,0.33712191077608866,0.7084036419471533,0.5455072127914179,-0.22848105706086477,-0.5136737501969967,0.26495601042310757,0.17804379843014206,0.14105840563524605,0.13014217262744907,-0.02843394473928915
0.37634961307009585,0.7181600555922322,0.3371194081411801,0.7084036992124991,0.5455076987250593,-0.22893791978188308,-0.5134641753493817,0.2648135161309206,0.17809847379882793,0.1410590208551483,0.1305951925902113,-0.028634391824625575
0.37634761951692436,0.7181611903561737,0.3371169072949794,0.7084037536638738,0.5455081842084747,-0.22939477126645183,-0.5132546060691471,0.26467102825725075,0.17815314740102556,0.14105963658447737,0.13104819932007297,-0.028834833317393026
0.37634562644005615,0.7181623290963629,0.3371144082373146,0.7084038053015049,0.5455086692417009,-0.2298516115219911,-0.5130450423593287,0.26452854679738036,0.1782078192335824,0.141060252823195,0.1315011928138736,-0.029035269223706184
0.37634363383947983,0.7181634718124785,0.33711191096800824,0.7084038541256251,0.5455091538247886,-0.23030844055543168,-0.5128354842225501,0.26438607174701956,0.1782624892937153,0.14106086957126096,0.1319541730690798,-0.029235699549143866
0.3763416417151694,0.7181646185042191,0.3371094154868873,0.708403900136454,0.5455096379577793,-0.23076525837326695,-0.5126259316610472,0.2642436031022597,0.17831715757897207,0.1410614868286366,0.13240714008372295,-0.029436124298804565
0.3763396500671048,0.7181657691712628,0.3371069217937757,0.7084039433342385,0.5455101216407228,-0.23122206498159853,-0.5124163846767423,0.26410114085954794,0.17837182408719568,0.14106210459528432,0.13286009385633515,-0.029636543477356676
0.37633765889526666,0.7181669238132901,0.3371044298885053,0.7084039837191984,0.5455106048736587,-0.23167886038618046,-0.5122068432712431,0.2639586850156309,0.17842648881648998,0.14106272287116267,0.13331303438589148,-0.02983695708908248
0.376335668199633,0.7181680824299904,0.3371019397709021,0.7084040212915648,0.5455110876566489,-0.2321356445924569,-0.5119973074459053,0.26381623556753253,0.1784811517651991,0.14106334165623574,0.13376596167176927,-0.0300373651379187
0.3763336779801767,0.7181692450210371,0.3370994514407909,0.7084040560515591,0.5455115699897239,-0.23259241760559085,-0.5117877772018234,0.26367379251251605,0.17853581293187804,0.14106396095046422,0.13421887571369984,-0.030237767627493254
0.37633168823688407,0.718170411586128,0.337096964897998,0.7084040879994149,0.5455120518729409,-0.2330491794305062,-0.5115782525398878,0.26353135584806875,0.1785904723152728,0.14106458075380993,0.1346717765117329,-0.030438164561155966
0.3763296989697291,0.718171582124941,0.3370944801423552,0.7084041171353553,0.5455125333063462,-0.23350593007189668,-0.5113687334608029,0.26338892557187227,0.17864512991430107,0.1410652010662334,0.1351246640661957,-0.030638555942008067
0.3763277101786879,0.718172756637154,0.3370919971736843,0.7084041434596092,0.5455130142899817,-0.23396266953426295,-0.5111592199650756,0.26324650168178026,0.17869978572802894,0.1410658218876987,0.13557753837767045,-0.030838941772928324
0.3763257218637394,0.7181739351224572,0.33708951599182146,0.7084041669723989,0.5455134948239009,-0.23441939782193386,-0.5109497120530879,0.26310408417579817,0.17875443975566407,0.1410664432181663,0.1360303994469647,-0.031039322056596628
0.3763237340248653,0.7181751175805269,0.3370870365965843,0.7084041876739575,0.5455139749081455,-0.2348761149390764,-0.5107402097250688,0.26296167305207163,0.17880909199653106,0.14106706505759936,0.13648324727508315,-0.031239696795513264
0.37632174666203616,0.7181763040110516,0.3370845589878074,0.7084042055645107,0.5455144545427677,-0.23533282088972096,-0.5105307129811294,0.26281926830887103,0.17886374245006786,0.14106768740595985,0.13693608186321357,-0.031440065992018575
0.37631975977523324,0.7181774944137085,0.33708208316531624,0.708404220644278,0.5455149337278179,-0.2357895156777707,-0.5103212218212533,0.2626768699445789,0.1789183911158114,0.14106831026321162,0.13738890321269906,-0.03164042964830924
0.37631777336443406,0.7181786887881828,0.33707960912894175,0.708404232913497,0.545515412463337,-0.23624619930701626,-0.5101117362453549,0.2625344779576647,0.1789730379933864,0.14106893362931525,0.13784171132502493,-0.0318407877664528
0.3763157874296144,0.7181798871341646,0.3370771368785105,0.7084042423723773,0.5455158907493824,-0.2367028717811544,-0.5099022562532337,0.2623920923466982,0.1790276830824956,0.14106955750423406,0.1382945062018041,-0.03204114034840204
0.37631380197075204,0.7181810894513294,0.33707466641385553,0.7084042490211526,0.5455163685859897,-0.23715953310378746,-0.5096927818446135,0.2622497131103176,0.17908232638291138,0.14107018188792897,0.13874728784476126,-0.03224148739600634
0.37631181698782507,0.7181822957393662,0.3370721977347981,0.7084042528600415,0.5455168459732191,-0.23761618327843959,-0.5094833130191517,0.26210734024724164,0.17913696789447173,0.1410708067803651,0.13920005625572243,-0.03244182891102279
0.3763098324808108,0.7181835059979497,0.33706973084116837,0.708404253889276,0.5455173229111215,-0.23807282230856652,-0.5092738497764439,0.26196497375624095,0.17919160761706945,0.14107143218150345,0.1396528114366037,-0.0326421648951247
0.3763078484496824,0.7181847202267606,0.337067265732796,0.7084042521090749,0.5455177993997339,-0.23852945019755767,-0.5090643921160202,0.2618226136361446,0.1792462455506486,0.14107205809130582,0.14010555338939837,-0.03284249534991105
0.3763058648944217,0.7181859384254933,0.33706480240950965,0.7084042475196634,0.545518275439118,-0.23898606694875005,-0.5088549400373761,0.26168025988583243,0.1793008816952001,0.1410726845097363,0.14055828211617416,-0.033042820276915665
0.37630388181499996,0.718187160593826,0.3370623408711399,0.7084042401212696,0.5455187510293166,-0.23944267256542742,-0.5086454935399375,0.26153791250422964,0.17935551605075337,0.14107331143675575,0.1410109976190594,-0.033243139677609744
0.37630189921139673,0.718188386731441,0.3370598811175113,0.7084042299141108,0.5455192261703774,-0.23989926705082842,-0.5084360526231079,0.26139557149029935,0.1794101486173758,0.14107393887232864,0.1414636999002409,-0.03344345355341414
0.37629991708358707,0.7181896168380145,0.3370574231484548,0.7084042168984155,0.5455197008623512,-0.24035585040815002,-0.5082266172862367,0.26125323684303864,0.17946477939516872,0.14107456681641928,0.1419163889619526,-0.033643761905699385
0.3762979354315489,0.7181908509132412,0.3370549669637963,0.7084042010744034,0.5455201751052857,-0.24081242264055858,-0.5080171875286607,0.26111090856147406,0.17951940838425945,0.14107519526898668,0.14236906480647765,-0.033844064735793454
0.3762959542552565,0.7181920889567904,0.3370525125633682,0.7084041824423057,0.5455206488992305,-0.24126898375118414,-0.5078077633496706,0.26096858664466566,0.1795740355848033,0.1410758242299945,0.14282172743613458,-0.03404436204498656
0.3762939735546871,0.7181933309683609,0.33705005994699916,0.7084041610023404,0.545521122244233,-0.2417255337431291,-0.5075983447485273,0.260826271091694,0.17962866099698088,0.14107645369940844,0.14327437685328218,-0.03424465383453351
0.3762919933298192,0.7181945769476229,0.33704760911451703,0.708404136754728,0.5455215951403395,-0.24218207261946878,-0.5073889317244964,0.2606839619016628,0.17968328462099079,0.141077083677188,0.1437270130603047,-0.03444494010565897
0.3762900135806318,0.7181958268942675,0.337045160065748,0.708404109699695,0.5455220675876074,-0.2426386003832569,-0.5071795242767896,0.2605416590736995,0.17973790645705157,0.1410777141632968,0.14417963605961948,-0.03464522085955815
0.3762880343071001,0.7181970808079744,0.33704271280052484,0.7084040798374681,0.545522539586079,-0.2430951170375271,-0.506970122404623,0.2603993626069473,0.17979252650540006,0.14107834515769874,0.14463224585366838,-0.03484549609740317
0.37628605550919614,0.7181983386884206,0.3370402673186734,0.7084040471682617,0.5455230111358069,-0.24355162258529445,-0.5067607261071762,0.2602570725005585,0.17984714476628547,0.14107897666035682,0.1450848424449131,-0.03504576582034292
0.37628407718689827,0.7181996005352931,0.33703782362002477,0.7084040116923082,0.5455234822368399,-0.24400811702955724,-0.5065513353836348,0.2601147887537093,0.1799017612399725,0.1410796086712322,0.14553742583583654,-0.035246030029505805
0.3762820993401798,0.7182008663482815,0.33703538170440867,0.7084039734098222,0.5455239528892292,-0.24446460037329487,-0.506341950233156,0.259972511365587,0.1799563759267369,0.1410802411902895,0.14598999602893786,-0.03544628872600279
0.37628012196902044,0.7182021361270586,0.3370329415716505,0.708403932321037,0.5455244230930186,-0.24492107261948012,-0.5061325706548845,0.2598302403353827,0.18001098882686578,0.14108087421748847,0.14644255302673506,-0.0356465419109285
0.37627814507340107,0.7182034098713083,0.33703050322158196,0.7084038884261638,0.5455248928482566,-0.24537753377107074,-0.5059231966479624,0.259687975662306,0.18006559994065804,0.14108150775279477,0.14689509683175572,-0.035846789585363026
0.37627616865329,0.7182046875807224,0.3370280666540335,0.7084038417254304,0.5455253621549994,-0.24583398383101487,-0.505713828211519,0.25954571734557513,0.1801202092684186,0.14108214179617024,0.14734762744654237,-0.03604703175037281
0.37627419270866774,0.7182059692549759,0.3370256318688304,0.7084037922190637,0.5455258310132898,-0.24629042280224786,-0.5055044653446708,0.25940346538441,0.18017481681046094,0.14108277634757976,0.1478001448736483,-0.03624726840701356
0.376272217239507,0.7182072548937524,0.33702319886580345,0.7084037399072769,0.5455262994231754,-0.24674685068770044,-0.5052951080465306,0.25926121977804195,0.1802294225671054,0.14108341140698458,0.14825264911563513,-0.03644749955633069
0.37627024224579003,0.7182085444967392,0.33702076764478406,0.7084036847902994,0.5455267673847152,-0.24720326749029192,-0.5050857563162007,0.2591189805257081,0.18028402653867906,0.14108404697434565,0.14870514017507247,-0.03664772519935979
0.3762682677274869,0.718209838063615,0.3370183382055975,0.7084036268683541,0.5455272348979482,-0.24765967321293747,-0.504876410152789,0.25897674762665146,0.1803386287255105,0.14108468304962896,0.14915761805453995,-0.036847945337127284
0.3762662936845772,0.7182111355940666,0.33701591054807545,0.7084035661416523,0.545527701962925,-0.24811606785854648,-0.5046670695553818,0.2588345210801205,0.1803932291279393,0.14108531963279627,0.14961008275662308,-0.037048159970652486
0.37626432011703603,0.7182124370877756,0.3370134846720482,0.7084035026104295,0.5455281685796973,-0.24857245143001822,-0.5044577345230713,0.2586923008853705,0.1804478277463069,0.14108595672380986,0.15006253428391117,-0.0372483691009481
0.37626234702483824,0.718213742544423,0.33701106057734076,0.7084034362748988,0.5455286347483129,-0.24902882393025055,-0.5042484050549345,0.25855008704165877,0.18050242458095875,0.1410865943226333,0.15051497263900065,-0.03744857272901991
0.37626037440796295,0.7182150519636986,0.33700863826378097,0.708403367135284,0.5455291004688234,-0.24948518536213599,-0.5040390811500541,0.25840787954824196,0.18055701963224388,0.14108723242922858,0.1509673978244923,-0.03764877085586914
0.37625840226638446,0.7182163653452819,0.3370062177312032,0.7084032951918103,0.5455295657412771,-0.24994153572856448,-0.5038297628075138,0.25826567840438874,0.18061161290051547,0.1410878710435597,0.15141980984299036,-0.03784896348249209
0.37625643060007813,0.7182176826888536,0.33700379897943517,0.7084032204447045,0.545530030565716,-0.25039787503241795,-0.5036204500263812,0.2581234836093615,0.18066620438612785,0.14108851016559035,0.15187220869710197,-0.038049150609879366
0.3762544594090218,0.7182190039940964,0.3370013820083058,0.7084031428941739,0.545530494942198,-0.25085420327657715,-0.5034111428057324,0.25798129516243423,0.1807207940894378,0.14108914979528311,0.15232459438944027,-0.03824933223901822
0.37625248869318767,0.7182203292606978,0.33699896681764363,0.7084030625404468,0.545530958870767,-0.25131052046391883,-0.5032018411446401,0.2578391130628782,0.1807753820108046,0.1410897899326001,0.15277696692261505,-0.03844950837089209
0.3762505184525554,0.7182216584883383,0.3369965534072779,0.7084029793837467,0.5455314223514746,-0.25176682659731786,-0.5029925450421605,0.2576969373099694,0.18082996815059302,0.14109043057750395,0.1532293262992444,-0.03864967900648097
0.37624854868709734,0.7182229916767048,0.3369941417770376,0.7084028934242949,0.545531885384368,-0.25222312167964833,-0.5027832544973619,0.2575547679029866,0.18088455250916394,0.14109107172995858,0.15368167252194573,-0.03884984414676283
0.3762465793967939,0.7182243288254707,0.3369917319267584,0.7084028046623148,0.5455323479694928,-0.25267940571377756,-0.5025739695093125,0.2574126048412035,0.18093913508688333,0.14109171338992738,0.15413400559333792,-0.03905000379271156
0.3762446105816195,0.7182256699343338,0.33698932385626473,0.7084027130980239,0.54553281010691,-0.25313567870257014,-0.5023646900770704,0.25727044812389993,0.18099371588411906,0.14109235555737118,0.15458632551604307,-0.0392501579452996
0.37624264224155013,0.7182270150029666,0.3369869175653812,0.7084026187316496,0.5455332717966642,-0.2535919406488962,-0.502155416199695,0.2571282977503629,0.18104829490123797,0.1410929982322556,0.1550386322926813,-0.03945030660549646
