Learning Rate: It is a hyperparameter that controls how much to change the model 
in response to the estimated error each time the model weights are updated.

Momentum: Momentum can accelerate training and learning rate schedules can help to converge the optimization process.

Weights when learning rate | lambda = 0.8 and momentum 0.1 | with over 8 iterations
0.446448026376,0.149606338242,0.719361468971,0.189321467226,0.0650116129574,-0.110391290879,-0.0496093705506,0.465939086607,-0.516225928307,0.17019465211,-1.12199713862,-1.31218680254
0.820704246002,-0.517771399478,1.47180226752,-0.220785969984,-0.0983351014718,-0.51377159366,0.740259192086,1.44605700274,-1.07680078769,-0.581552353181,-1.56929488553,-1.28883136885
1.63645741609,-1.14335892306,2.38727475002,-0.651032412664,0.975836199624,-1.27066889779,2.05853033485,2.14494531876,-2.14737762593,-2.21115484464,-2.24221364855,-0.562113905175
2.21091555565,-0.907031773886,2.42202114826,-1.15985581433,2.92440654986,-1.44807127812,2.80666367504,2.81329631318,-2.87494838325,-4.53549486631,-3.09677480891,0.213884136153
2.1945669187,-0.227942010066,1.97286048471,-1.50946773524,4.6621205523,-1.27215037211,2.95476331331,3.93005800394,-3.29533089013,-6.89160352892,-4.30080018733,0.629801884322
1.84782089183,0.275370380441,1.33657026732,-1.80861364327,6.04341072671,-0.806187943915,2.90538379916,4.74539655756,-3.2499521047,-8.63876106182,-5.31108511278,0.700908167878
1.64327226335,0.558057147554,0.701781460466,-2.05855409275,7.10591494337,-0.281705436022,2.85550976376,5.08538628466,-2.8756929701,-9.82328129231,-5.82844615085,0.446495107039
1.80154173316,0.734092650413,0.155898999053,-2.17156207902,7.92219412206,0.216244900155,2.87442167924,5.07546033729,-2.37636761972,-10.7030565039,-5.95793231291,-0.0646263628947
2.45355434409,0.833899038202,-0.263747950586,-2.11781903905,8.54177544377,0.978512593715,2.95526194111,4.80901004835,-1.8483198831,-11.5214859393,-5.95908347133,-0.799284411926
3.72797551066,0.728302523547,-0.467382641062,-2.1759342233,9.02248621139,2.35807758941,3.14430925312,4.65225780808,-1.48581514973,-12.4993885061,-6.42095249314,-1.43670851254
Weights when learning rate | lambda = 0.7 and momentum 0.2 | with over 8 iterations
0.209156289806,0.782712984859,-0.0526712151314,0.568736675821,-0.338814546913,0.318956990533,-0.832185475467,-0.331011094162,0.749271472243,1.06634178495,-0.962316019438,-1.37524344673
-0.418414536268,1.01279828062,-1.02692026605,0.338658357322,-0.95458904365,0.905958550403,-1.06076331183,-1.09558451406,2.11671947916,1.73995067513,-1.17615136992,-1.4429445032
-1.38166502889,1.40136005057,-1.48956206168,0.531169645252,-1.80318440045,1.37828780819,-1.46642578256,-1.94238035984,3.51984483622,2.92809464071,-1.4928302554,-1.07439321421
-2.2785340996,1.52989393791,-1.29143742657,1.35343259599,-2.97443191105,1.53112311068,-1.60761362864,-2.76545048809,4.35766736348,4.15655972788,-1.81487118326,-0.639249729312
-3.13511665225,1.44182281058,-0.956136546665,2.21764132022,-4.08817133002,1.72375004938,-1.51776082296,-3.97247314278,4.61739072564,5.36267909365,-2.10725252604,-0.494980582133
-3.76979118876,1.26289757687,-0.660679974211,2.95788017559,-5.08810275338,1.80472224737,-1.32916222244,-5.13450711833,4.51705995167,6.48767134428,-2.29703517938,-0.540520424919
-4.10417078511,1.08721992336,-0.400117905706,3.58396667197,-5.95730735962,1.73223524892,-1.14379330225,-6.00932919019,4.28024903886,7.50847156136,-2.33664148939,-0.644409892947
-4.13720831437,0.968860032375,-0.154604383594,4.14862757164,-6.6974371126,1.56830407362,-0.973375024208,-6.61013825746,3.95001284156,8.42068489271,-2.25907652755,-0.766811402161
-3.94309374365,0.937102863181,0.0773524376819,4.66561777951,-7.33466664705,1.38578687223,-0.831279057559,-6.9453397933,3.56474938644,9.23739505653,-2.13238899096,-0.880852711528
-3.67390751488,0.967193502515,0.299322692779,5.09263482705,-7.88875150271,1.23671088586,-0.742113085243,-6.99488278516,3.21344526155,9.97724688634,-2.01626587722,-0.95488842341
Weights when learning rate | lambda = 0.9 and momentum 0.1 | with over 8 iterations
-1.0254954268,0.860140645049,-1.50470247888,0.637239340694,-0.550422295335,0.699838932181,-1.57426353747,-1.52526215264,1.14707594653,1.31962794475,-0.942582137729,-0.963689128121
-2.55148520966,1.42020383978,-2.41106571971,1.83780800653,-1.53759572911,1.03173104022,-2.40287232179,-2.73869180221,2.54169139072,3.01220525901,-1.40520274281,-0.00802331174737
-4.10628085422,1.06909017613,-2.28013905031,3.24365787699,-3.2513076738,1.22506712945,-2.82445351043,-3.77651364704,3.18006623433,4.92755905195,-1.80696932926,0.703227637425
-5.12966977717,0.401518601583,-1.87010047304,4.32415399703,-4.73244570142,1.34466492015,-3.00111149574,-5.08637417664,3.17936751293,6.7206772917,-2.00303488091,1.001122646
-5.58116580511,-0.323854265973,-1.45871876408,5.09312819117,-5.93737091397,1.1400711478,-3.1036490283,-6.10304832133,2.82941512122,8.19473624717,-1.86157335147,1.16073378471
-5.69086920086,-1.07030519968,-1.06927794983,5.57318128255,-6.92300391993,0.705210960498,-3.20238621501,-6.72587489214,2.16419701657,9.3704598552,-1.47583920393,1.27818951442
-5.74513662756,-1.8068910752,-0.722427373934,5.80642726506,-7.72027359162,0.12234971942,-3.30623578921,-6.92323781001,1.11842041695,10.2856350626,-0.939575121072,1.36531294162
-5.9927824332,-2.33846510135,-0.416435892021,5.71661148693,-8.4009218325,-0.616691586007,-3.36117263765,-6.76413017993,-0.285415122021,11.0484696207,-0.278976410681,1.3416264023
-7.39739670996,-2.03557098158,-0.0809417138654,4.436915572,-9.2003673817,-2.34515259308,-3.65750701207,-6.26885539078,-1.61829507903,11.8561640588,0.671433940375,0.78698023656
-9.20098240987,-0.475700123965,0.632412122017,4.21690118216,-9.77411851808,-6.15241903384,-3.56589080398,-6.89182589938,0.252241846613,13.1183563392,3.02988209781,0.632999719615
Weights when learning rate | lambda = 0.9 and momentum 0.2 | with over 8 iterations
0.800938947429784,0.3795071433374299,-0.46727320401912076,-0.2163719694438181,-0.6341451259524767,0.2501785617366276,-0.2533712721410652,-0.37352995667602235,0.6760861911189303,0.8974842965760367,-0.9054816666222436,-1.7812829257670801
1.0140956057873731,0.6102303345971618,-1.878009472891751,-0.5586576997626456,-1.1891999566625286,0.727859283630797,0.22361664856153385,-1.696018173336312,2.219224194569501,2.2067263028871857,-0.9683223110646928,-2.1799052966261536
1.72600023240803,0.8002289246897478,-2.605994695339289,-0.9478131169014398,-2.789431462683364,1.151136888362246,0.9329927586133233,-3.197948312689293,3.718616105608466,4.489859232381279,-1.3126885477120327,-2.334257379949447
3.300560251487626,0.627652554305554,-2.318535400356803,-1.863938665335653,-4.875030790624497,2.3629541867794956,1.7668465126345796,-5.290139901011898,4.344014246914869,7.0805724759069335,-1.7715509802895182,-2.4035488109121617
5.8272571770390496,0.327746435958034,-1.4873187522452087,-2.9310468142208994,-6.595580242521006,5.0025693350562594,2.028562894937915,-7.483463679280267,3.8012523778794454,9.257894625624434,-2.5328521235801906,-2.2913107681623517
7.919261930144188,-0.1981800642671231,-0.4168737809408926,-3.430970094409255,-7.56876919541357,7.160646840579436,1.7104582719755328,-8.592101790899264,2.8766147436627123,10.661842662793601,-3.266039391575922,-2.179434289570417
8.985762846260107,-0.5716136122474778,0.17195435435975912,-3.7627343549004406,-7.945930052941587,8.31829731416586,1.5320114334709458,-8.849440676669007,2.2961841866673094,11.590222088073695,-3.342203978844034,-2.0609962301890934
9.631518591262758,-0.7059025116477294,0.3011712114488098,-4.070529702972394,-8.22033096823979,8.790495981329402,1.4406876201567556,-9.095487949772107,2.163746212724504,12.337470231241983,-3.187953548443938,-1.9790882987031966
10.157106531083251,-0.7365332907675094,0.3092352108939814,-4.370014037802862,-8.4742958125811,9.035860829864044,1.359803384769772,-9.35109608713685,2.139994318816177,12.998648913053117,-3.018027367860669,-1.9151193535752384
10.64039958459774,-0.7324182700338882,0.3023775745372146,-4.656127721746344,-8.718733098273939,9.223830700433059,1.2979370160631007,-9.57289361813543,2.1264024397199877,13.603443122697495,-2.8711305578237294,-1.866571691687078
11.099010306274446,-0.7193786267527336,0.30125799342893067,-4.9251324172543525,-8.956724989681453,9.393359206213072,1.256997473293653,-9.76151129004427,2.1089955758563836,14.165072088352858,-2.7470845259449908,-1.8298971647729754
11.536660102383498,-0.7043224349937015,0.3072442312821944,-5.178057642226752,-9.188046688550997,9.551100148520852,1.2321047081884295,-9.925237331340528,2.0875477384676433,14.690868688548951,-2.639418982465705,-1.8012580533119043
11.95511364909054,-0.6883096979751201,0.3183317717220555,-5.416778781913528,-9.412121163140354,9.698544442828599,1.2181713792763829,-10.070322677973664,2.063199172532426,15.185736723777156,-2.544446124535059,-1.7781414406863305
12.355956153604204,-0.671432628976341,0.3325916984143857,-5.642929234163657,-9.62863016634824,9.836821993147472,1.2114125449948847,-10.200866029914522,2.037019107057957,15.65345514489277,-2.4600249442374196,-1.758985617615462
12.740644749731759,-0.6538387019691094,0.34858301057223984,-5.857852292452588,-9.837500293272981,9.966967937256205,1.20919864276842,-10.319757379046818,2.0099594458771155,16.097126724558223,-2.38448974493542,-1.7427670587210156
0.933369117400487,-0.5973092543224378,1.5448200676727215,0.2832114578872285,0.035659748648259076,-0.9879953199939994,0.3823795368323821,1.387329480320706,-1.4567093926846488,-0.9238998213082628,-1.227377790705729,-1.031581572588634
1.5298621697631425,-1.6637763555759368,2.525536896663729,-0.3376297232049745,1.786465965914438,-1.9753517880786446,1.674664370201601,2.049661304602582,-2.548696040167008,-2.9537661646209865,-2.1080219160817335,-0.005861465797026479
2.1106524157419995,-1.4672376354147352,2.278663373775799,-0.9734581950680186,3.9906097921222043,-2.102843076427427,2.078456121261827,3.0050948257525296,-3.3151527941856225,-5.78531229843479,-3.2519336079796695,0.9066889552997375
1.8536193733666662,-0.9236193854107314,1.571309379446068,-1.627885956000924,5.8098451416350825,-1.7325203811797423,1.9234091955888197,4.113365652943124,-3.7070471736738937,-8.255292003726709,-4.60627841330456,1.5183334354476212
1.144003351995192,-0.7425570967035097,0.7788117513858216,-2.3491755134829706,7.18378409129962,-1.2561715479390685,1.6817612949088525,4.691854323416324,-3.6377563626691494,-9.893515612858733,-5.410890577238216,1.6729556605501397
0.6681752547995429,-0.7117351945040941,0.10430387310888958,-2.7366461550722976,8.171153078651429,-1.0264758282328528,1.5306641039023177,4.7281770002820345,-3.2543715535250324,-10.9696104748549,-5.514682716339411,1.3639494041835187
0.3893891276596133,-0.698144302499406,-0.38529294774679296,-2.9290085439860754,8.888160482820146,-0.9220845063392927,1.4426875980857938,4.335655863491525,-2.88027871430036,-11.849486102370918,-5.149320527579112,1.0176828664388229
0.1933273240674763,-0.6861191211206324,-0.6529503587952069,-3.0398802834334346,9.426147790994799,-0.8761973817884477,1.3800250249195198,3.72052238288408,-2.630371585254925,-12.76307818191432,-4.549778896567653,0.7815032859420662
0.04125831788352246,-0.6678890127989506,-0.7546529012759468,-3.1000778549736454,9.925238745680073,-0.8773847319411288,1.3284319313752784,3.335746513711711,-2.5205144405939754,-13.749950262144447,-4.174115972385086,0.6797657668477955
-0.0886401773421232,-0.6446224940005176,-0.8140619780344074,-3.1302705113687943,10.431560919459416,-0.9083138203846037,1.2816752798451134,3.193591653888196,-2.4710518683620317,-14.715287265405802,-4.037170365750916,0.6360178777000497
-0.20944709330896746,-0.6196039917513042,-0.8840423050609056,-3.1400683008206376,10.928185054989116,-0.9583923104328801,1.2370748451961697,3.1203169020727484,-2.4324098946242487,-15.62212862248333,-3.966936966430812,0.6015965386744786
-0.3260899050141954,-0.5933068652115998,-0.9653261890217212,-3.130423629837462,11.40420331038813,-1.0254259467977505,1.1933674441018884,3.0667664592627752,-2.3979447682723274,-16.467488014317176,-3.914754496441896,0.5701640854464158
-0.44201946656041685,-0.5653094142647479,-1.0513015150335194,-3.0994836798350436,11.85509834430456,-1.1098094213153384,1.1492265286412924,3.022146704098543,-2.365506361764165,-17.255073536117166,-3.869890547782769,0.5397460224737666
-0.5606883182239938,-0.5346998366527084,-1.1367803943158203,-3.0429341145530047,12.279647352497117,-1.213680710965774,1.1029982355195809,2.983015908406899,-2.334275657404514,-17.990246493633748,-3.828661086562749,0.509573170428282
-0.6863210228521196,-0.49996617949597905,-1.218568566750132,-2.9526128443411066,12.678419844263455,-1.3416314345040965,1.0522733308889114,2.9481634812673088,-2.30414128765678,-18.6785846607817,-3.7891344707422143,0.47942821753824266
-0.8251315294941144,-0.45857050327628646,-1.2949970195329112,-2.812839541873624,13.052898451043934,-1.502768739282079,0.992882981317586,2.9176271184682867,-2.275378218476254,-19.325300396179227,-3.749549909714678,0.4492121286786176
-0.9882214479409703,-0.40589850182859605,-1.3654359065626607,-2.590130570575372,13.404926269517413,-1.7164194571803668,0.9159454965251848,2.8932495455202227,-2.248663680219437,-19.93501641995508,-3.7067398599459525,0.41859541380908294
-1.2009488635923218,-0.33264539360157225,-1.430141090989129,-2.196584942220153,13.736183258349987,-2.0319843198599417,0.7958182589834829,2.8835335656950534,-2.2257063427982464,-20.511654148560677,-3.650328899462591,0.38633527815159047
-1.549292347282168,-0.2227645763087193,-1.493284782564239,-1.2989605586412896,14.04505865078124,-2.6305160988916536,0.5035126009699112,2.9536762649609436,-2.210502546456761,-21.058201680588905,-3.509788539690868,0.35062768983492154
-2.490155733222675,-0.22408164458742968,-1.6045499882871836,0.8344783005629958,14.287002803008773,-4.014614118000242,-0.691069217411982,3.6599947470707885,-2.0126697485464264,-21.57887354369053,-2.7430309317105652,0.5179957897433382
-4.344814144391923,-0.48924675980078525,-1.7242337608688532,2.1869938644787275,14.5054955565337,-5.7134433142646825,-2.1127594339014526,4.5349402976218975,-1.468455283391771,-22.055173533459108,-2.176458222537461,0.884728817885542
-6.09690091308636,-0.37891255652016326,-1.8340687682961685,2.812798856504441,14.687606400177108,-7.2803399700731495,-2.9079573254066324,5.201023586987701,-1.1045223672359414,-22.49711082942705,-1.924156598502194,0.9994303057154319
-7.378582605955288,-0.10747676124777641,-1.8958210812139877,3.1725254666185823,14.787788103140421,-8.406278514397359,-3.1770546446899113,5.6842935708161395,-0.9977821054547837,-22.897806743042615,-1.7001395993317332,1.0725697950000184
-8.295270461056534,0.10302763562918266,-1.8920430739402536,3.479701919078868,14.83322105824838,-9.053880105345689,-3.1102098981321418,6.086986444963617,-1.0003249018746965,-23.249010409247024,-1.537977376797358,1.0981693699422748
-9.028458036024883,0.21504039041026055,-1.83768625810709,3.8026182233905397,14.855368334996456,-9.367041869438381,-2.9173831276998,6.443870455476912,-1.0264413047554595,-23.556811728920465,-1.4469316116127051,1.0853231698656862
-9.686262798816594,0.2573568470000474,-1.7540044220445938,4.139768193012691,14.874941803159807,-9.505310757627335,-2.731343898462321,6.755454370554952,-1.0465425799518484,-23.831413905692216,-1.4085379620828238,1.061187670495486
-10.31048100551626,0.2650458721647633,-1.660945237468381,4.4758129548133985,14.90071642880029,-9.57156134237286,-2.593104976736359,7.026567851140687,-1.054016934694759,-24.083098079076127,-1.3977959436554699,1.0410879199941783
-10.910802633055878,0.26024034290275294,-1.5717565397598265,4.800167549777975,14.93453395145897,-9.615335858559437,-2.4987593352480264,7.26638260816136,-1.050996749950368,-24.319509704472654,-1.3972221885387373,1.0281920627217902
-11.487878974669393,0.2518624801539037,-1.4922700163633296,5.1090568527852875,14.975620786775671,-9.655497695381435,-2.4342189099655718,7.482906754928484,-1.0414603966428249,-24.54519041172734,-1.3992213447210222,1.0205648298817787
-12.04165273708596,0.24231606966198196,-1.423661818586068,5.4021217799729655,15.022587499749836,-9.698257230088258,-2.3880398239975373,7.681407971776884,-1.0286365562454372,-24.762621768801537,-1.401487537413715,1.0157157653523863
-12.57260632975688,0.232067759727964,-1.3650239361984409,5.680217044540508,15.074034138728743,-9.745133896959718,-2.353075535951529,7.8653560825959765,-1.0145686281917827,-24.973222616584394,-1.4034075440304787,1.012048901094067
-13.081614542139798,0.22119870560238467,-1.3147751078947443,5.94458332727237,15.128746765054903,-9.795903316308554,-2.3252480058981018,8.037248268040887,-1.0003675146249913,-25.177884835002068,-1.4048024457460646,1.0087958073588226
-13.569779935622861,0.20974897861099748,-1.2713091989139031,6.1965154079495,15.185764640732994,-9.849803140167081,-2.3022922435881075,8.198974144600882,-0.9865538157378392,-25.377226181666078,-1.405625404886955,1.0056616362561477
-14.038325712020816,0.19777625883788308,-1.233247639503375,6.4372196732667275,15.2443734778658,-9.906026370947645,-2.2829367138076146,8.351994364688387,-0.9733193525539899,-25.57171363729894,-1.405886370190952,1.0025709362695168
-14.488515054684605,0.1853584609525128,-1.1994977532594568,6.667767500005059,15.304063339379438,-9.963886361668129,-2.2664340446810805,8.497457874751973,-0.9606917454719003,-25.761725503560555,-1.4056232079804898,0.9995334222099801
-14.921593496911587,0.1725852956308745,-1.1692281459914127,6.889092740649056,15.364479300631618,-10.022845037176287,-2.252310206132004,8.636284789402886,-0.9486263056092403,-25.947582855739874,-1.4048876801528245,0.9965824066048652
-15.338752584438517,0.15954981755905395,-1.1418186209279308,7.102006085671627,15.425378134659196,-10.082494076332745,-2.2402353998764597,8.76922495103826,-0.9370530848541779,-26.12956575947462,-1.4037376591921786,0.9937499063314639
-15.741110338327653,0.14634277554361608,-1.1168099509125162,7.307213156282507,15.486594606454702,-10.142525636296256,-2.2299587083552863,8.89689878282938,-0.9258991670167658,-26.307922120997958,-1.4022327900832923,0.9910584026285527
-16.1297033699828,0.1330498417284479,-1.093862084200745,7.505330638323394,15.548016537522985,-10.202707152813122,-2.2212749642322476,9.019825642769451,-0.9150984129909581,-26.48287309572333,-1.4004315980131983,0.9885194455781193
-16.505485699637184,0.1197505191245121,-1.0727216719611512,7.6969000717299645,15.609566858529767,-10.262861463024853,-2.2140075904983147,9.138444136242054,-0.9045951749337358,-26.654616765840075,-1.398389439150702,0.9861350272996829
-16.86933116697187,0.1065175410922213,-1.0531974912364015,7.882399468573717,15.671190949697081,-10.322852150844755,-2.2079995057850357,9.253127087395553,-0.8943451620500255,-26.823330903827852,-1.3961569520065729,0.9838998043685477
-17.22203781664749,0.09341650706271344,-1.0351420852232978,8.06225270879885,15.732847729260365,-10.382573361336087,-2.2031086276264653,9.364192641293132,-0.8843147782621292,-26.989175267865374,-1.393778882614618,0.9818034477856391
-17.56433286107916,0.08050527152228326,-1.0184379777217911,8.236837888856439,15.794503712728858,-10.441941980067472,-2.1992055854291617,9.471913269680414,-0.8744797768188635,-27.152293531165142,-1.3912934494988503,0.9798327978927025
-17.896877996881898,0.06783331353279523,-1.0029875559020214,8.406494262460127,15.856129182692888,-10.500892203249986,-2.1961727149654044,9.57652301296892,-0.864823570070752,-27.31281504875609,-1.3887321239108072,0.9779735831826493
-18.220274808500598,0.05544134532348398,-0.9887058352856378,8.571527964094853,15.917695885002525,-10.559371762544142,-2.193903621573404,9.678223541561772,-0.8553354801959495,-27.47085651501509,-1.386119785583416,0.9762116947592209
-18.53507005496821,0.04336121199008957,-0.975515470445843,8.732216790178406,15.979175865976286,-10.61733913354025,-2.1923027986022343,9.777189440870872,-0.8460091522680809,-27.62652350970071,-1.3834752806311477,0.9745340188420757
-18.841760805528573,0.031616172049660655,-0.9633435622593826,8.888814047428284,16.040541069608402,-10.67476154738171,-2.1912851302260945,9.87357278531695,-0.8368412256947323,-27.779911953525634,-1.380812237391588,0.9729288831533818
-19.14079937135466,0.02022157964612436,-0.952119843949465,9.041551570888897,16.101763390325118,-10.731613593650586,-2.1907752403815732,9.967507064048743,-0.8278302951782562,-27.931109463441825,-1.3781399885355097,0.9713862230937911
-19.43259794886922,0.009185864141460793,-0.9417758493756242,9.190642114875981,16.16281498111767,-10.787876156696644,-2.190706692179801,10.059110541082516,-0.8189761530171834,-28.080196575297766,-1.375464515880162,0.9698975627900182
-19.717532914119765,-0.001488335885855287,-0.9322447354639407,9.336281290391042,16.22366867826722,-10.843535529493572,-2.1910210875497946,10.148489092622,-0.8102792708503265,-28.227247812174024,-1.372789349030241,0.9684558836293274
-19.995948739556784,-0.011803006366409997,-0.9234615021477703,9.478649171568287,16.284298441878285,-10.898582641059207,-2.191667139309343,10.235738546285674,-0.8017404629655549,-28.372332592918866,-1.3701163527319007,0.967055437294951
-20.268161523835502,-0.021763651795299967,-0.9153634113428696,9.617911666109611,16.344679747359905,-10.953012366262328,-2.1925997780003743,10.320946561171409,-0.7933606755611179,-28.515515985097366,-1.3674463643800907,0.9656915443252811
-20.534462138845477,-0.03137831376175944,-0.9078904596905544,9.754221723960805,16.404789894870493,-11.00682289667358,-2.1937793329814474,10.4041941048768,-0.7851408574013697,-28.656859313165217,-1.364779675609522,0.9643604026506272
-20.795119010700837,-0.040656748863344104,-0.9009858101294137,9.88772043493281,16.464608226165726,-11.060015160975489,-2.1951708068053173,10.485556590438161,-0.7770818798416818,-28.79642063843111,-1.3621163727590226,0.9630589177295912
-21.050380561458464,-0.049609774396613904,-0.8945961298718262,10.018538043985252,16.524116251471906,-11.112592293089811,-2.1967432476336812,10.56510473509754,-0.7691844852021034,-28.934255131215334,-1.3594565593632093,0.9617845581466518
-21.300477344128833,-0.05824877101002115,-0.8886718136761321,10.146794897433601,16.583297696003093,-11.16455915160799,-2.1984692152753627,10.642905198513775,-0.7614492510639274,-29.070415356619208,-1.3568004854120141,0.9605352364692121
-21.545623905260967,-0.06658532087870529,-0.8831670918515754,10.27260232489718,16.642138479125226,-11.215921895350998,-2.200324331070753,10.719021052616219,-0.7538765640725569,-29.204951493915107,-1.354148606922179,0.9593092131506454
-21.7860204082304,-0.07463095631221417,-0.8780400345734112,10.39606345830239,16.700626640357548,-11.266687619208923,-2.2022868995041853,10.793512129357683,-0.7464666004299286,-29.337911506803426,-1.3515015968292106,0.9581050203442258
-22.021854047621346,-0.08239699453633097,-0.8732524702614329,10.517273988479905,16.758752226127527,-11.316864053659405,-2.2043375894241923,10.86643528648636,-0.7392193119002914,-29.469341278591195,-1.3488603248052498,0.9569214022223324
-22.253300281670654,-0.08989443755410799,-0.8687698379163976,10.636322860365945,16.81650714997295,-11.366459331195383,-2.206459164315058,10.937844625519423,-0.7321344164229217,-29.59928472327539,-1.3462258197912222,0.9557572685391471
-22.480523906186637,-0.09713392000189312,-0.8645609928435017,10.753292908709545,16.873885037158633,-11.415481823056432,-2.208636253417708,11.007791690544883,-0.7252113919143064,-29.727783880813224,-1.3435992253036624,0.9546116585573226
-22.703679990071176,-0.10412569184246041,-0.8605979831744477,10.868261437076496,16.93088106278096,-11.463940049499742,-2.2108551579963365,11.076325671136159,-0.7184494710570167,-29.854879002598057,-1.3409817543171865,0.953483712944442
-22.922914689793327,-0.11087962604818234,-0.8568558117962657,10.981300743583576,16.987491790592916,-11.511842665585672,-2.213103689213671,11.14349362701681,-0.7118476342138282,-29.980608631305056,-1.3383746479056733,0.952372651746027
-23.13836595808925,-0.11740524384854077,-0.8533121952000726,11.092478597075816,17.043715018096815,-11.559198521360601,-2.2153710355855023,11.209340745463273,-0.7054045973833386,-30.105009677772145,-1.3357791398396277,0.9512777570151915
-23.350164160924948,-0.12371175155508123,-0.8499473276854713,11.201858667339025,17.099549631913902,-11.606016789834223,-2.217647658609079,11.273910634138165,-0.6991187925643605,-30.22811749634943,-1.3331964278923285,0.9501983591075452
-23.55843261635525,-0.1298080834965399,-0.8467436564508782,11.309500912447836,17.154995476015486,-11.652307148074552,-2.219925214764056,11.337245641769178,-0.692988339180412,-30.349965959113494,-1.3306276515769082,0.9491338260291668
-23.763288069273912,-0.1357029453741587,-0.8436856704420522,11.415461925587914,17.21005323400694,-11.698079986430784,-2.2221965006148343,11.39938718706126,-0.6870110074035024,-30.470587528461504,-1.328073875330549,0.948083555547356
-23.964841116905934,-0.14140485168499922,-0.8407597034856109,11.519795242808906,17.264724325253002,-11.743346609399453,-2.224455415271784,11.460376063407876,-0.6811841772427487,-30.590013326847384,-1.3255360757161267,0.9470469700239599
-24.163196600859564,-0.14692215014587803,-0.8379537502671967,11.62255161234642,17.31901081320618,-11.788119380793185,-2.2266969312306375,11.52025267510111,-0.6755048008915369,-30.708273201832547,-1.3230151310110114,0.9460235140858403
-24.35845398211112,-0.15226302572426803,-0.8352572922286885,11.72377922560492,17.37291532290879,-11.832411758101822,-2.2289170610527695,11.579057152226527,-0.6699693796071672,-30.82539578426329,-1.3205118115936187,0.9450126552849774
-24.55070771485305,-0.15743547739792657,-0.8326611295668382,11.823523909812964,17.426440963408144,-11.876238159051264,-2.2311128041568717,11.636829289038122,-0.6645739696497737,-30.941408537325138,-1.3180267698400303,0.9440138878029842
-24.740047633090086,-0.1624472625248078,-0.8301572153518691,11.921829282915983,17.47959124998393,-11.91961361017623,-2.2332820561006494,11.69360825714935,-0.6593142336143125,-31.056337794582774,-1.315560528826776,0.943026739017469
-24.926559359634936,-0.16730580708083406,-0.8277384884774396,12.018736872611605,17.532370020927868,-11.962553145355216,-2.235423463297843,11.749432063001407,-0.6541855527140336,-31.17020878594823,-1.3131134700324596,0.9420507783712242
-25.110324740168803,-0.17201808534968477,-0.8253987038634821,12.114286203697057,17.584781344545117,-12.005070954139589,-2.2375362104727317,11.80433675127927,-0.6491832109026544,-31.283045651964702,-1.3106858214976773,0.9410856274704933
-25.291422294770552,-0.1765904802129508,-0.8231322612457677,12.208514861191613,17.63682941447996,-12.04717932753645,-2.2396197376480065,11.858355404469368,-0.6443026518127424,-31.3948714489269,-1.3082776495648782,0.9401309696768724
-25.469927665582233,-0.1810286449810669,-0.8209340381553082,12.301458540984886,17.688518435764195,-12.088887513593408,-2.2416733990476603,11.911517054431965,-0.6395397933977867,-31.505708150261405,-1.305888859274655,0.9391865566615409
-25.645914022934516,-0.18533739875507454,-0.8187992381819571,12.39315110453157,17.73985251009901,-12.130200673147542,-2.2436960976970326,11.963845700736082,-0.6348913632732629,-31.615576653138323,-1.3035192102446365,0.938252208577384
-25.81945237646365,-0.18952069668695018,-0.8167232714594729,12.483624657970426,17.790835535941714,-12.17111920360128,-2.245685953869255,12.015359707799403,-0.6303551932109037,-31.724496802840513,-1.3011683552365667,0.9373278040266866
-25.990611729094855,-0.19358171862357054,-0.8147016883656811,12.572909676454353,17.84147114482691,-12.211638745630102,-2.2476400862406516,12.06607189735772,-0.6259303912585821,-31.83248744954016,-1.2988359058906649,0.936413256527783
-26.159459019577273,-0.19752310728182482,-0.8127301862865282,12.661035188372857,17.891762696717088,-12.25175115958397,-2.2495545916057407,12.115990618849624,-0.621617305314814,-31.939566550525683,-1.2965215227674955,0.9355084765247943
-26.326058831822873,-0.20134735530749093,-0.8108046994340656,12.748029019712154,17.941713350792877,-12.291446611873308,-2.251424791976757,12.165121925698799,-0.6174172132916184,-32.045751323292485,-1.2942250153279602,0.9346133225433483
-26.490472907115674,-0.20505729212997548,-0.8089215620190542,12.833918077775794,17.991326212859835,-12.330716636768765,-2.2532457719454824,12.21347270363315,-0.6133317263810031,-32.1510584406414,-1.2919464255828068,0.9337275511001225
-26.652759565679492,-0.2086565703676596,-0.807077709521121,12.91872863219824,18.040604539138883,-12.36955768852613,-2.255013159416827,12.261054245805006,-0.6093619660880536,-32.25550424078169,-1.2896860633367024,0.9328507801157551
-26.812973202462132,-0.21215001934404396,-0.8052708607006873,13.002486538448975,18.089551954822163,-12.40797438921852,-2.256724024336317,12.307885468369442,-0.605507654558031,-32.359104909853855,-1.287444466915365,0.9319824817289687
-26.971164041873415,-0.21554373885987496,-0.8034996153821634,13.085217351649362,18.138172631442586,-12.44598154614774,-2.258377703144848,12.353994844454553,-0.6017663190690734,-32.461876588880045,-1.285222281380337,0.9311220154338551
-27.127378303775053,-0.21884485364954173,-0.8017634159141409,13.166946296930801,18.186471364407524,-12.48360414368436,-2.2599763208529007,12.39942028147909,-0.5981328368952089,-32.563835366413784,-1.2830200698075516,0.9302687021250078
-27.28165885651319,-0.222060922187824,-0.8000623495028375,13.247698090167642,18.23445350147251,-12.520874883113335,-2.2615247919602846,12.444206543691994,-0.5945995261139522,-32.66499714006911,-1.2808380916885724,0.9294219279705696
-27.434046337422156,-0.22519906653537677,-0.7983968019623074,13.327496630520402,18.282124692226812,-12.557829328025798,-2.2630301425879855,12.488400303474599,-0.5911569197715083,-32.765377356870616,-1.278676089045138,0.9285812590638213
-27.58458062762113,-0.22826494803909766,-0.7967670002219865,13.40636461005989,18.329490457541116,-12.594499191272956,-2.2645001107060456,12.532043378251974,-0.5877952452464622,-32.86499066669646,-1.27653312000938,0.9277465452908256
-27.73330246591436,-0.23126177449805577,-0.7951725045957874,13.484323113913856,18.376555623879174,-12.630904789484136,-2.265941156509918,12.575165208054633,-0.584506455741085,-32.96385054651509,-1.274407488736576,0.9269179902193913
-27.880254839503067,-0.23418962481174435,-0.7936117506813918,13.561391330190588,18.423323742960452,-12.667048357950232,-2.267356265744608,12.617776325982884,-0.5812864043179738,-33.06196898660208,-1.2722968528867922,0.9260961557649341
-28.025483610524553,-0.237045495511502,-0.7920818035626918,13.63758653967986,18.469796712621395,-12.702910753258974,-2.2687432226505373,12.659865429441219,-0.5781364483687895,-33.15935637519605,-1.2701986150152067,0.925281859528934
-28.169036795564864,-0.2398244458575633,-0.7905785303875725,13.712924542131493,18.515974858869388,-12.738454382787044,-2.270094190733952,12.701402903641798,-0.5750636236742412,-33.25602173700149,-1.2681106317477415,0.9244759350780175
-28.310962265997055,-0.24252183873371402,-0.7890973231340503,13.787420521124869,18.561857627464068,-12.773633790910793,-2.271397201398707,12.742352047625788,-0.5720788255213732,-33.35197340209771,-1.2660320526730449,0.9236788890393158
-28.45130439531887,-0.2451360131331251,-0.7876342557578747,13.861090093353132,18.607444756097944,-12.808411900914725,-2.2726394512246304,12.782685643883953,-0.5691932203471715,-33.447219981551136,-1.2639638681851455,0.92289058270532
-28.590100912839837,-0.24767023991766984,-0.7861872515945648,13.933950115138655,18.652737514892262,-12.842776216293055,-2.2738114782908063,12.822401877266188,-0.5664139795964491,-33.54177130596799,-1.2619087624600323,0.9221101106029963
-28.72738136547872,-0.25013295846891004,-0.7847567130185626,14.006018884985117,18.697739513686248,-12.876748061792382,-2.274910786353572,12.861532710950309,-0.5637408593220912,-33.635638913843884,-1.2598702071281733,0.9213359815623792
-28.86316798165872,-0.2525360375926837,-0.7833452733935276,14.077315646844607,18.742456730452528,-12.910380390763542,-2.2759435323913353,12.900140613001271,-0.5611649560587921,-33.72883583586355,-1.2578511479174799,0.9205665591848504
-28.997478790349717,-0.2548916276198427,-0.7819567354789557,14.147859568256724,18.786896686174632,-12.94374419209628,-2.276923405363814,12.938304105596636,-0.5586703411631179,-33.821375705416365,-1.25585279917699,0.9198005965611881
-29.130332182314902,-0.25720853573901,-0.7805945488935088,14.217668477336296,18.831066907939004,-12.97690712028541,-2.277867574754819,12.976095980067276,-0.5562385241438443,-33.91327144234612,-1.25387388214104,0.9190376917738129
-29.261751877517252,-0.25948897506459245,-0.7792602050305424,14.286757630964939,18.87497295885132,-13.009909374183705,-2.278790399941057,13.013559201734262,-0.553854961336756,-34.004533827068265,-1.2519103984948574,0.9182785623132756
-29.391770901906092,-0.2617266962154815,-0.7779519116555034,14.355138898632502,18.918616579611946,-13.042743393054348,-2.2796966260791387,13.05068722184217,-0.5515158026515757,-34.095170355989254,-1.2499561557191659,0.9175250405854856
-29.520432236188313,-0.26390824463402,-0.7766641582458247,14.422821057575874,18.961995001773587,-13.075348080445744,-2.280577202901796,13.087419923263445,-0.5492315577231314,-34.18518500960273,-1.2480046521760075,0.9167795836820484
-29.6477838523939,-0.2660187130630838,-0.7753890098400508,14.48981173546107,19.005102548733724,-13.107628928281978,-2.2814111961172157,13.12366653250925,-0.5470241268123255,-34.27457961274964,-1.2460523524914728,0.9160441897164607
-29.7738690644387,-0.26805013688227886,-0.7741192695786911,14.556120320279952,19.047934327607436,-13.139502190285414,-2.2821744186230735,13.159351883009329,-0.5449170180296078,-34.36335666215202,-1.2441014494461573,0.9153191727254726
-29.89871738559742,-0.2700073758807196,-0.7728520173944118,14.621760020059197,19.09049003735268,-13.170940857355532,-2.282850932345823,13.194461590174292,-0.5429234495615289,-34.45152221452259,-1.242159525063013,0.914602682379838
-30.02234159313981,-0.2719073106887737,-0.7715901774015786,14.68674770787057,19.13277561365019,-13.201994463628006,-2.283441471059729,13.229058219266463,-0.5410387195110198,-34.53908706082465,-1.240235809613972,0.9138914479238572
-30.14474264464283,-0.27377181799686273,-0.7703410154436968,14.751101776529012,19.174801871333774,-13.232771283163032,-2.2839645050435324,13.263259459839835,-0.5392406609407477,-34.62606547757218,-1.2383365133922983,0.9131823112086047
-30.26591968343703,-0.2756184734163714,-0.7691125868195255,14.814839247985281,19.216580910135452,-13.26339317454626,-2.284449192688054,13.297190830341014,-0.5374980621260225,-34.712472244443944,-1.2364618589839356,0.9124736692132205
-30.385881320840163,-0.277452505670986,-0.7679098798028304,14.877973125143185,19.25812148952607,-13.293941115763936,-2.2849222758038037,13.33093112976446,-0.5357845096776174,-34.798319117044905,-1.234605354031848,0.9117663147642954
-30.504655020898202,-0.27926201772425163,-0.7667317239510448,14.940510588735467,19.299424574402828,-13.324407491081299,-2.2853928983285123,13.364466083904336,-0.5340936065634774,-34.88361180214691,-1.2327548713065601,0.9110635729042532
-30.62228880832585,-0.28102069406409846,-0.7655696544309902,15.002453659195005,19.34048179581034,-13.354681455096738,-2.2858433919329455,13.397678015243235,-0.5324470462014962,-34.96834910089121,-1.230897237507684,0.9103702039088938
-30.738838360989362,-0.2827024367019958,-0.7644109558589843,15.063804004028105,19.381280355967444,-13.38460080402367,-2.286236276951753,13.430405678034578,-0.5308848670523028,-35.05252634644096,-1.2290272482883782,0.9096895873313152
-30.854344433178643,-0.28430040748939933,-0.763246074345523,15.124569167312764,19.42181262463807,-13.414055565934259,-2.286536775839786,13.462552597808694,-0.5294403213597076,-35.13614221489194,-1.2271537842900888,0.909020940153857
-30.968818315483265,-0.28583387693347273,-0.7620752424233831,15.18476459756765,19.46208283080421,-13.44306614260602,-2.286735192861862,13.49415968037534,-0.5281177260415577,-35.21920391639773,-1.2252948612121974,0.9083594075345587
-31.082246651649537,-0.28733691893348295,-0.7609083509147658,15.244409925594537,19.502105726839837,-13.471775438368754,-2.2868535553827507,13.525385920567897,-0.5268889195134433,-35.30172676188187,-1.223465458682665,0.9076991460403849
-31.19461021078654,-0.28883890599982553,-0.759758511715251,15.303523041648678,19.54189912834069,-13.500368600663878,-2.286933612771464,13.556420812304417,-0.52570859230759,-35.383728848764385,-1.2216687046287753,0.9070367649059695
-31.305905243209757,-0.290348290572039,-0.7586343861255961,15.362115313720212,19.58147478227636,-13.528970802318323,-2.287013128551848,13.587381759224117,-0.5245397001433288,-35.465224099451774,-1.2198942298586934,0.9063732001139202
-31.416160400553995,-0.2918438981873512,-0.7575344551417378,15.420188800653504,19.62083036586891,-13.557559799542476,-2.2870996014663283,13.618229928647576,-0.5233798697197843,-35.54621625827479,-1.2181208690940575,0.9057139934953202
-31.52543755729331,-0.29328188951298145,-0.7564453287215859,15.477738362735463,19.659948221628365,-13.58594721401869,-2.2871576454921496,13.648761147415884,-0.5222716379810782,-35.6266975797423,-1.216326751595158,0.9050669548122889
-31.633802078431557,-0.2946274623911068,-0.7553486046477521,15.534761996222539,19.698808216880636,-13.613899569910428,-2.2871307400750127,13.678744695349666,-0.5212748031275106,-35.70665686230518,-1.2145090056722052,0.9044360982238326
-31.741282415719965,-0.29588669087347674,-0.7542350574876866,15.591270634517086,19.737406148269006,-13.641328615982003,-2.286986059357376,13.70811887001202,-0.5204175491393135,-35.78609228063332,-1.212691153424796,0.9038173170975259
-31.847859942287155,-0.2971031414114349,-0.7531126849909744,15.647285944490607,19.77575881212056,-13.668365517795012,-2.2867410552497134,13.737045669799123,-0.5196731487946181,-35.86501692750785,-1.2109037958585922,0.9032015313399306
-31.953495031315462,-0.29832531498701753,-0.7519999571834989,15.70282966531377,19.81389251970807,-13.695263686130852,-2.2864509812218117,13.765791588861632,-0.5189793113218156,-35.9434529619925,-1.209160686531642,0.9025816746806923
-32.05816359745376,-0.2995750499475476,-0.7509124608504825,15.75791466068101,19.85182682755445,-13.72223043707079,-2.286172244017036,13.794554254223051,-0.5182790184010576,-36.02142011438845,-1.207451432915719,0.9019571334813341
-32.16188668947906,-0.3008300642753193,-0.7498524997984514,15.812540367000238,19.88956088571811,-13.749275721150955,-2.28592110559699,13.82331687764318,-0.5175626003491542,-36.09892459962396,-1.2057458676195623,0.9013347573780309
-32.264738006806134,-0.30202947069181124,-0.748804739548189,15.866694811617887,19.927069006893227,-13.776154672988564,-2.285649296996976,13.85180493164408,-0.5168891860754472,-36.17595451963058,-1.2040084174481631,0.9007260155662611
-32.3667981603119,-0.30312392206241506,-0.7477449124769335,15.92037113005882,19.964321646734057,-13.80254867638786,-2.285278467309031,13.879699801758925,-0.516342359254016,-36.25249165510112,-1.2022333507172294,0.9001368734520043
-32.468088880464045,-0.30412807647468854,-0.7466619797750407,15.9735834095479,20.00131699972384,-13.828371580087254,-2.2847757089008933,13.906956348998824,-0.5159475765035476,-36.328532340637054,-1.2004593188494608,0.8995603144743901
-32.56856666431955,-0.3051068743623009,-0.7455695010720711,16.0263593156924,20.038083854606302,-13.853847294333674,-2.284183794388236,13.933841663391387,-0.5156489055595127,-36.404094474371824,-1.1987306728984122,0.8989831641651508
-32.66817314435246,-0.30611905959410957,-0.7444921085823615,16.078721277346194,20.074656793048305,-13.87931339161554,-2.283581658663633,13.960702346329457,-0.5153598648705534,-36.47920602862275,-1.1970583279558127,0.8983976674293238
-32.76688929355138,-0.3071738147798748,-0.7434454695357381,16.13067533407038,20.11105092887441,-13.904963605357418,-2.2830222979136185,13.987706137102293,-0.5150303297439361,-36.55388663371782,-1.1954158124565641,0.8978066660418991
-32.86477043523547,-0.30821456460748875,-0.7424235821837379,16.182208252229156,20.147245959098818,-13.930656290039435,-2.2824809115894182,14.014664517631017,-0.5146978773129486,-36.628132272483576,-1.1937519401495813,0.8972233343594543
-32.96192381965862,-0.3091563431804969,-0.7413987778835495,16.233300590939038,20.183196984155025,-13.955971501385045,-2.2818590351966392,14.04112700785351,-0.5144743651187897,-36.70191780790219,-1.192029600589638,0.8966618163658306
-33.0584075612258,-0.30998012341561243,-0.7403460189184836,16.28395723219339,20.218884572921052,-13.98064366002154,-2.2810866114603887,14.06686390112902,-0.5144270103914469,-36.775225731916876,-1.1902804405878518,0.896119852234199
-33.15417930249077,-0.3107563907521931,-0.7392715547122986,16.33421012597471,20.25433973399077,-14.004850008323867,-2.280203000619252,14.092121364844369,-0.5144994315769553,-36.84806791316696,-1.1885739916487008,0.895580418008844
-33.249155677035034,-0.31157012947701884,-0.738204992995539,16.38408931318983,20.289610893337564,-14.02901358345502,-2.2793119091538143,14.117350062823549,-0.5145749979237361,-36.92047706401871,-1.1869409884902433,0.8950302320116112
-33.3432946753909,-0.3124482789110112,-0.7371702663213608,16.433602922653872,20.32472287539205,-14.053430002849824,-2.2784879932174404,14.142816889593576,-0.5145801832541255,-36.99248136354367,-1.1853539795753654,0.8944702303506723
-33.436649662460994,-0.31332965234135124,-0.7361657742239833,16.482733102478182,20.35965329735723,-14.077976225701432,-2.277705717046286,14.168335149536585,-0.514555873559707,-37.06407994234736,-1.183745937963925,0.8939160842420274
-33.5293510907135,-0.3141050343711998,-0.7351606723859795,16.531451484490905,20.394342562048298,-14.102132643919429,-2.2768364531349077,14.193335770636429,-0.5146491058046282,-37.13524119931805,-1.182060607813714,0.8933869996996519
-33.62146468697175,-0.314750545249719,-0.734124202605289,16.579763476287784,20.42876730177164,-14.125577838057534,-2.275797401586117,14.217543721421178,-0.5149390082833608,-37.20594169306538,-1.1803398092493944,0.8928798983404691
-33.712923466249556,-0.3153591552412441,-0.7330652623786993,16.627710334359573,20.462973986994644,-14.148573229616979,-2.274660736924773,14.241313560544878,-0.5153309195388563,-37.27619605868787,-1.1786777364077121,0.8923721516844393
-33.80362253288528,-0.31603064157628347,-0.7320195929495671,16.675324393496172,20.497021978468613,-14.171640519345049,-2.273558942817325,14.265194077777457,-0.5156779681320144,-37.3460441800906,-1.1771055691681653,0.8918488826273427
-33.89352855924893,-0.3167785060354063,-0.7310114400206393,16.722605318532274,20.530927935464057,-14.195056622726792,-2.2725520826904075,14.289411737739778,-0.5159253637052622,-37.415515485119016,-1.1755744446328982,0.8913152047989497
-33.982738886207706,-0.31750209857948,-0.7300306645464433,16.769520517898634,20.56464267759966,-14.218511860448132,-2.2715544377741206,14.313566565929486,-0.5161816913508173,-37.48459724751519,-1.1739898246639318,0.8907944952707119
-34.071406336729396,-0.3180814648863252,-0.7290354577789889,16.816040349289505,20.598093058552813,-14.241355398137658,-2.2703965789490708,14.336970406662514,-0.5166342706632696,-37.55324684199295,-1.1723072060904058,0.8903055318307874
-34.159540335954205,-0.3185476056929291,-0.7280020385514496,16.86219311888134,20.631289263557136,-14.263465810635916,-2.2690626763340016,14.359603441812956,-0.517282261466615,-37.62144925451562,-1.1706250522984065,0.8898319443380582
-34.24701469533767,-0.3190351187359592,-0.7269582609602733,16.908031540159328,20.664311768119653,-14.285371875259555,-2.2677149086100847,14.382093557786222,-0.5179360598803939,-37.68923673686416,-1.1690455697388136,0.8893457871746665
-34.33372942083331,-0.3196244518900663,-0.7259441398707968,16.953574072014327,20.697212918906366,-14.307618122595565,-2.266484784474409,14.404968061949901,-0.5184577547183657,-37.756656837932404,-1.1675561970551809,0.8888401532293471
-34.419722488398726,-0.3202597978392491,-0.7249707541119949,16.998794758455468,20.72996853795445,-14.330185985853774,-2.2653449503292906,14.428109265297428,-0.5188936657024009,-37.82372227630157,-1.1660572353480332,0.8883341784804981


From now we will be testing our weights here!
-34.4197224884,-0.724970754112,16.9987947585,20.729968538,-14.3301859859,-2.26534495033,14.4281092653,-0.518893665702,-37.8237222763,-0.320259797839,-1.16605723535,0.88833417848
-34.4197224884,-0.724970754112,16.9987947585,20.729968538,-14.3301859859,-2.26534495033,14.4281092653,-0.518893665702,-37.8237222763,-0.320259797839,-1.16605723535,0.88833417848
-34.4197224884,-0.724970754112,16.9987947585,20.729968538,-14.3301859859,-2.26534495033,14.4281092653,-0.518893665702,-37.8237222763,-0.320259797839,-1.16605723535,0.88833417848
-34.4197224884,-0.724970754112,16.9987947585,20.729968538,-14.3301859859,-2.26534495033,14.4281092653,-0.518893665702,-37.8237222763,-0.320259797839,-1.16605723535,0.88833417848
-34.4197224884,-0.724970754112,16.9987947585,20.729968538,-14.3301859859,-2.26534495033,14.4281092653,-0.518893665702,-37.8237222763,-0.320259797839,-1.16605723535,0.88833417848
-34.4197224884,-0.724970754112,16.9987947585,20.729968538,-14.3301859859,-2.26534495033,14.4281092653,-0.518893665702,-37.8237222763,-0.320259797839,-1.16605723535,0.88833417848
-34.4197224884,-0.724970754112,16.9987947585,20.729968538,-14.3301859859,-2.26534495033,14.4281092653,-0.518893665702,-37.8237222763,-0.320259797839,-1.16605723535,0.88833417848
-34.4197224884,-0.724970754112,16.9987947585,20.729968538,-14.3301859859,-2.26534495033,14.4281092653,-0.518893665702,-37.8237222763,-0.320259797839,-1.16605723535,0.88833417848
-34.4197224884,-0.724970754112,16.9987947585,20.729968538,-14.3301859859,-2.26534495033,14.4281092653,-0.518893665702,-37.8237222763,-0.320259797839,-1.16605723535,0.88833417848
-34.4197224884,-0.724970754112,16.9987947585,20.729968538,-14.3301859859,-2.26534495033,14.4281092653,-0.518893665702,-37.8237222763,-0.320259797839,-1.16605723535,0.88833417848
-34.4197224884,-0.724970754112,16.9987947585,20.729968538,-14.3301859859,-2.26534495033,14.4281092653,-0.518893665702,-37.8237222763,-0.320259797839,-1.16605723535,0.88833417848
-34.4197224884,-0.724970754112,16.9987947585,20.729968538,-14.3301859859,-2.26534495033,14.4281092653,-0.518893665702,-37.8237222763,-0.320259797839,-1.16605723535,0.88833417848
-34.4197224884,-0.724970754112,16.9987947585,20.729968538,-14.3301859859,-2.26534495033,14.4281092653,-0.518893665702,-37.8237222763,-0.320259797839,-1.16605723535,0.88833417848
-34.4197224884,-0.724970754112,16.9987947585,20.729968538,-14.3301859859,-2.26534495033,14.4281092653,-0.518893665702,-37.8237222763,-0.320259797839,-1.16605723535,0.88833417848
-34.4197224884,-0.724970754112,16.9987947585,20.729968538,-14.3301859859,-2.26534495033,14.4281092653,-0.518893665702,-37.8237222763,-0.320259797839,-1.16605723535,0.88833417848
-34.4197224884,-0.724970754112,16.9987947585,20.729968538,-14.3301859859,-2.26534495033,14.4281092653,-0.518893665702,-37.8237222763,-0.320259797839,-1.16605723535,0.88833417848
-34.4197224884,-0.724970754112,16.9987947585,20.729968538,-14.3301859859,-2.26534495033,14.4281092653,-0.518893665702,-37.8237222763,-0.320259797839,-1.16605723535,0.88833417848
-34.4197224884,-0.724970754112,16.9987947585,20.729968538,-14.3301859859,-2.26534495033,14.4281092653,-0.518893665702,-37.8237222763,-0.320259797839,-1.16605723535,0.88833417848
-34.4197224884,-0.724970754112,16.9987947585,20.729968538,-14.3301859859,-2.26534495033,14.4281092653,-0.518893665702,-37.8237222763,-0.320259797839,-1.16605723535,0.88833417848
-34.4197224884,-0.724970754112,16.9987947585,20.729968538,-14.3301859859,-2.26534495033,14.4281092653,-0.518893665702,-37.8237222763,-0.320259797839,-1.16605723535,0.88833417848
-34.4197224884,-0.724970754112,16.9987947585,20.729968538,-14.3301859859,-2.26534495033,14.4281092653,-0.518893665702,-37.8237222763,-0.320259797839,-1.16605723535,0.88833417848
-34.4197224884,-0.724970754112,16.9987947585,20.729968538,-14.3301859859,-2.26534495033,14.4281092653,-0.518893665702,-37.8237222763,-0.320259797839,-1.16605723535,0.88833417848
-34.4197224884,-0.724970754112,16.9987947585,20.729968538,-14.3301859859,-2.26534495033,14.4281092653,-0.518893665702,-37.8237222763,-0.320259797839,-1.16605723535,0.88833417848
-34.4197224884,-0.724970754112,16.9987947585,20.729968538,-14.3301859859,-2.26534495033,14.4281092653,-0.518893665702,-37.8237222763,-0.320259797839,-1.16605723535,0.88833417848
-34.4197224884,-0.724970754112,16.9987947585,20.729968538,-14.3301859859,-2.26534495033,14.4281092653,-0.518893665702,-37.8237222763,-0.320259797839,-1.16605723535,0.88833417848
-34.4197224884,-0.724970754112,16.9987947585,20.729968538,-14.3301859859,-2.26534495033,14.4281092653,-0.518893665702,-37.8237222763,-0.320259797839,-1.16605723535,0.88833417848
-34.4197224884,-0.724970754112,16.9987947585,20.729968538,-14.3301859859,-2.26534495033,14.4281092653,-0.518893665702,-37.8237222763,-0.320259797839,-1.16605723535,0.88833417848
-34.4197224884,-0.724970754112,16.9987947585,20.729968538,-14.3301859859,-2.26534495033,14.4281092653,-0.518893665702,-37.8237222763,-0.320259797839,-1.16605723535,0.88833417848
-34.4197224884,-0.724970754112,16.9987947585,20.729968538,-14.3301859859,-2.26534495033,14.4281092653,-0.518893665702,-37.8237222763,-0.320259797839,-1.16605723535,0.88833417848
-34.4197224884,-0.724970754112,16.9987947585,20.729968538,-14.3301859859,-2.26534495033,14.4281092653,-0.518893665702,-37.8237222763,-0.320259797839,-1.16605723535,0.88833417848
-34.4197224884,-0.724970754112,16.9987947585,20.729968538,-14.3301859859,-2.26534495033,14.4281092653,-0.518893665702,-37.8237222763,-0.320259797839,-1.16605723535,0.88833417848
-34.4197224884,-0.724970754112,16.9987947585,20.729968538,-14.3301859859,-2.26534495033,14.4281092653,-0.518893665702,-37.8237222763,-0.320259797839,-1.16605723535,0.88833417848
-34.4197224884,-0.724970754112,16.9987947585,20.729968538,-14.3301859859,-2.26534495033,14.4281092653,-0.518893665702,-37.8237222763,-0.320259797839,-1.16605723535,0.88833417848
-34.4197224884,-0.724970754112,16.9987947585,20.729968538,-14.3301859859,-2.26534495033,14.4281092653,-0.518893665702,-37.8237222763,-0.320259797839,-1.16605723535,0.88833417848
-34.4197224884,-0.724970754112,16.9987947585,20.729968538,-14.3301859859,-2.26534495033,14.4281092653,-0.518893665702,-37.8237222763,-0.320259797839,-1.16605723535,0.88833417848
-34.4197224884,-0.724970754112,16.9987947585,20.729968538,-14.3301859859,-2.26534495033,14.4281092653,-0.518893665702,-37.8237222763,-0.320259797839,-1.16605723535,0.88833417848
-34.4197224884,-0.724970754112,16.9987947585,20.729968538,-14.3301859859,-2.26534495033,14.4281092653,-0.518893665702,-37.8237222763,-0.320259797839,-1.16605723535,0.88833417848
-34.4197224884,-0.724970754112,16.9987947585,20.729968538,-14.3301859859,-2.26534495033,14.4281092653,-0.518893665702,-37.8237222763,-0.320259797839,-1.16605723535,0.88833417848
-34.4197224884,-0.724970754112,16.9987947585,20.729968538,-14.3301859859,-2.26534495033,14.4281092653,-0.518893665702,-37.8237222763,-0.320259797839,-1.16605723535,0.88833417848
-34.4197224884,-0.724970754112,16.9987947585,20.729968538,-14.3301859859,-2.26534495033,14.4281092653,-0.518893665702,-37.8237222763,-0.320259797839,-1.16605723535,0.88833417848
-34.4197224884,-0.724970754112,16.9987947585,20.729968538,-14.3301859859,-2.26534495033,14.4281092653,-0.518893665702,-37.8237222763,-0.320259797839,-1.16605723535,0.88833417848
-34.4197224884,-0.724970754112,16.9987947585,20.729968538,-14.3301859859,-2.26534495033,14.4281092653,-0.518893665702,-37.8237222763,-0.320259797839,-1.16605723535,0.88833417848
-34.4197224884,-0.724970754112,16.9987947585,20.729968538,-14.3301859859,-2.26534495033,14.4281092653,-0.518893665702,-37.8237222763,-0.320259797839,-1.16605723535,0.88833417848
-34.4197224884,-0.724970754112,16.9987947585,20.729968538,-14.3301859859,-2.26534495033,14.4281092653,-0.518893665702,-37.8237222763,-0.320259797839,-1.16605723535,0.88833417848
-34.4197224884,-0.724970754112,16.9987947585,20.729968538,-14.3301859859,-2.26534495033,14.4281092653,-0.518893665702,-37.8237222763,-0.320259797839,-1.16605723535,0.88833417848
-34.4197224884,-0.724970754112,16.9987947585,20.729968538,-14.3301859859,-2.26534495033,14.4281092653,-0.518893665702,-37.8237222763,-0.320259797839,-1.16605723535,0.88833417848
-34.4197224884,-0.724970754112,16.9987947585,20.729968538,-14.3301859859,-2.26534495033,14.4281092653,-0.518893665702,-37.8237222763,-0.320259797839,-1.16605723535,0.88833417848
-34.4197224884,-0.724970754112,16.9987947585,20.729968538,-14.3301859859,-2.26534495033,14.4281092653,-0.518893665702,-37.8237222763,-0.320259797839,-1.16605723535,0.88833417848
-34.4197224884,-0.724970754112,16.9987947585,20.729968538,-14.3301859859,-2.26534495033,14.4281092653,-0.518893665702,-37.8237222763,-0.320259797839,-1.16605723535,0.88833417848
-34.4197224884,-0.724970754112,16.9987947585,20.729968538,-14.3301859859,-2.26534495033,14.4281092653,-0.518893665702,-37.8237222763,-0.320259797839,-1.16605723535,0.88833417848
-34.4197224884,-0.724970754112,16.9987947585,20.729968538,-14.3301859859,-2.26534495033,14.4281092653,-0.518893665702,-37.8237222763,-0.320259797839,-1.16605723535,0.88833417848
-34.4197224884,-0.724970754112,16.9987947585,20.729968538,-14.3301859859,-2.26534495033,14.4281092653,-0.518893665702,-37.8237222763,-0.320259797839,-1.16605723535,0.88833417848
-34.4197224884,-0.724970754112,16.9987947585,20.729968538,-14.3301859859,-2.26534495033,14.4281092653,-0.518893665702,-37.8237222763,-0.320259797839,-1.16605723535,0.88833417848
-34.4197224884,-0.724970754112,16.9987947585,20.729968538,-14.3301859859,-2.26534495033,14.4281092653,-0.518893665702,-37.8237222763,-0.320259797839,-1.16605723535,0.88833417848
-34.4197224884,-0.724970754112,16.9987947585,20.729968538,-14.3301859859,-2.26534495033,14.4281092653,-0.518893665702,-37.8237222763,-0.320259797839,-1.16605723535,0.88833417848
-34.4197224884,-0.724970754112,16.9987947585,20.729968538,-14.3301859859,-2.26534495033,14.4281092653,-0.518893665702,-37.8237222763,-0.320259797839,-1.16605723535,0.88833417848
-34.4197224884,-0.724970754112,16.9987947585,20.729968538,-14.3301859859,-2.26534495033,14.4281092653,-0.518893665702,-37.8237222763,-0.320259797839,-1.16605723535,0.88833417848
-34.4197224884,-0.724970754112,16.9987947585,20.729968538,-14.3301859859,-2.26534495033,14.4281092653,-0.518893665702,-37.8237222763,-0.320259797839,-1.16605723535,0.88833417848
-34.4197224884,-0.724970754112,16.9987947585,20.729968538,-14.3301859859,-2.26534495033,14.4281092653,-0.518893665702,-37.8237222763,-0.320259797839,-1.16605723535,0.88833417848
-34.4197224884,-0.724970754112,16.9987947585,20.729968538,-14.3301859859,-2.26534495033,14.4281092653,-0.518893665702,-37.8237222763,-0.320259797839,-1.16605723535,0.88833417848
-34.4197224884,-0.724970754112,16.9987947585,20.729968538,-14.3301859859,-2.26534495033,14.4281092653,-0.518893665702,-37.8237222763,-0.320259797839,-1.16605723535,0.88833417848
-34.4197224884,-0.724970754112,16.9987947585,20.729968538,-14.3301859859,-2.26534495033,14.4281092653,-0.518893665702,-37.8237222763,-0.320259797839,-1.16605723535,0.88833417848
-34.4197224884,-0.724970754112,16.9987947585,20.729968538,-14.3301859859,-2.26534495033,14.4281092653,-0.518893665702,-37.8237222763,-0.320259797839,-1.16605723535,0.88833417848
-34.4197224884,-0.724970754112,16.9987947585,20.729968538,-14.3301859859,-2.26534495033,14.4281092653,-0.518893665702,-37.8237222763,-0.320259797839,-1.16605723535,0.88833417848
-34.4197224884,-0.724970754112,16.9987947585,20.729968538,-14.3301859859,-2.26534495033,14.4281092653,-0.518893665702,-37.8237222763,-0.320259797839,-1.16605723535,0.88833417848
-34.4197224884,-0.724970754112,16.9987947585,20.729968538,-14.3301859859,-2.26534495033,14.4281092653,-0.518893665702,-37.8237222763,-0.320259797839,-1.16605723535,0.88833417848
-34.4197224884,-0.724970754112,16.9987947585,20.729968538,-14.3301859859,-2.26534495033,14.4281092653,-0.518893665702,-37.8237222763,-0.320259797839,-1.16605723535,0.88833417848
-34.4197224884,-0.724970754112,16.9987947585,20.729968538,-14.3301859859,-2.26534495033,14.4281092653,-0.518893665702,-37.8237222763,-0.320259797839,-1.16605723535,0.88833417848
-34.4197224884,-0.724970754112,16.9987947585,20.729968538,-14.3301859859,-2.26534495033,14.4281092653,-0.518893665702,-37.8237222763,-0.320259797839,-1.16605723535,0.88833417848
-34.4197224884,-0.724970754112,16.9987947585,20.729968538,-14.3301859859,-2.26534495033,14.4281092653,-0.518893665702,-37.8237222763,-0.320259797839,-1.16605723535,0.88833417848
-34.4197224884,-0.724970754112,16.9987947585,20.729968538,-14.3301859859,-2.26534495033,14.4281092653,-0.518893665702,-37.8237222763,-0.320259797839,-1.16605723535,0.88833417848
-34.4197224884,-0.724970754112,16.9987947585,20.729968538,-14.3301859859,-2.26534495033,14.4281092653,-0.518893665702,-37.8237222763,-0.320259797839,-1.16605723535,0.88833417848
-34.4197224884,-0.724970754112,16.9987947585,20.729968538,-14.3301859859,-2.26534495033,14.4281092653,-0.518893665702,-37.8237222763,-0.320259797839,-1.16605723535,0.88833417848
-34.4197224884,-0.724970754112,16.9987947585,20.729968538,-14.3301859859,-2.26534495033,14.4281092653,-0.518893665702,-37.8237222763,-0.320259797839,-1.16605723535,0.88833417848
-34.4197224884,-0.724970754112,16.9987947585,20.729968538,-14.3301859859,-2.26534495033,14.4281092653,-0.518893665702,-37.8237222763,-0.320259797839,-1.16605723535,0.88833417848
-34.4197224884,-0.724970754112,16.9987947585,20.729968538,-14.3301859859,-2.26534495033,14.4281092653,-0.518893665702,-37.8237222763,-0.320259797839,-1.16605723535,0.88833417848
-34.4197224884,-0.724970754112,16.9987947585,20.729968538,-14.3301859859,-2.26534495033,14.4281092653,-0.518893665702,-37.8237222763,-0.320259797839,-1.16605723535,0.88833417848
-34.4197224884,-0.724970754112,16.9987947585,20.729968538,-14.3301859859,-2.26534495033,14.4281092653,-0.518893665702,-37.8237222763,-0.320259797839,-1.16605723535,0.88833417848
-34.4197224884,-0.724970754112,16.9987947585,20.729968538,-14.3301859859,-2.26534495033,14.4281092653,-0.518893665702,-37.8237222763,-0.320259797839,-1.16605723535,0.88833417848
-34.4197224884,-0.724970754112,16.9987947585,20.729968538,-14.3301859859,-2.26534495033,14.4281092653,-0.518893665702,-37.8237222763,-0.320259797839,-1.16605723535,0.88833417848
-34.4197224884,-0.724970754112,16.9987947585,20.729968538,-14.3301859859,-2.26534495033,14.4281092653,-0.518893665702,-37.8237222763,-0.320259797839,-1.16605723535,0.88833417848
-34.4197224884,-0.724970754112,16.9987947585,20.729968538,-14.3301859859,-2.26534495033,14.4281092653,-0.518893665702,-37.8237222763,-0.320259797839,-1.16605723535,0.88833417848
-34.4197224884,-0.724970754112,16.9987947585,20.729968538,-14.3301859859,-2.26534495033,14.4281092653,-0.518893665702,-37.8237222763,-0.320259797839,-1.16605723535,0.88833417848
0.688380253919,0.519323623203,-0.457121450892,0.828789206015,-0.103442645639,0.128188752335,-1.05805783107,-0.546717152741,0.33101871527,0.842663980116,-0.735277357925,-1.08890896282
0.402960046962,0.61344453733,-2.06743345687,0.709106268123,-0.713508703668,0.451618767246,-0.961437005026,-1.98334914025,1.73306093002,1.85488799648,-0.797724134762,-1.38398539116
0.248405815969,0.608568495563,-2.90031422253,0.608955145907,-2.51753933167,0.523300317543,-0.722381985002,-3.39348789822,3.35767598487,4.23871717514,-1.06735931526,-1.36352573474
0.598822081651,0.44497799621,-2.43889293391,0.447868271765,-4.79362196668,0.659218571943,-0.480492525022,-5.20079387685,4.37374688777,7.01097424377,-1.24215598427,-1.43259845832
1.65766362654,0.175236410651,-1.55536319855,-0.579614183758,-6.55573880931,1.50238544605,0.134200969964,-6.8667508254,4.41199704379,9.13887042058,-1.5853642033,-1.74224682936
3.92354839488,0.205124559295,-0.692483982353,-2.20916520394,-7.79446287865,3.82402664254,1.44460825317,-7.8092918948,3.68188359441,10.5730152347,-2.08145504742,-2.05934589474
6.30022467348,0.101077496991,0.106231538766,-3.05117954837,-8.50723243643,6.30906629482,1.87508706846,-8.13328115581,2.49154194188,11.6414726548,-2.92242878489,-2.19700288403
7.73639925058,-0.229127233575,0.529458849322,-3.43485650542,-8.87608291959,7.85844717159,1.9481788255,-8.21466104153,1.93263521804,12.5480585517,-3.39439097175,-2.21315160548
8.55398761489,-0.462219233969,0.634564962206,-3.70244506456,-9.1342499244,8.58504762401,1.8278705982,-8.4697319257,1.88705192649,13.3250094227,-3.43825908112,-2.131945096
9.1300451036,-0.567507699423,0.629200528608,-3.97858591708,-9.34427281709,8.9485291769,1.66007320798,-8.7611228197,1.92349453968,13.9959067772,-3.297828856,-2.03100798505
9.62885147758,-0.599376146741,0.591972893016,-4.26185619687,-9.53874066941,9.1728951376,1.52686730239,-9.02902174776,1.94862164104,14.5907864901,-3.12781023432,-1.95130309134
10.1026852879,-0.602476536125,0.555572508266,-4.53841673577,-9.73033576164,9.34895397034,1.43779565234,-9.26229101336,1.95545365957,15.1322071891,-2.97531023703,-1.89425280767
10.5621165661,-0.597612832514,0.530052568794,-4.80249366457,-9.9210543957,9.50652536142,1.38117962815,-9.46412261784,1.95001197086,15.6338404638,-2.84344307278,-1.85244563373
11.0075201824,-0.590636250887,0.515273841092,-5.05369781604,-10.109733961,9.65282362601,1.34579114033,-9.64104614236,1.93744365067,16.1035510635,-2.72758187219,-1.82023602998
11.4385038212,-0.582295207455,0.508545609053,-5.29293850975,-10.2950886161,9.78972694678,1.32409835262,-9.79851370643,1.9206517733,16.5463725321,-2.62475410298,-1.79440652238
11.8551900111,-0.572541893794,0.50733037292,-5.52116337509,-10.4762838203,9.91830317629,1.31121587996,-9.94051243444,1.9013425379,16.9659768907,-2.53315844824,-1.7730907568
12.2579998706,-0.561480562403,0.509711820889,-5.73922916464,-10.6528422165,10.0394561405,1.30389643192,-10.0700109677,1.88071509367,17.3652528844,-2.4512642451,-1.75510278411
12.6474687407,-0.549358535078,0.514311861244,-5.94792425152,-10.8245212835,10.1539692537,1.2999614355,-10.1892801904,1.85968074592,17.7465493516,-2.37764385842,-1.73964056076
13.0241745467,-0.536456594657,0.520157976366,-6.14797824357,-10.9912433399,10.262518973,1.2979644483,-10.3000850437,1.83891491505,18.111807224,-2.31102157702,-1.72614409739
13.3887109211,-0.52302789613,0.526579935378,-6.34006438314,-11.1530519137,10.3656926194,1.29696696234,-10.4038123322,1.81888466135,18.4626487245,-2.25030906421,-1.71421410639
13.741673635,-0.509276461474,0.533132359083,-6.52480212084,-11.3100779882,10.4640043371,1.29638068737,-10.5015612462,1.79988246737,18.800443767,-2.19460376794,-1.70356027889
14.0836512323,-0.495355372267,0.539534952223,-6.70276046334,-11.4625118511,10.5579077021,1.29585569165,-10.5942091321,1.78206402434,19.1263608095,-2.14316790239,-1.69396721337
14.4152178138,-0.481373053748,0.545625931501,-6.87446137894,-11.6105801672,10.6478053624,1.29520161783,-10.6824604239,1.76548411881,19.441406103,-2.09540193775,-1.68527169132
14.7369275962,-0.46740201721,0.551326158928,-7.04038289209,-11.7545282366,10.7340564022,1.29433273494,-10.7668838833,1.7501272031,19.7464541067,-2.05081928767,-1.67734739228
15.049311093,-0.453487534414,0.556612121494,-7.20096185766,-11.8946069841,10.8169820632,1.29322997499,-10.8479414182,1.73593163321,20.0422711707,-2.00902452844,-1.67009451204
15.3528727042,-0.439655235055,0.561496086096,-7.35659653924,-12.0310639114,10.896870313,1.29191492745,-10.92601059,1.72280793537,20.3295340844,-1.96969546272,-1.66343262511
15.6480894444,-0.425917335917,0.566011897048,-7.50764911144,-12.1641371493,10.9739796052,1.29043216862,-11.0014022546,1.71065204755,20.6088447068,-1.93256858661,-1.65729570818
15.9354105401,-0.412277529883,0.570205069996,-7.65444815728,-12.2940518106,11.0485420607,1.28883736165,-11.07437439,1.69935460819,20.8807415949,-1.89742734685,-1.65162861784
16.2152576554,-0.398734687733,0.574126061356,-7.79729118204,-12.4210179799,11.1207662158,1.28718934324,-11.1451429212,1.68880726938,21.1457093213,-1.86409262876,-1.64638456074
16.4880255578,-0.38528555912,0.577825824885,-7.93644713179,-12.5452298314,11.1908394338,1.28554497357,-11.2138901849,1.67890683399,21.4041860015,-1.83241503179,-1.64152325298
16.7540830787,-0.371926653719,0.581352980798,-8.07215888619,-12.6668655048,11.2589300417,1.28395591768,-11.2807715447,1.66955783014,21.6565694256,-1.8022686005,-1.63700956698
17.0137742682,-0.358655464829,0.584752103641,-8.20464568808,-12.7860874824,11.3251892381,1.28246679114,-11.3459205668,1.66067397392,21.9032220926,-1.77354576424,-1.63281252901
17.2674196712,-0.345471176826,0.588062778225,-8.33410547289,-12.9030432896,11.3897528059,1.2811142777,-11.4094530787,1.65217884345,22.1444753802,-1.74615329588,-1.62890457242
17.5153176778,-0.332374978659,0.591319180112,-8.46071706585,-13.0178664017,11.4527426575,1.27992693841,-11.471470362,1.64400599407,22.3806330265,-1.72000913363,-1.62526097843
17.7577459098,-0.319370088458,0.59455001343,-8.58464222333,-13.1306772731,11.5142682342,1.27892550367,-11.5320616778,1.6360986797,22.6119740653,-1.6950399293,-1.62185945455
17.9949626182,-0.30646157851,0.597778690859,-8.70602750327,-13.2415844309,11.574427778,1.27812348817,-11.5913062737,1.62840930174,22.8387553256,-1.6711791975,-1.61867981318
18.2272080683,-0.29365607475,0.601023674929,-8.8250059592,-13.3506855862,11.633309489,1.27752800282,-11.6492749897,1.62089867779,23.0612135818,-1.64836594958,-1.61570372241
18.4547058947,-0.280961390278,0.604298921975,-8.94169865943,-13.4580687311,11.6909925798,1.27714066579,-11.7060315509,1.61353520244,23.2795674238,-1.62654370652,-1.61291450779
18.6776644081,-0.268386138473,0.60761438478,-9.05621603947,-13.5638131944,11.7475482342,1.27695853804,-11.7616336159,1.60629395718,23.4940188998,-1.60565979789,-1.61029699
18.8962778433,-0.255939358605,0.610976540176,-9.16865909924,-13.6679906348,11.8030404777,1.27697502902,-11.8161336315,1.59915581425,23.7047549737,-1.58566486865,-1.60783734734
19.1107275355,-0.243630175765,0.614388915689,-9.27912045902,-13.7706659608,11.8575269649,1.27718073614,-11.8695795361,1.59210656847,23.9119488299,-1.56651253064,-1.60552299567
19.3211830193,-0.231467507897,0.617852595712,-9.38768528866,-13.8718981669,11.9110596891,1.27756419582,-11.9220153408,1.58513612189,24.1157610471,-1.54815911076,-1.60334248073
19.5278030466,-0.219459825597,0.621366693292,-9.49443212431,-13.9717410847,11.9636856196,1.2781125356,-11.9734816137,1.57823773752,24.316340663,-1.5305634604,-1.60128538006
19.7307365206,-0.207614965253,0.624928778392,-9.59943358608,-14.0702440477,12.0154472712,1.27881202535,-12.0240158856,1.57140737154,24.5138261418,-1.51368680187,-1.59934221236
19.9301233483,-0.195939992556,0.628535257563,-9.7027570085,-14.1674524753,12.0663832113,1.27964853142,-12.0736529934,1.56464308776,24.7083462562,-1.49749259579,-1.59750435352
20.1260952139,-0.184441111335,0.63218170329,-9.80446499487,-14.2634083786,12.1165285109,1.2806078815,-12.1224253713,1.55794455353,24.9000208937,-1.48194641984,-1.59576395873
20.3187762772,-0.173123611544,0.6358631338,-9.90461590475,-14.3581507979,12.1659151434,1.28167614992,-12.1703633001,1.55131261334,25.0889617929,-1.46701585338,-1.59411389019
20.5082838017,-0.161991849894,0.639574245955,-10.0032642831,-14.451716177,12.214572337,1.2828398739,-12.2174951224,1.54474893419,25.2752732171,-1.45267036546,-1.59254765055
20.6947287196,-0.15104925681,0.643309605082,-10.1004612383,-14.5441386813,12.262526886,1.28408621144,-12.2638474296,1.5382557156,25.4590525704,-1.43888120544,-1.59105932161
20.878216137,-0.140298363857,0.647063796248,-10.1962547751,-14.6354504697,12.3098034252,1.28540305046,-12.3094452241,1.53183545667,25.6403909605,-1.4256212962,-1.58964350829
21.0588457868,-0.12974084644,0.650831541777,-10.2906900891,-14.725681923,12.3564246709,1.28677907849,-12.3543120634,1.52549077245,25.8193737124,-1.41286513069,-1.58829528752
21.2367124345,-0.119377577322,0.654607789789,-10.3838098259,-14.8148618388,12.4024116342,1.28820382064,-12.3984701864,1.51922425245,25.9960808383,-1.40058867234,-1.58701016194
21.4119062417,-0.109208687204,0.658387778296,-10.4756543107,-14.903017595,12.4477838085,1.2896676527,-12.4419406265,1.51303835432,26.1705874656,-1.38876925997,-1.58578401794
21.5845130916,-0.0992336293236,0.66216707903,-10.5662617522,-14.9901752887,12.4925593348,1.29116179522,-12.4847433121,1.5069353268,26.3429642277,-1.37738551775,-1.5846130879
21.7546148824,-0.0894512456292,0.665941624744,-10.6556684216,-15.0763598544,12.536755148,1.29267829328,-12.5268971573,1.5009171564,26.51327762,-1.36641727036,-1.58349391617
21.9222897907,-0.0798598326509,0.669707723279,-10.7439088135,-15.1615951638,12.5803871053,1.29420998589,-12.5684201438,1.49498553321,26.6815903246,-1.35584546363,-1.58242332854
22.0876125096,-0.0704572056294,0.673462061204,-10.8310157874,-15.2459041114,12.6234701009,1.29575046831,-12.6093293945,1.48914183191,26.8479615064,-1.34565209051,-1.58139840497
22.2506544641,-0.0612407598775,0.677201699447,-10.9170206946,-15.3293086883,12.6660181668,1.29729404962,-12.6496412409,1.48338710445,27.0124470825,-1.33582012232,-1.58041645502
22.4114840068,-0.0522075286544,0.680924062896,-11.0019534911,-15.4118300454,12.7080445623,1.29883570769,-12.6893712842,1.47772208183,27.1750999681,-1.32633344507,-1.57947499599
22.5701665959,-0.0433542370996,0.684626925642,-11.0858428385,-15.4934885488,12.7495618535,1.30037104312,-12.728534451,1.47214718249,27.3359703008,-1.31717680052,-1.57857173336
22.7267649577,-0.0346773519735,0.688308393185,-11.1687161948,-15.5743038281,12.790581984,1.30189623306,-12.7671450444,1.4666625256,27.4951056446,-1.30833573174,-1.57770454323
22.8813392359,-0.0261731271109,0.691966882686,-11.250599895,-15.6542948191,12.8311163376,1.30340798612,-12.8052167904,1.46126794763,27.6525511767,-1.29979653282,-1.5768714567
23.0339471286,-0.0178376446202,0.695601102122,-11.3315192249,-15.7334798021,12.8711757942,1.30490349876,-12.8427628808,1.45596302106,27.8083498579,-1.29154620245,-1.57607064583
23.1846440148,-0.00966685194085,0.699210028994,-11.4114984867,-15.8118764357,12.9107707793,1.30638041356,-12.8797960121,1.45074707435,27.962542588,-1.28357240095,-1.5753004111
23.3334830714,-0.00165659494464,0.702792889106,-11.4905610588,-15.8895017879,12.9499113086,1.30783677995,-12.9163284214,1.44561921234,28.115168348,-1.27586341057,-1.57455917017
23.4805153819,0.00619735269746,0.706349135781,-11.5687294496,-15.9663723645,12.9886070271,1.30927101711,-12.9523719191,1.44057833665,28.2662643304,-1.26840809875,-1.57384544777
23.6257900372,0.0138992636314,0.709878429797,-11.6460253469,-16.0425041344,13.0268672444,1.31068187957,-12.9879379191,1.43562316559,28.4158660587,-1.26119588401,-1.57315786666
23.7693542304,0.0214534341541,0.713380620232,-11.722469663,-16.1179125542,13.064700966,1.31206842512,-13.0230374665,1.43075225337,28.5640074964,-1.25421670429,-1.57249513948
23.9112533447,0.0288641644977,0.716855726333,-11.7980825749,-16.1926125899,13.102116921,1.31342998525,-13.0576812626,1.42596400834,28.7107211472,-1.24746098756,-1.57185606137
24.0515310366,0.0361357417973,0.720303920496,-11.8728835625,-16.2666187378,13.1391235873,1.31476613794,-13.091879688,1.42125671019,28.8560381479,-1.24091962435,-1.5712395034
24.1902293131,0.0432724254852,0.723725512383,-11.9468914427,-16.3399450443,13.1757292139,1.31607668261,-13.1256428244,1.416628526,28.9999883527,-1.23458394226,-1.57064440652
24.3273886057,0.0502784348672,0.727120934171,-12.0201244013,-16.4126051239,13.21194184,1.31736161735,-13.1589804734,1.41207752515,29.1426004114,-1.22844568202,-1.57006977623
24.4630478389,0.0571579386493,0.730490726927,-12.0926000223,-16.4846121769,13.2477693135,1.31862111796,-13.1919021751,1.40760169305,29.2839018416,-1.22249697521,-1.56951467758
24.5972444958,0.0639150462009,0.733835528063,-12.1643353152,-16.5559790056,13.2832193066,1.31985551897,-13.224417224,1.40319894372,29.4239190951,-1.21673032332,-1.5689782308
24.73001468,0.070553800355,0.737156059824,-12.23534674,-16.62671803,13.3182993296,1.32106529634,-13.2565346844,1.39886713133,29.5626776195,-1.21113857813,-1.56845960717
24.8613931737,0.0770781715657,0.74045311876,-12.3056502308,-16.6968413031,13.3530167443,1.32225105176,-13.2882634047,1.39460406059,29.700201915,-1.2057149233,-1.5679580254
24.9914134937,0.0834920532556,0.743727566114,-12.3752612179,-16.7663605244,13.3873787749,1.32341349837,-13.3196120297,1.39040749627,29.8365155874,-1.20045285707,-1.5674727482
25.1201079439,0.0897992582049,0.746980319073,-12.4441946481,-16.8352870541,13.4213925185,1.32455344793,-13.3505890132,1.3862751717,29.9716413967,-1.19534617593,-1.56700307925
25.2475076654,0.0960035158469,0.750212342813,-12.512465004,-16.9036319257,13.4550649545,1.32567179908,-13.3812026288,1.38220479645,30.1056013028,-1.19038895933,-1.56654836036
25.373642684,0.102108470348,0.753424643282,-12.5800863221,-16.9714058585,13.4884029531,1.32676952688,-13.4114609805,1.37819406321,30.2384165077,-1.18557555519,-1.56610796891
25.4985419558,0.108117679363,0.756618260661,-12.6470722098,-17.0386192697,13.5214132828,1.32784767322,-13.4413720119,1.37424065387,30.3701074953,-1.18090056625,-1.56568131544
25.6222334103,0.114034613373,0.759794263445,-12.7134358617,-17.1052822852,13.5541026175,1.32890733834,-13.4709435159,1.37034224502,30.5006940675,-1.17635883722,-1.56526784151
25.7447439914,0.119862655508,0.762953743093,-12.7791900744,-17.171404751,13.586477543,1.32994967304,-13.5001831424,1.36649651269,30.630195379,-1.17194544261,-1.56486701768
25.8660996969,0.125605101794,0.766097809188,-12.8443472612,-17.2369962435,13.6185445623,1.33097587181,-13.5290984065,1.36270113664,30.7586299693,-1.16765567525,-1.56447834168
25.9863256159,0.131265161734,0.769227585072,-12.9089194658,-17.3020660795,13.6503101017,1.33198716657,-13.5576966957,1.35895380407,30.8860157927,-1.1634850354,-1.56410133665
26.1054459641,0.136845959178,0.772344203899,-12.9729183749,-17.3666233255,13.6817805145,1.33298482112,-13.5859852767,1.3552522128,31.0123702464,-1.15942922048,-1.56373554962
26.2234841188,0.142350533416,0.775448805068,-13.0363553312,-17.4306768075,13.7129620859,1.33397012611,-13.6139713014,1.35159407413,31.1377101968,-1.15548411537,-1.56338055005
26.340462651,0.147781840446,0.778542530992,-13.0992413446,-17.4942351195,13.7438610363,1.33494439456,-13.6416618123,1.34797711523,31.2620520046,-1.15164578316,-1.5630359284
26.4564033568,0.153142754365,0.781626524177,-13.1615871036,-17.5573066319,13.7744835241,1.33590895789,-13.6690637478,1.34439908124,31.3854115479,-1.14791045647,-1.562701295
26.5713272874,0.158436068848,0.784701924549,-13.2234029862,-17.6198994998,13.8048356487,1.33686516227,-13.6961839461,1.34085773701,31.5078042439,-1.14427452915,-1.56237627876
26.685254778,0.163664498662,0.787769867028,-13.2846990699,-17.6820216708,13.8349234514,1.33781436542,-13.7230291489,1.33735086865,31.62924507,-1.14073454848,-1.56206052617
26.7982054754,0.168830681188,0.790831479279,-13.3454851417,-17.7436808924,13.8647529165,1.33875793362,-13.7496060034,1.33387628484,31.7497485828,-1.13728720773,-1.56175370027
26.9101983643,0.173937177904,0.793887879636,-13.4057707075,-17.8048847192,13.8943299714,1.33969723908,-13.7759210646,1.33043181797,31.8693289367,-1.13392933911,-1.5614554797
27.0212517935,0.178986475789,0.796940175145,-13.4655650006,-17.8656405197,13.9236604852,1.34063365743,-13.8019807949,1.32701532519,31.987999901,-1.13065790712,-1.56116555781
27.1313835004,0.183980988621,0.799989459708,-13.5248769911,-17.9259554828,13.9527502661,1.34156856536,-13.8277915642,1.32362468936,32.1057748764,-1.12747000216,-1.56088364189
27.2406106351,0.18892305812,0.803036812281,-13.5837153935,-17.985836624,13.9816050579,1.34250333838,-13.8533596464,1.32025782004,32.22266691,-1.12436283456,-1.56060945236
27.3489497843,0.193814954901,0.806083295099,-13.6420886748,-18.045290791,14.0102305348,1.34343934852,-13.8786912165,1.31691265452,32.3386887104,-1.12133372883,-1.56034272206
27.4564169935,0.198658879195,0.809129951896,-13.7000050622,-18.1043246698,14.0386322934,1.34437796208,-13.9037923438,1.31358715894,32.4538526605,-1.11838011819,-1.56008319559
27.56302779,0.203456961303,0.812177806069,-13.75747255,-18.162944789,14.0668158445,1.34532053712,-13.9286689846,1.31027932968,32.5681708315,-1.11549953949,-1.55983062867
27.6687972051,0.208211261723,0.815227858768,-13.8144989071,-18.221157525,14.0947866006,1.34626842088,-13.9533269711,1.30698719494,32.6816549938,-1.11268962818,-1.55958478755
27.7737397959,0.212923770942,0.818281086865,-13.8710916832,-18.2789691063,14.1225498624,1.34722294679,-13.9777719987,1.30370881673,32.7943166291,-1.10994811369,-1.55934544842
27.8778696673,0.21759640881,0.821338440766,-13.9272582154,-18.3363856171,14.1501108015,1.34818543121,-14.00200961,1.30044229331,32.906166941,-1.10727281497,-1.55911239694
27.9812004938,0.222231023512,0.824400842035,-13.9830056343,-18.3934130009,14.1774744401,1.34915716962,-14.0260451751,1.29718576208,33.0172168645,-1.10466163619,-1.55888542767
28.083745542,0.226829390067,0.827469180808,-14.0383408699,-18.4500570631,14.204645628,1.35013943234,-14.0498838696,1.29393740321,33.1274770756,-1.10211256269,-1.55866434365
28.1855176921,0.231393208372,0.830544312958,-14.0932706574,-18.5063234736,14.2316290154,1.35113345961,-14.0735306478,1.29069544383,33.2369579998,-1.09962365714,-1.5584489559
28.2865294613,0.235924100787,0.83362705703,-14.1478015428,-18.5622177686,14.2584290223,1.35214045598,-14.0969902136,1.28745816307,33.3456698198,-1.09719305582,-1.55823908302
28.386793026,0.240423609292,0.836718190925,-14.201939888,-18.6177453518,14.2850498049,1.35316158398,-14.1202669865,1.28422389788,33.4536224831,-1.09481896506,-1.55803455079
28.4863202453,0.244893192277,0.83981844838,-14.255691876,-18.6729114948,14.3114952179,1.35419795707,-14.1433650655,1.2809910497,33.5608257083,-1.09249965793,-1.55783519173
28.5851226843,0.24933422109,0.842928515286,-14.3090635163,-18.7277213378,14.337768775,1.35525063182,-14.1662881903,1.27775809189,33.6672889915,-1.09023347099,-1.55764084477
28.6832116372,0.253747976472,0.846049025946,-14.36206065,-18.7821798891,14.3638736068,1.35632059944,-14.1890396996,1.27452357803,33.7730216118,-1.08801880124,-1.55745135487
28.7805981511,0.25813564511,0.849180559378,-14.4146889546,-18.8362920242,14.3898124185,1.35740877678,-14.2116224906,1.27128615079,33.8780326364,-1.08585410327,-1.5572665727
28.8772930479,0.262498316553,0.852323635831,-14.4669539492,-18.8900624854,14.4155874485,1.35851599691,-14.2340389781,1.26804455133,33.982330926,-1.0837378865,-1.55708635427
28.9733069466,0.266836980807,0.855478713704,-14.5188609999,-18.9434958805,14.4412004296,1.35964299946,-14.2562910577,1.26479762899,34.085925139,-1.08166871262,-1.55691056068
29.0686502832,0.27115252695,0.858646187083,-14.5704153251,-18.996596682,14.4666525554,1.36079042118,-14.2783800745,1.26154435099,34.1888237366,-1.07964519327,-1.55673905778
29.1633333287,0.275445743092,0.861826384112,-14.6216220008,-19.0493692262,14.4919444556,1.36195878671,-14.3003067993,1.25828381185,34.291034988,-1.0776659878,-1.55657171592
29.2573662046,0.279717318001,0.865019566402,-14.6724859662,-19.1018177136,14.5170761804,1.36314850009,-14.322071417,1.2550152423,34.3925669754,-1.07572980129,-1.55640840969
29.350758895,0.283967844594,0.868225929623,-14.7230120297,-19.1539462085,14.5420471995,1.36435983709,-14.343673527,1.25173801733,34.4934276005,-1.07383538279,-1.55624901768
29.4435212547,0.288197825373,0.871445605331,-14.7732048741,-19.205758641,14.5668564155,1.36559293861,-14.3651121604,1.24845166337,34.593624591,-1.07198152371,-1.55609342224
29.5356630136,0.292407679678,0.874678663947,-14.8230690625,-19.2572588083,14.5915021941,1.36684780502,-14.3863858122,1.24515586444,34.6931655086,-1.07016705639,-1.55594150931
29.6271937763,0.296597752435,0.877925118668,-14.8726090432,-19.308450378,14.6159824116,1.36812429151,-14.4074924916,1.24185046759,34.7920577577,-1.0683908529,-1.55579316818
29.7181230191,0.300768323845,0.881184929904,-14.9218291548,-19.3593368905,14.6402945175,1.36942210398,-14.4284297871,1.23853548771,34.8903085953,-1.06665182392,-1.55564829133
29.8084600815,0.304919619322,0.884458009736,-14.9707336301,-19.4099217635,14.6644356117,1.37074079508,-14.4491949454,1.23521111235,34.9879251422,-1.0649489177,-1.55550677425
29.8982141559,0.309051818935,0.887744225783,-15.0193265993,-19.4602082952,14.6884025332,1.37207976021,-14.4697849615,1.2318777068,35.0849143943,-1.06328111911,-1.55536851521
29.9873942737,0.313165065672,0.891043403922,-15.0676120921,-19.5101996689,14.7121919558,1.37343823308,-14.4901966772,1.22853581978,35.1812832359,-1.06164744869,-1.55523341512
30.0760092889,0.317259472006,0.894355329357,-15.1155940394,-19.5598989573,14.7358004916,1.37481528112,-14.5104268862,1.22518618937,35.2770384532,-1.06004696153,-1.55510137732
30.1640678579,0.321335124441,0.897679745734,-15.1632762729,-19.6093091281,14.7592247962,1.37620980135,-14.5304724451,1.22182974879,35.3721867491,-1.05847874616,-1.55497230735
30.2515784152,0.325392085746,0.901016352064,-15.2106625247,-19.6584330523,14.7824616772,1.3776205181,-14.5503303874,1.21846763039,35.4667347591,-1.05694192319,-1.55484611281
30.3385491443,0.3294303944,0.904364797238,-15.2577564247,-19.707273515,14.8055082007,1.37904598425,-14.5699980421,1.21510116615,35.5606890692,-1.05543564363,-1.55472270312
30.4249879407,0.333450060141,0.907724671663,-15.3045614978,-19.7558332322,14.8283617929,1.38048458798,-14.5894731485,1.21173188249,35.6540562351,-1.05395908696,-1.55460198937
30.5109023693,0.337451053565,0.911095495063,-15.3510811578,-19.8041148736,14.8510203232,1.38193456705,-14.6087539596,1.20836148722,35.7468428048,-1.0525114585,-1.55448388415
30.5962996132,0.341433286588,0.914476698838,-15.3973186987,-19.8521210944,14.8734821546,1.38339403146,-14.6278393171,1.20499184765,35.8390553434,-1.05109198625,-1.5543683014
30.6811864177,0.345396579801,0.917867600843,-15.443277282,-19.8998545758,14.8957461348,1.38486099462,-14.6467286727,1.20162495948,35.9307004616,-1.04969991668,-1.55425515629
30.7655690294,0.349340612868,0.921267370353,-15.4889599175,-19.9473180756,14.9178115017,1.38633341137,-14.6654220286,1.19826290845,36.0217848481,-1.04833450965,-1.55414436511
30.8494531356,0.353264855982,0.924674982042,-15.5343694351,-19.9945144865,14.9396776736,1.38780921971,-14.6839197688,1.19490782778,36.1123153065,-1.04699503244,-1.55403584512
30.9328438047,0.3571684849,0.928089160488,-15.5795084479,-20.041446901,14.9613439096,1.38928638173,-14.7022223595,1.19156185628,36.202298798,-1.04568075351,-1.55392951449
31.0157454358,0.361050290054,0.931508321955,-15.6243793018,-20.088118674,14.9828088469,1.39076291869,-14.7203299219,1.18822710238,36.2917424901,-1.04439093718,-1.55382529232
31.0981617225,0.364908601988,0.934930528124,-15.6689840148,-20.1345334743,15.0040699656,1.39223693531,-14.7382417079,1.18490561847,36.3806538109,-1.04312484142,-1.55372309886
31.1800956432,0.368741269078,0.938353476236,-15.7133242077,-20.1806953056,15.0251230841,1.39370663103,-14.7559555617,1.18159938697,36.4690405036,-1.04188172172,-1.55362285617
31.2615494925,0.372545732892,0.941774557536,-15.7574010385,-20.2266084788,15.0459620484,1.3951703002,-14.773467499,1.17831031419,36.5569106724,-1.04066084404,-1.55352448936
31.3425249688,0.376319239602,0.945191012967,-15.8012151582,-20.2722775207,15.0665787985,1.39662633051,-14.7907715711,1.17504021998,36.6442728014,-1.03946150844,-1.55342792854
31.4230233219,0.380059189857,0.948600192375,-15.8447667194,-20.3177070243,15.0869639433,1.39807321636,-14.8078601553,1.1717908041,36.7311357237,-1.03828308031,-1.55333311126
31.503045553,0.383763565847,0.951999880253,-15.8880554624,-20.3629014741,15.107107818,1.39950960779,-14.8247247057,1.16856356913,36.8175085191,-1.03712502073,-1.55323998481
31.5825926342,0.387431312667,0.955388605548,-15.9310808942,-20.4078651037,15.1270017822,1.4009344082,-14.841356823,1.16535969007,36.903400337,-1.0359869038,-1.55314850753
31.6616657132,0.391062539233,0.958765837623,-15.973842535,-20.4526018335,15.1466393698,1.402346914,-14.8577493392,1.16217984504,36.9888201627,-1.03486841154,-1.55305864857
31.7402662827,0.394658463512,0.962132003883,-16.0163401767,-20.4971152956,15.1660169132,1.40374696119,-14.8738970611,1.15902404979,37.0737765754,-1.03376930635,-1.552970386
31.8183963207,0.398221122885,0.965488328547,-16.0585740853,-20.541408906,15.1851334393,1.40513502391,-14.8897969085,1.15589155558,37.1582775451,-1.03268939042,-1.5528837041
31.8960584323,0.401752941034,0.968836545913,-16.1005451022,-20.5854859206,15.2039898455,1.40651221078,-14.9054473543,1.15278086463,37.2423302987,-1.03162846498,-1.55279859036
31.973256024,0.405256257814,0.972178560224,-16.14225464,-20.6293494283,15.2225875148,1.40788012818,-14.9208472427,1.14968989076,37.3259412563,-1.03058629907,-1.55271503296
32.0499935216,0.408732907377,0.975516114867,-16.1837046013,-20.6730022683,15.2409266058,1.40924061498,-14.9359942003,1.1466162563,37.4091160167,-1.02956261112,-1.55263301871
32.1262766056,0.412183906964,0.978850518212,-16.2248972657,-20.7164468965,15.2590043029,1.41059538902,-14.9508829545,1.14355768218,37.4918593722,-1.0285570626,-1.55255253147
32.2021123988,0.415609309075,0.982182465333,-16.2658351834,-20.7596852477,15.2768133764,1.41194567276,-14.9655039619,1.14051240109,37.5741753438,-1.02756926114,-1.55247355101
32.2775095135,0.419008260118,0.985511990283,-16.306521102,-20.8027186499,15.294341437,1.41329187708,-14.9798427752,1.13747951163,37.6560672455,-1.02659877153,-1.55239605223
32.3524778863,0.422379273613,0.988838567492,-16.3469579326,-20.8455478319,15.3115711958,1.41463341021,-14.9938804555,1.13445920193,37.7375377936,-1.02564513292,-1.55232000496
32.4270283925,0.42572065348,0.992161341256,-16.3871487396,-20.8881730277,15.3284817699,1.41596863472,-15.0075950107,1.13145281374,37.8185892668,-1.02470787982,-1.55224537421
32.5011723449,0.42903092153,0.995479407452,-16.4270967282,-20.9305941262,15.3450506656,1.41729492816,-15.0209633988,1.12846278808,37.8992236991,-1.02378656296,-1.55217212063
32.5749210416,0.432309083749,0.998792038007,-16.4668052024,-20.9728107857,15.3612557757,1.41860874706,-15.0339633786,1.1254925968,37.9794430682,-1.02288076497,-1.55210020091
32.6482854831,0.435554670111,1.00209876905,-16.5062774932,-21.0148224572,15.3770768521,1.41990560355,-15.0465747391,1.12254676357,38.0592494432,-1.02199010826,-1.55202956751
32.7212762119,0.438767661445,1.00539936945,-16.5455168844,-21.0566283421,15.3924965095,1.42117995923,-15.0587801379,1.1196309823,38.138645094,-1.02111425718,-1.55196016812
32.7939030833,0.44194851907,1.00869379793,-16.5845265727,-21.0982273869,15.4075014077,1.42242516868,-15.0705663408,1.11675220024,38.2176325967,-1.02025291963,-1.55189194509
32.8661748212,0.445098421137,1.01198225024,-16.6233096762,-21.1396184082,15.422084196,1.42363365748,-15.0819263924,1.11391845841,38.2962149668,-1.0194058518,-1.55182483599
32.938098436,0.448219555735,1.01526528205,-16.6618692651,-21.180800345,15.4362459659,1.42479744256,-15.092862232,1.11113835117,38.3743957943,-1.01857286238,-1.5517587757
33.0096787749,0.451315193502,1.01854388516,-16.7002083837,-21.2217725486,15.4499981362,1.42590895175,-15.1033864912,1.10842013511,38.4521793065,-1.01775380796,-1.55169370004
33.080918423,0.45438941264,1.0218194148,-16.7383300576,-21.2625350199,15.463362746,1.42696198596,-15.1135225166,1.10577066162,38.5295702958,-1.01694857487,-1.55162955035
33.1518179659,0.457446599466,1.02509338549,-16.7762373055,-21.30308857,15.4763709451,1.42795263743,-15.1233026156,1.10319435144,38.6065739175,-1.01615705113,-1.55156627801
33.2223764769,0.460490943667,1.02836724139,-16.8139331645,-21.3434349139,15.4890602129,1.4288799958,-15.1327651806,1.10069240351,38.6831954198,-1.01537909773,-1.55150384815
33.2925920805,0.4635260735,1.03164219956,-16.8514207203,-21.3835766996,15.5014710551,1.42974650742,-15.1419514105,1.0982623833,38.7594398808,-1.01461452769,-1.55144224176
33.3624624831,0.466554882234,1.03491920875,-16.8887031231,-21.4235174652,15.5136438313,1.43055791599,-15.1509022125,1.09589826675,38.8353120114,-1.01386309719,-1.55138145576
33.431985385,0.469579551824,1.03819902211,-16.9257835818,-21.4632615344,15.525616241,1.43132281158,-15.1596557773,1.09359091269,38.9108160578,-1.01312450917,-1.55132150125
33.501158745,0.47260171385,1.04148234225,-16.9626653323,-21.5028138594,15.5374217265,1.43205189761,-15.1682460396,1.09132884411,38.985955804,-1.01239842664,-1.55126240013
33.5699810245,0.47562254748,1.04476992915,-16.9993515735,-21.5421797799,15.5490884289,1.43275708318,-15.17670153,1.08909921288,39.0607346271,-1.01168448848,-1.55120418103
33.6384517027,0.478642516745,1.04806249456,-17.0358453584,-21.5813646029,15.5606376059,1.43345042444,-15.1850433966,1.08688891308,39.1351555005,-1.01098231735,-1.55114687467
33.7065722944,0.481660608838,1.05136025185,-17.0721494621,-21.6203729413,15.5720804098,1.43414288658,-15.1932815978,1.08468588151,39.2092208537,-1.01029151268,-1.5510905088
33.7743477048,0.484673389152,1.05466221712,-17.1082662978,-21.6592079256,15.5834132425,1.43484299828,-15.2014099212,1.08248054046,39.2829322908,-1.00961163297,-1.55103510291
33.8417871991,0.487674649944,1.05796567234,-17.1441979726,-21.697870638,15.5946140579,1.4355557004,-15.2094027447,1.08026709381,39.3562903398,-1.00894218578,-1.5509806637
33.9089040743,0.490656390098,1.06126632458,-17.1799465122,-21.736360172,15.6056431515,1.43628182998,-15.2172172091,1.07804420239,39.4292944945,-1.00828264773,-1.55092718253
33.975713823,0.493610940795,1.0645593248,-17.2155141313,-21.7746743629,15.6164499407,1.43701843617,-15.2248014826,1.07581475966,39.5019436846,-1.0076325192,-1.5508746357
34.0422319196,0.49653278697,1.06784054471,-17.2509033079,-21.812810611,15.6269823373,1.4377594873,-15.2321043089,1.07358514447,39.5742369587,-1.00699138521,-1.55082298628
34.1084727357,0.49941873053,1.07110718173,-17.2861165599,-21.8507660844,15.6371929981,1.43849614177,-15.2390798223,1.0713648409,39.646173982,-1.00635894327,-1.55077218483
34.1744494725,0.502267086253,1.07435754643,-17.3211561603,-21.8885373972,15.647041662,1.43921638197,-15.2456886729,1.06916678911,39.7177552546,-1.00573499705,-1.55072216762
34.2401733818,0.505077931478,1.07759090871,-17.356024106,-21.9261206655,15.6564991196,1.43990495522,-15.2519027569,1.06700755036,39.7889823847,-1.00511945612,-1.55067285525
34.3056517257,0.507854529934,1.08080793802,-17.3907222757,-21.9635123312,15.6655554996,1.44054469381,-15.2577149315,1.06490599202,39.859858565,-1.00451235758,-1.55062415683
34.3708862566,0.510603716765,1.08401103165,-17.4252524778,-22.0007100841,15.6742269474,1.44111915456,-15.2631452905,1.06288037214,39.9303888234,-1.00391386481,-1.55057598087
34.4358736117,0.513334274129,1.08720377184,-17.4596163926,-22.0377133059,15.6825544958,1.44161562864,-15.2682382807,1.06094492008,40.0005796292,-1.0033242055,-1.55052824935
34.5006069731,0.516054720431,1.09038983414,-17.4938156292,-22.0745231948,15.6905962853,1.44202762665,-15.2730540018,1.05910705472,40.0704380248,-1.00274357613,-1.55048091008
34.5650778766,0.518771846991,1.09357211148,-17.5278519057,-22.1111427876,15.6984177719,1.44235624337,-15.2776586845,1.05736589663,40.1399707324,-1.00217206481,-1.55043394372
34.6292777434,0.521490127037,1.09675237662,-17.5617271902,-22.1475768088,15.7060828538,1.44261005567,-15.2821163344,1.05571237935,40.209183528,-1.00160961701,-1.55038736431
34.69319897,0.524211808741,1.09993141645,-17.5954437286,-22.1838313179,15.7136473365,1.44280365728,-15.2864826084,1.05413083482,40.278080977,-1.00105604221,-1.55034121348
34.756835368,0.52693761002,1.10310950424,-17.6290039907,-22.2199132986,15.7211558051,1.44295542189,-15.2908021087,1.05260142761,40.3466665289,-1.00051105151,-1.5502955508
34.8201822564,0.529667443043,1.10628690716,-17.6624105321,-22.2558301739,15.728641127,1.44308510854,-15.295107892,1.05110274193,40.4149428128,-0.999974306098,-1.55025044334
34.8832372491,0.532400050846,1.10946382809,-17.6956657381,-22.2915889159,15.7361228092,1.44321146659,-15.2994187595,1.04961431038,40.482911782,-0.99944544403,-1.550205956
34.946002368,0.535131248507,1.11263939763,-17.7287715463,-22.3271946033,15.7436009488,1.44334973373,-15.3037316295,1.04811925028,40.5505744287,-0.998924065973,-1.55016214244
35.0084863401,0.537852374322,1.11581030929,-17.7617294065,-22.3626490483,15.7510484769,1.44350933088,-15.3080136509,1.04660680692,40.6179302573,-0.998409704095,-1.55011903682
35.0707046336,0.540551360271,1.1189705354,-17.7945406394,-22.3979506095,15.758410238,1.44369266894,-15.3122038772,1.04507386548,40.6849771651,-0.997901832299,-1.55007664821
35.1326762441,0.543216604581,1.12211292547,-17.8272069369,-22.4330955179,15.7656141853,1.4438956903,-15.3162279546,1.04352459607,40.7517121846,-0.997399946435,-1.55003496003
35.1944199106,0.545840124542,1.12523142103,-17.8597304253,-22.4680793326,15.7725871986,1.44410924796,-15.3200142335,1.04196894139,40.8181326277,-0.996903660146,-1.54999393361
35.2559528985,0.548417194562,1.12832188132,-17.8921131747,-22.5028970615,15.7792635465,1.44431962809,-15.3234990049,1.04042183248,40.8842367755,-0.996412737761,-1.54995351057
35.3172905558,0.550945513345,1.13138187025,-17.9243568625,-22.5375429377,15.7855891696,1.44450840464,-15.32662971,1.03890333564,40.9500242385,-0.995927084402,-1.54991361191
35.3784432243,0.553427449529,1.13441131368,-17.9564629665,-22.5720115961,15.7915335986,1.44465374751,-15.3293798052,1.03743746867,41.0154967326,-0.99544677244,-1.54987414017
35.4394129029,0.555871831604,1.1374134941,-17.9884328441,-22.6062996949,15.7971037436,1.44473389028,-15.3317630136,1.03604842471,41.0806588322,-0.994972072058,-1.54983499159
35.5001936905,0.558291396147,1.14039433686,-18.0202674794,-22.6404063567,15.8023442515,1.44473133465,-15.3338298571,1.03475570253,41.1455175931,-0.994503386159,-1.54979607556
35.5607748084,0.560698648311,1.14336029375,-18.0519675077,-22.6743329819,15.8073250239,1.44463643994,-15.3356529404,1.0335700604,41.2100811641,-0.99404110686,-1.54975733225
35.6211434366,0.563103457744,1.14631662036,-18.0835336105,-22.7080832221,15.8121262365,1.44444956058,-15.3373129039,1.03249125841,41.2743573529,-0.993585494277,-1.54971874301
35.6812868407,0.565512279455,1.14926674164,-18.1149668348,-22.7416628059,15.8168259006,1.44418099034,-15.3388872084,1.0315081744,41.3383526911,-0.993136625033,-1.549680331
35.7411940412,0.567928139275,1.15221235316,-18.1462686469,-22.7750789175,15.8214905679,1.44384866129,-15.3404413,1.03060130757,41.4020720375,-0.992694398208,-1.54964215254
35.80085664,0.570351429934,1.15515396332,-18.1774408473,-22.8083394428,15.8261704779,1.44347463649,-15.3420242976,1.02974661254,41.465518666,-0.99225858008,-1.54960428291
35.860268742,0.572781205468,1.15809165262,-18.2084854266,-22.8414523616,15.8308994907,1.44308171327,-15.3436694182,1.02891921505,41.5286947004,-0.991828868335,-1.549566802
35.9194273171,0.57521538507,1.1610253346,-18.23940429,-22.8744248807,15.8356953001,1.44269060086,-15.3453932447,1.02809641644,41.5916014609,-0.991404938226,-1.54952978331
35.978334249,0.577648965103,1.16395382219,-18.2701989262,-22.9072619219,15.8405544151,1.44231737762,-15.347188589,1.02726034669,41.654239274,-0.990986438507,-1.54949328581
36.0369988282,0.580072158275,1.16687328783,-18.3008703607,-22.9399646673,15.8454441745,1.4419713339,-15.349016065,1.02640033705,41.7166069085,-0.990572957905,-1.54945734731
36.0954375933,0.582471609662,1.16977693226,-18.3314195875,-22.9725305688,15.8503021855,1.44165413887,-15.3508066919,1.02551407024,41.7787014459,-0.990164029165,-1.54942197996
36.1536705576,0.584834730258,1.17265681602,-18.3618481024,-23.0049550389,15.8550490139,1.44136083822,-15.3524786656,1.02460673772,41.8405191093,-0.989759205097,-1.54938717042


These weights are not true
36.1536705576,1.17265681602,-18.3618481024,-23.0049550389,15.8550490139,1.44136083822,-15.3524786656,1.02460673772,41.8405191093,0.584834730258,-0.989759205097,-1.54938717042
36.1536705576,1.17265681602,-18.3618481024,-23.0049550389,15.8550490139,1.44136083822,-15.3524786656,1.02460673772,41.8405191093,0.584834730258,-0.989759205097,-1.54938717042
36.1536705576,1.17265681602,-18.3618481024,-23.0049550389,15.8550490139,1.44136083822,-15.3524786656,1.02460673772,41.8405191093,0.584834730258,-0.989759205097,-1.54938717042
36.1536705576,1.17265681602,-18.3618481024,-23.0049550389,15.8550490139,1.44136083822,-15.3524786656,1.02460673772,41.8405191093,0.584834730258,-0.989759205097,-1.54938717042
36.1536705576,1.17265681602,-18.3618481024,-23.0049550389,15.8550490139,1.44136083822,-15.3524786656,1.02460673772,41.8405191093,0.584834730258,-0.989759205097,-1.54938717042




New Weights