When LR = 0.1 and Momentum = 0.1

0.550779549492,0.945566019124,0.722696894585,0.884340432341,0.677942888013,-0.143531070939,0.0734016725061,0.017897278875,0.0338665159098,0.0195348486602,-0.409671312245,0.179427953999
0.485706109303,0.91812122157,0.730299978323,0.770346970833,0.516099522236,-0.0327359705842,0.0512589701344,0.141874483457,0.0235494170568,-0.0617329145759,-0.583759982413,0.207139535481
0.406205139393,0.906037792382,0.779295774145,0.620589990642,0.324133751747,0.0942581660683,0.0260229550978,0.289859324427,0.0206326884321,-0.15197845886,-0.766689716503,0.230932589153
0.311932642988,0.918391285747,0.886397263163,0.42801403721,0.10041550484,0.242339748718,-0.00150560181766,0.473673787256,0.0316777506655,-0.249537463591,-0.956809158073,0.246454716603
0.206387995452,0.965797342602,1.06411263633,0.190332347864,-0.151492655451,0.412593550544,-0.0264794075089,0.699815900372,0.064307865301,-0.34936780849,-1.14322386375,0.247626653358
0.0988763775197,1.05088842951,1.30144697889,-0.0813014899991,-0.41881539765,0.593263607917,-0.0384226216631,0.949610692367,0.118384175682,-0.440158287237,-1.29911311375,0.231446319037
0.00233199519057,1.15657622629,1.55112037117,-0.362425621304,-0.690469159824,0.756684259797,-0.0313567345769,1.17221970698,0.178589532849,-0.509460680279,-1.38871337717,0.206541395295
-0.0727443021341,1.25796741074,1.76284375464,-0.633453060572,-0.971946525856,0.878384353912,-0.0143943093467,1.32451807452,0.225862649867,-0.554998379511,-1.39358398102,0.189106732032
-0.124539435464,1.34519978471,1.92446476857,-0.891163687802,-1.27101529772,0.953826368573,0.00125189804728,1.40479227603,0.251154875735,-0.581103100581,-1.32912292744,0.18644459126
-0.157144678253,1.42282219222,2.05321552625,-1.13952621209,-1.58063909421,0.993047548778,0.0116311385806,1.43685976383,0.255206643083,-0.589108346265,-1.23106068968,0.194674699285
-0.174513711826,1.49821201897,2.16852079794,-1.37928618553,-1.88422439889,1.01006766122,0.0173510112613,1.44542478501,0.242966607647,-0.577394576428,-1.13138597084,0.207024398387
-0.178918715359,1.57516086735,2.2800062752,-1.60721983524,-2.16878216365,1.01650094499,0.0202314574352,1.44642877056,0.219998016778,-0.54578676014,-1.04623856387,0.219119726619
-0.172144964916,1.65352644693,2.38941349038,-1.81996192548,-2.4298161522,1.01918338492,0.0217620860843,1.44762247363,0.191026525712,-0.496953923777,-0.978724207538,0.229358336712
-0.156230852348,1.73135850963,2.4955342348,-2.01608605916,-2.66849918468,1.02101549947,0.0226910475902,1.45193853249,0.159523849458,-0.434960990435,-0.92626483364,0.237585345709
-0.133315007511,1.80666170554,2.59700369024,-2.19584582605,-2.88794113776,1.02284579582,0.0231422230389,1.46011189318,0.127788839958,-0.363772879406,-0.885247143822,0.24412303794
-0.105317479919,1.87808686676,2.69309153295,-2.36033237043,-3.09123060231,1.02479754259,0.0228816319611,1.47200269436,0.0972290166601,-0.286646038878,-0.852652913935,0.249359640527
-0.0737896663726,1.94497100936,2.7836605745,-2.5109113976,-3.28084188216,1.02686132418,0.0215568136914,1.48712270358,0.0686469290588,-0.206084848195,-0.826285632983,0.25362382706
-0.0399106621939,2.00716700964,2.86894539917,-2.64897121862,-3.45861614889,1.02907421242,0.0188560022174,1.50482615523,0.042449313189,-0.123981329349,-0.804602965656,0.257164406956
-0.00454664842224,2.06486247997,2.949365397,-2.77583340152,-3.62589442402,1.03153708636,0.0145905512217,1.52439069293,0.0187788315707,-0.0417646848042,-0.786517979361,0.260161171603



When LR = 0.6 and Momentum = 0.1
0.589359323368,0.129827221668,0.748981674074,-0.0169018901976,0.729541033993,0.44972190146,0.0631930491158,-0.183405482842,-0.0479353386125,0.808641821547,-0.625960338673,0.265359623073
0.554875821546,0.271079437615,0.741612048491,-0.0931073156432,0.671101324261,0.465534125266,0.0834686544619,-0.036901858896,-0.0803240313662,0.773903301419,-0.74736428838,0.279317450543
0.517784231511,0.417576286746,0.753849237158,-0.180327443233,0.593781622037,0.535636855325,0.0957681209226,0.102299265485,-0.110292643868,0.731867358064,-0.887695390739,0.295314779561
0.477337012441,0.581645400053,0.785812430894,-0.281426765316,0.496717995563,0.659566110125,0.1022531551,0.238897122795,-0.139076829235,0.682332946044,-1.04685965125,0.312611067919
0.43207716988,0.770268983327,0.836742859781,-0.399654997953,0.379093089484,0.835971411903,0.104760913686,0.37611989156,-0.167616673568,0.625148931142,-1.2218151914,0.330370983947
0.380807444327,0.981343360654,0.903626694444,-0.53638239992,0.241935322363,1.05578072484,0.105203897659,0.514974130253,-0.196387825909,0.560981830274,-1.40286358509,0.347391058092
0.324374804043,1.20020885876,0.979915913012,-0.688775444723,0.0901723710265,1.29610809258,0.105473550621,0.652679211743,-0.225028118911,0.492165643554,-1.57144527891,0.362098315283
0.266933078468,1.40279700096,1.05604229247,-0.850692494079,-0.0673964566186,1.52292577171,0.106840614873,0.782190651839,-0.252216124464,0.422806813172,-1.70423325013,0.373103071998
0.214541934667,1.56775735067,1.12302989369,-1.01706739193,-0.221920763242,1.70589227931,0.109579515461,0.8952130144,-0.276358830365,0.357477381213,-1.78372139156,0.37992223766
0.172083924736,1.68740566156,1.17659700472,-1.18609746755,-0.368833314971,1.83211375963,0.113163432807,0.986647717376,-0.296541642369,0.299332275071,-1.80642097986,0.383075560239
0.14184979956,1.76752845471,1.21780774236,-1.35719707235,-0.508362587135,1.90595359083,0.11658312589,1.05607667332,-0.312751258692,0.249307136794,-1.78176387835,0.383550782522
0.124225712646,1.82000579069,1.25073960922,-1.52865978227,-0.643049808591,1.94011099989,0.118688130688,1.10627693679,-0.325512930955,0.206782773556,-1.72525186061,0.382268257806
0.118672802328,1.85635394923,1.27998020341,-1.69741291025,-0.775309489244,1.94799970316,0.118559906197,1.14133218527,-0.335514147608,0.170698348139,-1.65213740832,0.379879886175
0.124140560588,1.88488287182,1.30922141958,-1.86012370779,-0.906323899498,1.94033677817,0.115758664546,1.16545053856,-0.343402200865,0.140237171202,-1.57409135484,0.376813849559
0.13917455513,1.91047183022,1.34080854765,-2.0142687832,-1.0360509469,1.92452361804,0.110353106148,1.18233100863,-0.349716861641,0.11496428442,-1.49847923233,0.373374490139
0.162052427897,1.93545261892,1.37583295905,-2.15853096843,-1.1637362658,1.9051784611,0.10278471326,1.19485457184,-0.354892257462,0.0946741207622,-1.42909063284,0.369797601129
0.190987884271,1.96063239289,1.41446325541,-2.2926378279,-1.28844535994,1.88493545449,0.0936786614714,1.20503060533,-0.359280439731,0.0792018382991,-1.36730724919,0.366261873059
0.61643001855,0.147580493358,0.235331552646,0.0624567595927,0.200713582789,-0.477037391834,-0.0983368742508,0.294725015893,0.143580572513,0.653316119778,-0.395250240454,0.221278649123
0.61841625019,0.136839644858,0.241978437219,0.0619670329928,0.199275993328,-0.480763948019,-0.0863223671835,0.301549035406,0.150114839836,0.651572318722,-0.398408877519,0.209453860173
0.62051426488,0.125833896459,0.248707716842,0.0614319042663,0.197806041081,-0.485941692876,-0.0736978227947,0.309327484269,0.156066767699,0.649806799522,-0.401360604092,0.197671995333
0.622736160098,0.114516583335,0.255547849404,0.0608493953323,0.196303480144,-0.492605798714,-0.0604399463505,0.318071225104,0.161428755185,0.64800879942,-0.40410543339,0.185928629551
0.625094020407,0.102840094023,0.262527127227,0.0602170698946,0.194767766916,-0.50079696061,-0.0465223148567,0.327794242202,0.166191410413,0.646167450122,-0.406643285552,0.174219311627
0.627599924029,0.0907558107375,0.269673689964,0.059532023682,0.193198045293,-0.510561269469,-0.0319153547148,0.338513343214,0.170343664193,0.644271763709,-0.408974101621,0.162539610412
0.630265939016,0.0782140873706,0.277015508555,0.0587908760365,0.1915931285,-0.521950034119,-0.0165863389148,0.350247816637,0.173872906322,0.642310625102,-0.411097971999,0.150885169638
0.633104107766,0.0651642746634,0.284580336219,0.0579897651479,0.189951477896,-0.53501953338,-0.000499413075328,0.363019032331,0.176765151435,0.640272792529,-0.413015281837,0.139251773087
0.636126418459,0.0515548041778,0.292395621662,0.0571243497713,0.188271179222,-0.549830675374,0.0163843381325,0.376849971148,0.179005242242,0.638146907714,-0.414726875743,0.127635421854
0.639344761742,0.0373333450946,0.300488379008,0.0561898209006,0.186549916994,-0.56644853715,0.0341067699995,0.391764668577,0.180577098901,0.635921517875,-0.416234243992,0.116032425501
0.642770870819,0.0224470504476,0.308885008249,0.0551809275945,0.184784948011,-0.584941753106,0.0527124849907,0.407787556414,0.18146402422,0.633585111948,-0.417539732009,0.10443950881
0.646416242921,0.006842912106,0.317611059579,0.0540920219384,0.182973075331,-0.605381715689,0.0722485474504,0.42494268598,0.181649075175,0.631126173837,-0.418646774115,0.0928539356182
0.65029204002,-0.00953175354894,0.326690934713,0.0529171289128,0.18111062453,-0.627841546927,0.0927640813328,0.443252816602,0.181115511713,0.628533255858,-0.419560151369,0.0812736507635
0.654408966552,-0.0267286650324,0.33614751845,0.0516500476345,0.179193424663,-0.652394794815,0.114309722597,0.462738354432,0.179847333899,0.625795075806,-0.420286271577,0.0696974404164
0.65877712195,-0.0447977545151,0.346001734539,0.0502844908945,0.177216796992,-0.67911380516,0.136936894208,0.483416129572,0.177829917752,0.622900641335,-0.42083346711,0.0581251099399
0.663405825846,-0.0637861400637,0.356272021448,0.0488142699291,0.175175555363,-0.70806771828,0.160696868672,0.505298004482,0.175050758356,0.619839405321,-0.421212302873,0.0465576767758
0.66830341407,-0.0837368675218,0.366973726339,0.0472335306441,0.173064022918,-0.7393200422,0.185639581447,0.528389314509,0.171500325633,0.616601455683,-0.421435882613,0.0349975736469
0.673477003884,-0.104687403407,0.378118419583,0.0455370457203,0.170876070681,-0.772925761603,0.211812159444,0.552687152569,0.167173033041,0.613177742492,-0.421520136614,0.0234488545178
0.67893222749,-0.126667869796,0.389713137872,0.0437205637587,0.168605184228,-0.808927956904,0.239257133448,0.578178525193,0.162068312017,0.609560344054,-0.421484067995,0.0119173922995
0.684672933603,-0.1496990274,0.401759571552,0.0417812114822,0.166244565087,-0.847353932802,0.268010313386,0.604838426527,0.156191774866,0.605742771816,-0.42134992862,0.000411053358716
0.690700858005,-0.17379003512,0.414253221275,0.0397179377061,0.163787273423,-0.888210893073,0.298098322582,0.632627900242,0.149556435886,0.601720311293,-0.421143289855,-0.0110601701697
0.697015265484,-0.198936043847,0.427182560266,0.0375319782828,0.161226417658,-0.931481249795,0.32953581337,0.661492185558,0.142183945037,0.597490392565,-0.420892969143,-0.022484092897
0.703612567703,-0.225115719132,0.440528250655,0.0352273099334,0.158555394736,-0.977117721236,0.362322422728,0.691359070718,0.134105771254,0.593052979367,-0.420630772293,-0.033846358504
0.710485924481,-0.252288829531,0.454262474497,0.0328110489001,0.155768181359,-1.02503845111,0.396439573061,0.722137601767,0.125364255143,0.588410960314,-0.420391015242,-0.0451305768424
0.717624839999,-0.280394081216,0.468348450228,0.0302937396186,0.152859671621,-1.07512246702,0.431847277866,0.753717311608,0.116013435705,0.583570519931,-0.420209799816,-0.0563185972019
0.725014770792,-0.309347418377,0.482740211332,0.0276894719315,0.149826049998,-1.12720587743,0.468481170057,0.785968138536,0.106119546111,0.5785414613,-0.4201240369,-0.0673909309464
0.732636769136,-0.339041034127,0.497382723037,0.0250157660904,0.146665181098,-1.18107926883,0.506250023925,0.818741188699,0.0957610730403,0.573337447398,-0.420170237632,-0.0783273234428
0.740467193178,-0.36934333809,0.512212402502,0.022293176168,0.143376989652,-1.23648678922,0.545034078963,0.851870458949,0.0850282860843,0.567976125607,-0.420383126704,-0.0891074573816
0.748477522986,-0.400100094872,0.527158086485,0.0195445865211,0.139963797405,-1.29312737069,0.584684481664,0.885175573601,0.0740221704018,0.562479100845,-0.420794167256,-0.0997117491665
0.75663432784,-0.431136876477,0.542142457771,0.016794212104,0.136430579389,-1.3506584376,0.625024127825,0.918465503782,0.0628527372096,0.556871728296,-0.421430117507,-0.11012218044
0.764899432078,-0.46226286199,0.557083899979,0.0140663577367,0.132785102347,-1.40870226315,0.665850104847,0.951543139979,0.0516367398162,0.551182707512,-0.422311757294,-0.120323092414
0.773230321972,-0.493275879674,0.571898704397,0.0113840362613,0.129037914016,-1.46685488726,0.706937802206,0.984210490242,0.0404948816831,0.545443475385,-0.423452921214,-0.130301865818
0.781580822328,-0.523968438756,0.586503509056,0.00876758092448,0.125202163953,-1.52469722287,0.748046590642,1.0162741947,0.0295486590435,0.53968741477,-0.424859950507,-0.140049416871
0.789902048286,-0.554134366011,0.600817816849,0.00623340354843,0.121293253492,-1.58180770051,0.788926790138,1.04755099653,0.018917024832,0.533948915899,-0.42653162993,-0.149560459708
0.798143607211,-0.583575571472,0.614766422789,0.00379304080129,0.117328331862,-1.63777558383,0.829327483976,1.07787280116,0.00871308541178,0.528262345888,-0.42845961633,-0.158833515112
0.806254992159,-0.612108437469,0.628281584319,0.00145259583207,0.113325674123,-1.69221397551,0.869004621544,1.10709099137,-0.000958957599379,0.522660994398,-0.430629303902,-0.167870678158
0.814187078639,-0.639569363081,0.641304792959,-0.000787371878415,0.109303990838,-1.7447715492,0.907728809038,1.13507974123,-0.0100064312997,0.517176068276,-0.433021019893,-0.176677186791
0.821893616764,-0.665819094867,0.653788046489,-0.0029315178817,0.105281726671,-1.79514218696,0.945292223065,1.16173817249,-0.0183502353118,0.511835803724,-0.435611413334,-0.1852608534
0.829332605925,-0.690745615207,0.665694571381,-0.00498901179245,0.101276404178,-1.84307194513,0.98151418961,1.18699130764,-0.025926215436,0.50666475197,-0.438374892504,-0.193631429365
0.836467450366,-0.714265515705,0.676998997091,-0.00697257131643,0.0973040605493,-1.88836306885,1.01624512822,1.21078987735,-0.0326858375112,0.501683275618,-0.441284982248,-0.201799968319
0.843267818945,-0.736323929152,0.687687029616,-0.00889735749784,0.0933788111684,-1.9308750752,1.04936873962,1.23310912385,-0.0385961885598,0.496907271332,-0.444315503563,-0.20977824077
0.849710166046,-0.756893209446,0.697754706049,-0.0107798543155,0.0895125573628,-1.97052318165,1.08080248504,1.25394679855,-0.0436393790842,0.492348113401,-0.447441516187,-0.21757823496
0.855777906492,-0.775970623808,0.70720733215,-0.0126368354251,0.0857148396477,-2.00727454112,1.11049654484,1.27332057996,-0.0478114534228,0.488012795107,-0.450640002471,-0.225211760833
0.861461269572,-0.793575354008,0.716058211418,-0.0144844905251,0.0819928243724,-2.04114284668,1.1384315389,1.29126513935,-0.0511209330902,0.483904232343,-0.453890301494,-0.23269015875
0.86675688172,-0.80974509857,0.724327268972,-0.0163377509187,0.0783514022877,-2.07218189128,1.16461533876,1.30782906231,-0.0535871219597,0.480021687312,-0.457174323734,-0.240024103875
0.871667141959,-0.824532536075,0.732039660083,-0.0182098242074,0.0747933725135,-2.1004786282,1.18907930655,1.32307180188,-0.0552382944886,0.476361268892,-0.46047658812,-0.247223491014
0.876199459208,-0.838001861475,0.739224434998,-0.0201119251848,0.0713196842545,-2.12614619584,1.21187426809,1.33706079899,-0.0561098722693,0.47291646941,-0.463784126662,-0.254297382507
0.880365417464,-0.850225552862,0.74591331202,-0.0220531751398,0.0679297104871,-2.14931726764,1.23306647845,1.34986886582,-0.0562426735013,0.46967870352,-0.467086299348,-0.26125400236
0.884179926215,-0.861281473007,0.752139591957,-0.0240406344158,0.0646215316535,-2.17013798038,1.25273378005,1.36157188987,-0.0556812976474,0.466637822411,-0.47037455597,-0.268100761993
0.887660401723,-0.871250363174,0.757937230712,-0.0260794317155,0.0613922121539,-2.18876259575,1.27096209288,1.3722468848,-0.054472686039,0.463782584358,-0.473642174002,-0.274844305855
0.890826012153,-0.880213748822,0.763340073689,-0.0281729564127,0.0582380573232,-2.20534896645,1.28784232241,1.38197038924,-0.0526648801972,0.461101069849,-0.47688399406,-0.281490568067
0.893697007535,-0.888252248485,0.768381245993,-0.0303230852799,0.0551548430783,-2.22005481377,1.30346772461,1.39081719614,-0.0503059840756,0.458581035691,-0.480096167594,-0.288044833805
0.896294145264,-0.89544425778,0.773092685881,-0.0325304211368,0.052138014197,-2.23303477674,1.31793173189,1.3988593839,-0.0474433245957,0.456210207309,-0.483275925859,-0.29451180122
0.898638213644,-0.901864968774,0.777504805128,-0.0347945269685,0.0491828501411,-2.24443816376,1.33132621835,1.406165613,-0.0441227965869,0.45397651198,-0.48642137484,-0.300895641276
0.900749649985,-0.907585679351,0.781646258258,-0.0371141444536,0.0462845994584,-2.25440732066,1.34374016603,1.41280064988,-0.0403883731159,0.451868258027,-0.489531317689,-0.307200053964
0.902648245786,-0.912673346014,0.785543802481,-0.0394873902849,0.0434385851973,-2.26307652341,1.35525868454,1.41882507973,-0.0362817596193,0.449874266334,-0.492605104108,-0.313428320173
0.904352929176,-0.917190335497,0.78922223111,-0.0419119271038,0.0406402845707,-2.27057130484,1.36596233296,1.42429517213,-0.0318421696205,0.447983961044,-0.495642504803,-0.319583348944
0.90588161382,-0.921194334317,0.792704364824,-0.0443851083494,0.0378853864537,-2.27700813065,1.37592669329,1.42926286706,-0.0271062005683,0.446187426304,-0.498643608443,-0.325667720148
0.907251103358,-0.924738380231,0.796011087056,-0.0469040980126,0.0351698303225,-2.28249434883,1.38522214772,1.43377585303,-0.0221077899749,0.444475435499,-0.501608738254,-0.331683722817
0.908477041064,-0.9278709847,0.799161411814,-0.049465967317,0.0324898300498,-2.28712834667,1.39391381693,1.43787771278,-0.0168782341851,0.4428394588,-0.504538385393,-0.337633389415
0.909573895338,-0.930636320557,0.802172574235,-0.052067770902,0.0298418856499,-2.29099985958,1.40206162178,1.44160811684,-0.0114462544768,0.441271654124,-0.507433156384,-0.343518526395
0.910554972772,-0.933074453822,0.805060135949,-0.0547066052895,0.0272227856857,-2.29419038585,1.40972043663,1.44500304827,-0.00583809756734,0.439764845827,-0.510293732194,-0.349340741384
0.911432451766,-0.935221602824,0.807838099014,-0.0573796523844,0.0246296026469,-2.29677367039,1.4169403078,1.44809504571,-7.76598540692e-05,0.438312494723,-0.513120836799,-0.355101467322
0.912217430823,-0.937110411503,0.810519023547,-0.060084210587,0.0220596832236,-2.29881622805,1.42376671552,1.45091345467,0.00581337323981,0.436908662362,-0.515915213404,-0.360801983864
0.912919986718,-0.938770226843,0.813114145378,-0.0628177158418,0.0195106350403,-2.30037788408,1.43024086254,1.45348467923,0.0118153796417,0.435547971858,-0.518677606775,-0.366443436338
0.913549238741,-0.940227372994,0.815633491027,-0.0655777546552,0.0169803111009,-2.30151231469,1.43639997566,1.45583242857,0.017910650013,0.434225567094,-0.521408750408,-0.372026852511
0.914113416003,-0.941505416724,0.818085988096,-0.0683620708232,0.0144667929237,-2.30226757533,1.44227761042,1.45797795433,0.0240832381285,0.432937071657,-0.524109357468,-0.377553157399
0.914619925537,-0.942625420515,0.820479569813,-0.0711685673289,0.0119683731126,-2.30268660792,1.44790395116,1.45994027592,0.0303188151731,0.431678548512,-0.526780114663,-0.383023186341
0.915075419474,-0.943606180945,0.822821272922,-0.0739953046142,0.00948353792665,-2.30280772129,1.45330610106,1.4617363922,0.0366045300164,0.430446461139,-0.529421678365,-0.388437696522
0.915485860093,-0.94446445098,0.825117328543,-0.0768404962052,0.00701095025129,-2.30266504113,1.45850835867,1.4633814786,0.0429288768372,0.429237636604,-0.532034672429,-0.393797377126
0.915856581874,-0.945215145614,0.827373245845,-0.0797025024764,0.00454943325711,-2.30228892776,1.46353247831,1.46488906924,0.0492815709355,0.428049230896,-0.534619687282,-0.399102858263
0.916192350028,-0.945871530793,0.82959388864,-0.0825798231737,0.00209795493225,-2.30170636116,1.46839791315,1.46627122424,0.0556534331558,0.426878696661,-0.537177279951,-0.404354718821
0.916497415171,-0.94644539604,0.83178354512,-0.0854710891799,-0.000344386396898,-2.30094129349,1.47312204034,1.46753868265,0.0620362830393,0.425723753435,-0.539707974755,-0.409553493357
0.916775564018,-0.946947211408,0.833945991053,-0.0883750538935,-0.0027783754994,-2.30001497042,1.47772036828,1.46870100159,0.0684228405909,0.424582360328,-0.54221226447,-0.414699678145
0.917030166075,-0.947386269626,0.83608454685,-0.0912905845006,-0.00520469261182,-2.29894622254,1.4822067263,1.4697666823,0.074806636389,0.42345269111,-0.544690611804,-0.419793736481
0.917264216416,-0.947770814386,0.838202128907,-0.0942166533464,-0.00762392476272,-2.29775172869,1.48659343763,1.47074328416,0.0811819296544,0.422333111587,-0.547143451066,-0.424836103324
0.917480374698,-0.948108155767,0.840301295672,-0.0971523295542,-0.0100365760847,-2.29644625329,1.49089147641,1.47163752734,0.0875436338236,0.421222159139,-0.549571189947,-0.429827189363
0.917681000606,-0.948404773838,0.842384288879,-0.100096770995,-0.0124430771638,-2.29504285942,1.49511060983,1.47245538511,0.0938872491343,0.420118524268,-0.55197421133,-0.434767384571
0.917868185941,-0.948666411437,0.844453070365,-0.103049216675,-0.0148437934833,-2.29355309986,1.49925952643,1.47320216663,0.10020880171,0.41902103402,-0.554352875104,-0.439657061314
0.918043783597,-0.948898157091,0.846509354887,-0.10600897958,-0.0172390330266,-2.29198718787,1.50334595162,1.47388259106,0.106504788632,0.41792863711,-0.556707519932,-0.444496577061
0.918209433653,-0.949104519011,0.848554639321,-0.108975439999,-0.0196290531025,-2.29035414973,1.50737675154,1.47450085392,0.112772128507,0.416840390626,-0.559038464954,-0.449286276753
0.918366586831,-0.949289491029,0.850590228608,-0.111948039325,-0.0220140664575,-2.28866196063,1.51135802619,1.47506068615,0.119008117029,0.415755448141,-0.561346011409,-0.454026494864
0.918516525522,-0.949456611265,0.852617258771,-0.114926274339,-0.0243942467387,-2.28691766561,1.51529519288,1.47556540698,0.12521038711,0.414673049125,-0.563630444165,-0.458717557203
0.918660382637,-0.94960901429,0.854636717313,-0.117909691941,-0.0267697333664,-2.28512748714,1.51919306094,1.47601797085,0.13137687313,0.413592509515,-0.565892033165,-0.463359782477
0.918799158444,-0.949749477436,0.856649461278,-0.120897884332,-0.029140635873,-2.28329692056,1.52305589838,1.47642100923,0.13750577891,0.412513213325,-0.568131034757,-0.467953483647
0.918933735622,-0.949880461904,0.858656233224,-0.123890484607,-0.0315070377605,-2.28143081882,1.52688749153,1.47677686785,0.143595549061,0.411434605199,-0.570347692947,-0.472498969115
0.919064892685,-0.950004149201,0.860657675333,-0.126887162738,-0.0338689999258,-2.27953346756,1.53069119817,1.47708763968,0.149644843353,0.410356183801,-0.572542240546,-0.476996543741
0.919193315943,-0.950122473434,0.862654341877,-0.12988762192,-0.0362265636982,-2.27760865161,1.53446999494,1.47735519427,0.155652513799,0.40927749595,-0.57471490023,-0.481446509736
0.919319610161,-0.950237149904,0.864646710209,-0.132891595259,-0.0385797535294,-2.27565971385,1.53822651957,1.47758120377,0.16161758419,0.408198131425,-0.576865885515,-0.485849167425
0.919444308039,-0.950349700425,0.86663519046,-0.135898842765,-0.0409285793738,-2.27368960732,1.54196310847,1.47776716598,0.167539231806,0.407117718364,-0.578995401651,-0.490204815905
0.919567878642,-0.950461475719,0.868620134079,-0.138909148635,-0.0432730387919,-2.27170094121,1.54568183029,1.47791442484,0.173416771091,0.40603591919,-0.581103646438,-0.494513753617
0.919690734889,-0.950573675224,0.870601841354,-0.141922318793,-0.0456131188078,-2.26969602159,1.54938451563,1.47802418851,0.179249639073,0.404952427003,-0.583190810971,-0.498776278829
0.919813240209,-0.950687364614,0.872580568031,-0.144938178677,-0.0479487975467,-2.26767688731,1.55307278365,1.47809754539,0.185037382352,0.403866962396,-0.58525708032,-0.502992690056
0.919935714445,-0.95080349128,0.874556531136,-0.147956571235,-0.0502800456784,-2.26564534176,1.55674806562,1.47813547839,0.190779645484,0.402779270625,-0.587302634147,-0.507163286408
0.92005843909,-0.950922898011,0.87652991409,-0.150977355123,-0.0526068276872,-2.26360298085,1.56041162589,1.47813887739,0.196476160606,0.40168911912,-0.58932764727,-0.511288367892
0.920181661938,-0.951046335085,0.878500871211,-0.154000403087,-0.0549291029889,-2.26155121773,1.5640645806,1.47810855045,0.202126738183,0.400596295274,-0.591332290168,-0.515368235661
0.920305601193,-0.951174470951,0.88046953165,-0.157025600498,-0.0572468269107,-2.25949130458,1.56770791425,1.47804523355,0.207731258737,0.399500604491,-0.593316729445,-0.519403192221
0.920430449123,-0.951307901653,0.882436002864,-0.160052844042,-0.0595599515514,-2.25742435184,1.57134249447,1.47794959931,0.213289665466,0.398401868455,-0.595281128249,-0.523393541604
0.920556375289,-0.951447159173,0.884400373647,-0.163082040541,-0.0618684265345,-2.25535134513,1.57496908514,1.47782226464,0.218801957647,0.397299923605,-0.597225646642,-0.527339589501
0.920683529401,-0.951592718778,0.886362716792,-0.166113105893,-0.0641721996664,-2.25327316017,1.57858835807,1.47766379754,0.224268184744,0.396194619777,-0.599150441947,-0.531241643377
0.920812043851,-0.951745005519,0.888323091421,-0.169145964122,-0.0664712175114,-2.25119057596,1.58220090337,1.47747472304,0.22968844114,0.395085819008,-0.601055669052,-0.535100012549
0.920942035945,-0.951904399969,0.890281545025,-0.172180546523,-0.0687654258922,-2.24910428634,1.5858072387,1.47725552848,0.235062861426,0.393973394469,-0.602941480683,-0.538915008252
0.921073609886,-0.952071243286,0.892238115241,-0.1752167909,-0.0710547703253,-2.2470149102,1.58940781747,1.47700666818,0.240391616185,0.392857229524,-0.604808027654,-0.542686943674
0.921206858517,-0.952245841685,0.894192831417,-0.178254640874,-0.0733391963987,-2.24492300046,1.59300303613,1.47672856756,0.245674908221,0.391737216892,-0.606655459087,-0.546416133985
0.921341864862,-0.952428470385,0.896145715959,-0.181294045276,-0.0756186500976,-2.24282905195,1.59659324071,1.47642162668,0.250912969178,0.390613257902,-0.608483922614,-0.550102896342
0.921478703492,-0.952619377097,0.898096785524,-0.184334957587,-0.0778930780864,-2.24073350839,1.60017873256,1.4760862235,0.256106056514,0.38948526183,-0.610293564549,-0.553747549884
0.921617441718,-0.952818785105,0.900046052043,-0.18737733545,-0.0801624279492,-2.23863676852,1.60375977351,1.47572271665,0.261254450784,0.38835314531,-0.612084530049,-0.557350415714
0.921758140653,-0.953026895981,0.901993523621,-0.190421140226,-0.0824266483967,-2.23653919142,1.60733659044,1.47533144788,0.266358453201,0.387216831807,-0.613856963256,-0.560911816871
0.92190085614,-0.953243891988,0.90393920531,-0.193466336595,-0.0846856894407,-2.23444110131,1.61090937937,1.47491274428,0.271418383451,0.386076251144,-0.615611007418,-0.56443207829
0.922045639574,-0.953469938201,0.905883099784,-0.196512892206,-0.0869395025422,-2.23234279167,1.61447830909,1.4744669201,0.276434577719,0.38493133908,-0.617346805002,-0.567911526759
0.922192538616,-0.953705184384,0.90782520792,-0.199560777356,-0.0891880407348,-2.23024452888,1.61804352435,1.47399427852,0.281407386922,0.383782036933,-0.619064497787,-0.571350490862
0.922341597832,-0.953949766641,0.909765529296,-0.202609964709,-0.0914312587269,-2.22814655548,1.62160514877,1.47349511303,0.286337175112,0.382628291236,-0.620764226956,-0.574749300918
0.922492859237,-0.954203808885,0.911704062628,-0.205660429037,-0.0936691129852,-2.22604909295,1.62516328741,1.47296970877,0.291224318037,0.381470053431,-0.622446133162,-0.578108288919
0.922646362788,-0.954467424129,0.913640806135,-0.208712146997,-0.095901561802,-2.22395234419,1.62871802898,1.47241834364,0.296069201846,0.380307279589,-0.6241103566,-0.581427788453
0.9228021468,-0.95474071563,0.915575757856,-0.211765096926,-0.0981285653474,-2.22185649572,1.63226944798,1.47184128926,0.300872221908,0.379139930158,-0.625757037058,-0.584708134633
0.922960248322,-0.955023777902,0.917508915916,-0.214819258658,-0.100350085709,-2.21976171955,1.63581760639,1.47123881187,0.305633781757,0.377967969731,-0.627386313965,-0.587949664015
0.923120703451,-0.955316697616,0.919440278757,-0.217874613362,-0.102566086921,-2.21766817488,1.63936255537,1.47061117303,0.310354292128,0.376791366836,-0.628998326433,-0.591152714515
0.923283547614,-0.955619554386,0.921369845326,-0.220931143396,-0.104776534981,-2.21557600957,1.64290433663,1.46995863032,0.315034170078,0.375610093744,-0.63059321329,-0.594317625324
0.923448815809,-0.955932421475,0.923297615234,-0.223988832179,-0.106981397863,-2.21348536141,1.64644298377,1.46928143787,0.3196738382,0.37442412629,-0.632171113109,-0.597444736819
0.923616542813,-0.956255366421,0.925223588887,-0.227047664072,-0.109180645517,-2.21139635925,1.64997852334,1.46857984687,0.324273723897,0.373233443706,-0.63373216423,-0.600534390471
0.923786763359,-0.956588451581,0.927147767595,-0.230107624274,-0.111374249868,-2.209309124,1.65351097592,1.46785410596,0.328834258723,0.372038028474,-0.635276504775,-0.603586928757
0.923959512286,-0.95693173463,0.929070153657,-0.23316869873,-0.113562184801,-2.20722376951,1.657040357,1.46710446167,0.333355877783,0.370837866179,-0.636804272666,-0.606602695061
0.924134824676,-0.957285268991,0.930990750429,-0.236230874049,-0.115744426151,-2.20514040328,1.66056667774,1.46633115862,0.337839019185,0.369632945379,-0.638315605632,-0.609582033585
0.924312735953,-0.957649104219,0.932909562378,-0.239294137428,-0.117920951682,-2.20305912717,1.66408994575,1.46553443991,0.342284123531,0.368423257477,-0.639810641216,-0.612525289248
0.924493281983,-0.958023286354,0.934826595118,-0.242358476584,-0.120091741064,-2.20098003797,1.66761016568,1.46471454724,0.346691633461,0.367208796608,-0.641289516777,-0.615432807592
0.924676499142,-0.958407858216,0.936741855435,-0.2454238797,-0.122256775847,-2.1989032279,1.6711273398,1.46387172119,0.351061993226,0.365989559524,-0.64275236949,-0.618304934686
0.924862424384,-0.958802859688,0.938655351307,-0.248490335365,-0.124416039428,-2.19682878505,1.67464146849,1.46300620133,0.355395648296,0.364765545489,-0.644199336345,-0.621142017029
0.925051095285,-0.959208327953,0.940567091911,-0.251557832532,-0.126569517028,-2.19475679379,1.67815255071,1.46211822636,0.359693045001,0.363536756178,-0.645630554141,-0.623944401451
0.925242550083,-0.959624297714,0.942477087617,-0.254626360473,-0.128717195649,-2.1926873351,1.68166058435,1.46120803426,0.363954630197,0.362303195584,-0.64704615948,-0.626712435022
0.925436827707,-0.960050801391,0.944385349986,-0.257695908742,-0.130859064046,-2.19062048686,1.68516556662,1.46027586232,0.368180850955,0.361064869922,-0.648446288757,-0.629446464947
0.925633967797,-0.960487869289,0.946291891756,-0.260766467141,-0.132995112685,-2.18855632413,1.68866749433,1.45932194727,0.372372154282,0.35982178754,-0.649831078154,-0.63214683848
0.925834010716,-0.960935529763,0.948196726823,-0.263838025687,-0.135125333709,-2.18649491935,1.6921663642,1.45834652531,0.376528986849,0.358573958839,-0.651200663623,-0.634813902822
0.926036997562,-0.961393809352,0.950099870222,-0.26691057459,-0.137249720898,-2.18443634255,1.69566217306,1.45734983214,0.380651794747,0.357321396184,-0.652555180878,-0.637448005032
0.92624297016,-0.961862732911,0.952001338099,-0.269984104225,-0.139368269629,-2.18238066154,1.69915491808,1.45633210305,0.384741023255,0.356064113828,-0.65389476538,-0.640049491928
0.926451971066,-0.962342323721,0.953901147683,-0.273058605111,-0.141480976834,-2.18032794205,1.70264459696,1.45529357285,0.388797116629,0.354802127833,-0.655219552321,-0.642618710001
0.926664043556,-0.962832603598,0.955799317261,-0.276134067892,-0.143587840965,-2.17827824785,1.70613120809,1.45423447598,0.3928205179,0.353535455994,-0.65652967661,-0.64515600532
0.926879231614,-0.96333359298,0.957695866138,-0.279210483318,-0.145688861947,-2.1762316409,1.70961475068,1.45315504643,0.396811668685,0.35226411777,-0.657825272858,-0.647661723446
0.927097579917,-0.96384531102,0.959590814609,-0.282287842233,-0.14778404114,-2.17418818141,1.7130952249,1.4520555178,0.400771009013,0.350988134207,-0.659106475359,-0.650136209339
0.92731913382,-0.964367775657,0.961484183922,-0.285366135557,-0.1498733813,-2.17214792796,1.716572632,1.45093612326,0.404698977162,0.349707527871,-0.660373418076,-0.652579807275
0.927543939332,-0.96490100369,0.963375996243,-0.288445354275,-0.151956886532,-2.17011093756,1.72004697436,1.44979709556,0.408596009502,0.348422322782,-0.66162623462,-0.654992860759
0.927772043099,-0.965445010846,0.965266274617,-0.291525489427,-0.154034562257,-2.16807726576,1.72351825561,1.44863866697,0.412462540352,0.347132544343,-0.662865058237,-0.657375712443
0.928003492375,-0.965999811831,0.967155042935,-0.294606532095,-0.156106415163,-2.16604696664,1.72698648065,1.44746106931,0.416299001845,0.34583821928,-0.664090021786,-0.659728704042
0.928238335002,-0.966565420394,0.969042325894,-0.297688473399,-0.158172453173,-2.16402009293,1.73045165578,1.44626453391,0.420105823795,0.344539375575,-0.665301257722,-0.662052176256
0.928476619382,-0.967141849373,0.97092814896,-0.300771304481,-0.160232685398,-2.16199669601,1.73391378868,1.44504929158,0.423883433582,0.343236042407,-0.666498898081,-0.664346468688
0.92871839445,-0.96772911074,0.97281253833,-0.303855016504,-0.162287122103,-2.15997682601,1.73737288846,1.44381557257,0.427632256037,0.341928250086,-0.667683074459,-0.66661191977
0.928963709645,-0.968327215649,0.974695520898,-0.306939600645,-0.164335774662,-2.15796053179,1.74082896572,1.44256360657,0.431352713334,0.34061603,-0.668853917993,-0.66884886669
0.929212614887,-0.968936174471,0.976577124213,-0.310025048084,-0.166378655525,-2.15594786097,1.74428203256,1.44129362267,0.43504522489,0.339299414552,-0.670011559348,-0.671057645315
0.929465160541,-0.969555996838,0.978457376449,-0.313111350005,-0.168415778177,-2.15393886004,1.74773210256,1.44000584931,0.438710207272,0.337978437106,-0.671156128693,-0.673238590122
0.929721397396,-0.970186691671,0.98033630636,-0.316198497586,-0.170447157101,-2.1519335743,1.75117919085,1.43870051428,0.442348074107,0.336653131928,-0.672287755688,-0.67539203413
0.929981376629,-0.970828267217,0.982213943256,-0.319286481998,-0.172472807739,-2.14993204792,1.75462331409,1.43737784466,0.445959235997,0.335323534133,-0.673406569465,-0.67751830883
0.930245149782,-0.971480731078,0.984090316956,-0.322375294397,-0.174492746461,-2.14793432398,1.75806449046,1.43603806681,0.449544100442,0.333989679631,-0.67451269861,-0.679617744126
0.930512768731,-0.972144090241,0.985965457763,-0.325464925926,-0.176506990522,-2.14594044446,1.76150273968,1.43468140632,0.453103071765,0.332651605076,-0.67560627115,-0.681690668266
0.930784285655,-0.972818351105,0.987839396424,-0.328555367705,-0.178515558033,-2.14395045027,1.76493808298,1.43330808801,0.456636551043,0.331309347813,-0.67668741453,-0.683737407782
0.93105975301,-0.973503519506,0.9897121641,-0.331646610834,-0.180518467923,-2.14196438128,1.76837054313,1.43191833585,0.460144936041,0.329962945827,-0.677756255601,-0.685758287435
0.931339223503,-0.974199600741,0.991583792334,-0.334738646386,-0.182515739908,-2.13998227634,1.77180014438,1.43051237296,0.463628621155,0.328612437695,-0.678812920604,-0.687753630155
0.931622750059,-0.974906599591,0.993454313017,-0.337831465405,-0.184507394452,-2.13800417325,1.7752269125,1.42909042159,0.467087997346,0.32725786254,-0.679857535155,-0.689723756988
0.931910385798,-0.975624520346,0.995323758359,-0.340925058905,-0.186493452744,-2.13603010884,1.7786508747,1.42765270307,0.470523452096,0.32589925998,-0.680890224225,-0.691668987043
0.932202184005,-0.976353366818,0.997192160857,-0.344019417869,-0.188473936658,-2.13406011895,1.78207205969,1.42619943778,0.473935369355,0.324536670084,-0.681911112131,-0.693589637439
0.932498198108,-0.977093142371,0.999059553269,-0.347114533241,-0.190448868725,-2.13209423844,1.78549049758,1.42473084512,0.477324129491,0.323170133326,-0.682920322519,-0.695486023261
0.932798481647,-0.977843849928,1.00092596858,-0.350210395931,-0.192418272103,-2.13013250123,1.78890621993,1.42324714352,0.480690109253,0.321799690546,-0.683917978349,-0.697358457511
0.93310308825,-0.978605492,1.00279143998,-0.353306996809,-0.194382170548,-2.12817494026,1.79231925966,1.42174855035,0.484033681729,0.320425382899,-0.684904201885,-0.699207251062
0.933412071613,-0.979378070694,1.00465600083,-0.356404326705,-0.196340588382,-2.12622158758,1.7957296511,1.42023528194,0.487355216306,0.319047251821,-0.685879114677,-0.70103271262
0.933725485467,-0.980161587734,1.00651968465,-0.359502376406,-0.19829355047,-2.1242724743,1.79913742991,1.41870755357,0.490655078644,0.317665338984,-0.686842837553,-0.70283514868
0.934043383563,-0.980956044475,1.00838252508,-0.362601136655,-0.200241082185,-2.12232763063,1.80254263306,1.41716557937,0.493933630639,0.316279686256,-0.687795490603,-0.704614863488
0.934365819644,-0.981761441916,1.01024455584,-0.365700598151,-0.20218320939,-2.12038708588,1.80594529884,1.41560957237,0.497191230396,0.314890335667,-0.68873719317,-0.706372159007
0.934692847423,-0.982577780718,1.01210581075,-0.368800751545,-0.204119958405,-2.11845086847,1.8093454668,1.41403974447,0.500428232208,0.313497329364,-0.689668063836,-0.708107334879
0.935024520565,-0.983405061211,1.01396632367,-0.371901587441,-0.206051355984,-2.11651900598,1.81274317773,1.41245630637,0.50364498653,0.312100709582,-0.690588220416,-0.709820688395
0.935360892659,-0.984243283414,1.01582612849,-0.375003096394,-0.207977429291,-2.1145915251,1.81613847365,1.4108594676,0.506841839958,0.310700518605,-0.69149777994,-0.711512514465
0.935702017206,-0.985092447041,1.01768525911,-0.378105268907,-0.209898205874,-2.11266845168,1.81953139774,1.40924943649,0.510019135215,0.309296798728,-0.69239685865,-0.713183105585
0.936047947593,-0.985952551515,1.01954374941,-0.381208095432,-0.211813713644,-2.11074981074,1.82292199438,1.40762642012,0.513177211134,0.30788959223,-0.69328557199,-0.714832751816
0.936398737076,-0.986823595977,1.02140163325,-0.384311566368,-0.213723980851,-2.10883562649,1.82631030906,1.40599062436,0.516316402645,0.306478941336,-0.69416403459,-0.716461740752
0.936754438761,-0.987705579301,1.02325894441,-0.38741567206,-0.215629036061,-2.10692592229,1.82969638836,1.40434225378,0.519437040763,0.30506488819,-0.695032360268,-0.718070357502
0.937115105587,-0.988598500099,1.02511571663,-0.390520402798,-0.217528908137,-2.10502072073,1.83308027999,1.40268151172,0.522539452583,0.303647474818,-0.695890662012,-0.719658884668
0.937480790309,-0.989502356731,1.02697198354,-0.393625748816,-0.219423626214,-2.10312004359,1.83646203265,1.4010086002,0.52562396127,0.302226743104,-0.69673905198,-0.721227602322
0.93785154548,-0.990417147317,1.02882777865,-0.396731700289,-0.221313219686,-2.10122391188,1.8398416961,1.39932371994,0.528690886058,0.30080273476,-0.69757764149,-0.722776787989
0.938227423436,-0.99134286974,1.03068313538,-0.399838247336,-0.223197718179,-2.09933234583,1.84321932108,1.39762707036,0.531740542244,0.299375491293,-0.698406541012,-0.724306716631
0.938608476281,-0.99227952166,1.03253808698,-0.402945380014,-0.225077151534,-2.09744536493,1.8465949593,1.39591884954,0.534773241188,0.297945053987,-0.699225860164,-0.725817660633
0.938994755871,-0.993227100517,1.03439266654,-0.406053088322,-0.226951549794,-2.09556298791,1.84996866341,1.39419925424,0.537789290316,0.296511463867,-0.700035707706,-0.727309889788
0.939386313802,-0.99418560354,1.03624690701,-0.409161362195,-0.228820943178,-2.09368523275,1.85334048697,1.39246847985,0.540788993122,0.295074761682,-0.700836191533,-0.728783671283
0.939783201395,-0.995155027752,1.03810084112,-0.412270191508,-0.230685362071,-2.09181211673,1.85671048443,1.39072672042,0.543772649172,0.293634987874,-0.701627418673,-0.730239269693
0.940185469684,-0.996135369979,1.03995450142,-0.415379566072,-0.232544837004,-2.08994365639,1.86007871109,1.38897416863,0.546740554108,0.292192182562,-0.70240949528,-0.731676946971
0.940593169401,-0.997126626853,1.04180792023,-0.418489475631,-0.234399398636,-2.08807986757,1.8634452231,1.38721101579,0.54969299966,0.29074638551,-0.703182526633,-0.733096962438
0.94100635097,-0.998128794817,1.04366112966,-0.421599909868,-0.236249077743,-2.08622076542,1.8668100774,1.38543745182,0.552630273654,0.289297636113,-0.703946617129,-0.734499572777
0.94142506449,-0.999141870133,1.04551416158,-0.424710858396,-0.238093905202,-2.08436636439,1.87017333172,1.38365366529,0.55555266002,0.287845973371,-0.704701870283,-0.735885032034
0.941849359727,-1.00016584889,1.04736704759,-0.427822310763,-0.239933911974,-2.08251667827,1.87353504455,1.38185984333,0.558460438805,0.286391435874,-0.705448388724,-0.737253591605
0.942279286104,-1.00120072698,1.04921981906,-0.430934256447,-0.241769129092,-2.08067172016,1.8768952751,1.38005617174,0.561353886189,0.284934061775,-0.706186274193,-0.738605500242
0.942714892693,-1.00224650017,1.05107250707,-0.434046684858,-0.243599587647,-2.07883150252,1.8802540833,1.37824283486,0.564233274496,0.283473888779,-0.70691562754,-0.739941004048
0.9431562282,-1.00330316401,1.05292514241,-0.437159585337,-0.245425318778,-2.07699603716,1.88361152975,1.37642001567,0.567098872212,0.282010954121,-0.707636548727,-0.741260346478
0.943603340965,-1.00437071392,1.05477775561,-0.440272947152,-0.247246353654,-2.07516533523,1.88696767573,1.37458789575,0.569950944,0.280545294547,-0.708349136819,-0.742563768341
0.944056278947,-1.00544914515,1.05663037687,-0.4433867595,-0.249062723467,-2.07333940728,1.89032258313,1.37274665526,0.572789750722,0.279076946304,-0.709053489992,-0.743851507803
0.944515089719,-1.00653845279,1.05848303609,-0.446501011506,-0.250874459419,-2.0715182632,1.89367631449,1.37089647297,0.575615549453,0.277605945118,-0.709749705529,-0.745123800386
0.944979820463,-1.00763863178,1.06033576287,-0.449615692221,-0.252681592709,-2.0697019123,1.8970289329,1.36903752624,0.578428593505,0.276132326181,-0.710437879816,-0.746380878979
0.94545051796,-1.0087496769,1.06218858645,-0.45273079062,-0.254484154525,-2.06789036326,1.90038050204,1.36716999104,0.581229132446,0.27465612414,-0.711118108352,-0.747622973842
0.945927228586,-1.00987158278,1.06404153578,-0.455846295606,-0.256282176035,-2.06608362419,1.90373108615,1.36529404191,0.584017412125,0.273177373077,-0.71179048574,-0.748850312609
0.946409998303,-1.01100434391,1.06589463944,-0.458962196002,-0.258075688372,-2.06428170258,1.90708074999,1.36340985203,0.586793674692,0.271696106502,-0.712455105695,-0.750063120298
0.94689887266,-1.01214795461,1.06774792568,-0.462078480557,-0.259864722629,-2.06248460534,1.9104295588,1.36151759316,0.589558158622,0.270212357337,-0.713112061042,-0.751261619321
0.947393896782,-1.01330240908,1.06960142238,-0.465195137942,-0.26164930985,-2.06069233884,1.91377757834,1.35961743567,0.592311098743,0.268726157906,-0.71376144372,-0.752446029491
0.947895115367,-1.01446770134,1.07145515709,-0.468312156748,-0.26342948102,-2.05890490884,1.91712487482,1.35770954855,0.595052726257,0.267237539923,-0.714403344782,-0.753616568032
0.948402572685,-1.01564382528,1.07330915699,-0.471429525487,-0.265205267056,-2.05712232057,1.9204715149,1.35579409938,0.59778326877,0.265746534481,-0.7150378544,-0.754773449594
0.94891631257,-1.01683077465,1.07516344886,-0.474547232591,-0.266976698802,-2.0553445787,1.92381756567,1.35387125438,0.600502950316,0.264253172046,-0.715665061865,-0.755916886257
0.949436378419,-1.01802854303,1.07701805916,-0.477665266411,-0.268743807018,-2.05357168733,1.92716309462,1.35194117839,0.603211991387,0.262757482441,-0.716285055592,-0.757047087551
0.94996281319,-1.01923712387,1.07887301394,-0.480783615219,-0.270506622376,-2.05180365006,1.93050816965,1.35000403488,0.605910608958,0.261259494843,-0.716897923124,-0.758164260466
0.950495659393,-1.02045651047,1.08072833886,-0.483902267199,-0.272265175451,-2.05004046993,1.933852859,1.34805998593,0.608599016521,0.259759237773,-0.717503751134,-0.759268609465
0.951034959099,-1.02168669597,1.08258405922,-0.487021210458,-0.274019496717,-2.04828214945,1.93719723131,1.3461091923,0.611277424107,0.258256739087,-0.718102625429,-0.760360336499
0.951580753924,-1.02292767337,1.08444019993,-0.490140433015,-0.275769616536,-2.04652869063,1.94054135552,1.34415181337,0.613946038323,0.256752025969,-0.718694630955,-0.761439641024
0.952133085041,-1.0241794355,1.0862967855,-0.493259922806,-0.277515565159,-2.04478009495,1.9438853009,1.34218800718,0.616605062375,0.255245124928,-0.719279851803,-0.762506720012
0.952691993167,-1.02544197507,1.08815384003,-0.496379667684,-0.279257372715,-2.04303636336,1.94722913705,1.34021793043,0.619254696108,0.253736061786,-0.719858371209,-0.763561767973
0.953257518569,-1.02671528461,1.09001138726,-0.499499655412,-0.280995069206,-2.04129749635,1.95057293382,1.3382417385,0.621895136026,0.252224861677,-0.720430271565,-0.764604976968
0.953829701061,-1.02799935648,1.0918694505,-0.502619873671,-0.282728684505,-2.03956349386,1.95391676137,1.33625958543,0.624526575334,0.250711549039,-0.72099563442,-0.765636536626
0.954408580002,-1.02929418292,1.09372805266,-0.505740310054,-0.284458248348,-2.03783435538,1.95726069009,1.33427162396,0.627149203962,0.24919614761,-0.721554540485,-0.766656634163
0.954994194297,-1.03059975599,1.09558721627,-0.508860952064,-0.286183790333,-2.03611007987,1.96060479063,1.33227800552,0.629763208602,0.247678680426,-0.722107069642,-0.7676654544
0.955586582396,-1.03191606756,1.09744696343,-0.511981787121,-0.287905339912,-2.03439066582,1.96394913388,1.33027888023,0.632368772737,0.246159169813,-0.722653300947,-0.768663179779
0.956185782295,-1.03324310939,1.09930731584,-0.515102802552,-0.289622926389,-2.03267611125,1.96729379091,1.32827439694,0.634966076677,0.244637637384,-0.723193312639,-0.769649990387
0.956791831536,-1.03458087302,1.1011682948,-0.518223985598,-0.291336578916,-2.03096641366,1.97063883302,1.32626470322,0.63755529759,0.24311410404,-0.723727182142,-0.770626063968
0.957404767206,-1.03592934985,1.1030299212,-0.521345323411,-0.293046326488,-2.02926157013,1.97398433168,1.32424994536,0.640136609534,0.241588589962,-0.724254986074,-0.77159157595
0.958024625939,-1.03728853109,1.10489221551,-0.524466803052,-0.294752197941,-2.02756157721,1.97733035856,1.32223026839,0.642710183495,0.240061114613,-0.724776800254,-0.772546699459
0.958651443919,-1.03865840778,1.10675519779,-0.527588411493,-0.29645422195,-2.02586643103,1.98067698547,1.3202058161,0.645276187416,0.238531696733,-0.725292699708,-0.773491605342
0.959285256874,-1.04003897078,1.10861888771,-0.530710135615,-0.298152427022,-2.02417612722,1.98402428436,1.31817673103,0.647834786232,0.237000354337,-0.725802758675,-0.774426462186
0.959926100086,-1.04143021077,1.11048330449,-0.533831962209,-0.299846841498,-2.02249066097,1.98737232735,1.31614315451,0.650386141904,0.235467104717,-0.726307050616,-0.77535143634
0.960574008385,-1.04283211823,1.11234846698,-0.536953877976,-0.301537493547,-2.02081002698,1.99072118664,1.31410522663,0.652930413454,0.233931964437,-0.72680564822,-0.776266691935
0.961229016157,-1.04424468347,1.11421439358,-0.540075869525,-0.303224411163,-2.01913421953,1.99407093458,1.31206308628,0.655467756999,0.232394949336,-0.727298623412,-0.777172390903
0.961891157339,-1.04566789658,1.11608110232,-0.543197923374,-0.304907622167,-2.01746323241,1.9974216436,1.31001687117,0.657998325783,0.230856074524,-0.727786047357,-0.778068693003
0.962560465425,-1.04710174748,1.11794861078,-0.54632002595,-0.3065871542,-2.01579705898,2.00077338623,1.30796671779,0.660522270211,0.229315354385,-0.728267990474,-0.778955755838
0.96323697347,-1.04854622586,1.11981693615,-0.549442163587,-0.308263034724,-2.01413569212,2.00412623507,1.30591276147,0.663039737889,0.227772802574,-0.728744522439,-0.779833734878
0.963920714083,-1.05000132124,1.12168609521,-0.552564322532,-0.309935291018,-2.01247912429,2.0074802628,1.3038551364,0.66555087365,0.22622843202,-0.729215712195,-0.780702783481
0.964611719442,-1.05146702291,1.12355610433,-0.555686488935,-0.311603950179,-2.01082734747,2.01083554213,1.30179397558,0.668055819595,0.224682254926,-0.729681627956,-0.781563052916
0.965310021284,-1.05294331994,1.12542697945,-0.558808648858,-0.313269039119,-2.00918035322,2.01419214585,1.29972941089,0.670554715121,0.22313428277,-0.730142337222,-0.782414692383
0.966015650915,-1.05443020119,1.12729873614,-0.561930788271,-0.314930584561,-2.00753813263,2.01755014677,1.29766157307,0.673047696963,0.221584526304,-0.730597906781,-0.783257849038
0.966728639211,-1.05592765532,1.12917138954,-0.565052893053,-0.316588613044,-2.00590067635,2.02090961772,1.29559059175,0.675534899221,0.22003299556,-0.731048402719,-0.78409266801
0.967449016619,-1.05743567073,1.13104495438,-0.568174948992,-0.318243150914,-2.00426797458,2.02427063157,1.29351659544,0.678016453396,0.218479699847,-0.731493890429,-0.784919292427
0.96817681316,-1.05895423562,1.132919445,-0.571296941783,-0.319894224329,-2.00264001709,2.02763326117,1.29143971157,0.680492488428,0.216924647755,-0.73193443462,-0.785737863436
0.968912058434,-1.06048333795,1.13479487533,-0.574418857034,-0.321541859257,-2.00101679318,2.03099757939,1.28936006646,0.682963130723,0.215367847156,-0.732370099322,-0.786548520227
0.969654781619,-1.06202296542,1.1366712589,-0.577540680261,-0.323186081471,-1.99939829173,2.03436365908,1.28727778539,0.685428504195,0.213809305209,-0.7328009479,-0.787351400053
0.970405011477,-1.06357310552,1.13854860884,-0.580662396889,-0.324826916554,-1.99778450115,2.03773157306,1.28519299255,0.687888730292,0.212249028359,-0.733227043056,-0.788146638251
0.971162776355,-1.06513374547,1.14042693788,-0.583783992256,-0.326464389893,-1.99617540941,2.04110139415,1.28310581109,0.690343928034,0.210687022339,-0.733648446842,-0.788934368268
0.97192810419,-1.06670487226,1.14230625837,-0.586905451608,-0.328098526684,-1.99457100404,2.0444731951,1.28101636313,0.692794214046,0.209123292178,-0.734065220668,-0.789714721679
0.97270102251,-1.06828647261,1.14418658223,-0.590026760106,-0.329729351924,-1.99297127212,2.04784704864,1.27892476974,0.695239702591,0.207557842198,-0.73447742531,-0.79048782821
0.973481558438,-1.06987853299,1.14606792102,-0.59314790282,-0.33135689042,-1.99137620029,2.05122302744,1.276831151,0.697680505602,0.205990676021,-0.734885120918,-0.791253815761
0.974269738694,-1.07148103961,1.14795028589,-0.596268864734,-0.332981166779,-1.98978577472,2.05460120409,1.27473562596,0.700116732717,0.20442179657,-0.735288367025,-0.792012810428
0.975065589602,-1.07309397839,1.14983368762,-0.599389630746,-0.334602205415,-1.98819998115,2.05798165115,1.27263831269,0.702548491311,0.202851206074,-0.735687222558,-0.792764936521
0.975869137087,-1.074717335,1.15171813658,-0.602510185666,-0.336220030545,-1.98661880485,2.06136444107,1.27053932829,0.70497588653,0.201278906069,-0.736081745841,-0.79351031659
0.976680406684,-1.07635109483,1.15360364277,-0.605630514221,-0.337834666191,-1.98504223066,2.06474964622,1.26843878885,0.707399021319,0.199704897404,-0.736471994612,-0.794249071443
0.977499423539,-1.07799524299,1.1554902158,-0.608750601053,-0.339446136176,-1.98347024294,2.06813733889,1.26633680954,0.709817996463,0.198129180245,-0.736858026025,-0.794981320171
0.978326212409,-1.0796497643,1.15737786491,-0.61187043072,-0.34105446413,-1.98190282562,2.07152759126,1.26423350457,0.712232910608,0.196551754075,-0.737239896659,-0.795707180167
0.979160797672,-1.08131464329,1.15926659894,-0.614989987698,-0.342659673484,-1.98033996215,2.07492047541,1.26212898719,0.714643860305,0.194972617703,-0.737617662533,-0.796426767146
0.980003203326,-1.08298986421,1.16115642638,-0.618109256382,-0.344261787475,-1.97878163554,2.0783160633,1.26002336975,0.717050940031,0.193391769265,-0.737991379106,-0.797140195168
0.980853452991,-1.08467541098,1.16304735534,-0.621228221085,-0.345860829141,-1.97722782832,2.08171442678,1.25791676367,0.719454242229,0.191809206228,-0.738361101292,-0.797847576659
0.981711569916,-1.08637126727,1.16493939353,-0.624346866042,-0.347456821326,-1.97567852256,2.08511563757,1.25580927947,0.721853857333,0.190224925396,-0.738726883468,-0.798549022432
0.982577576982,-1.08807741639,1.16683254832,-0.627465175409,-0.349049786678,-1.97413369988,2.08851976724,1.25370102677,0.724249873804,0.188638922912,-0.739088779479,-0.799244641704
0.983451496702,-1.08979384138,1.16872682672,-0.630583133267,-0.350639747649,-1.97259334143,2.09192688724,1.25159211431,0.726642378157,0.187051194264,-0.739446842649,-0.799934542123
0.984333351227,-1.09152052494,1.17062223535,-0.633700723618,-0.352226726495,-1.97105742785,2.09533706886,1.24948264995,0.729031454997,0.18546173429,-0.739801125792,-0.800618829781
0.98522316235,-1.09325744947,1.17251878048,-0.636817930394,-0.353810745278,-1.96952593936,2.09875038326,1.24737274069,0.731417187043,0.183870537181,-0.740151681215,-0.801297609241
0.986120951507,-1.09500459704,1.17441646803,-0.63993473745,-0.355391825864,-1.96799885568,2.1021669014,1.24526249268,0.733799655162,0.182277596484,-0.740498560732,-0.801970983551
0.987026739781,-1.09676194938,1.17631530354,-0.643051128572,-0.356969989925,-1.96647615605,2.1055866941,1.24315201122,0.736178938401,0.180682905112,-0.740841815669,-0.802639054268
0.987940547909,-1.09852948792,1.17821529221,-0.646167087475,-0.358545258939,-1.96495781922,2.10900983202,1.24104140078,0.738555114012,0.179086455344,-0.741181496874,-0.803301921476
0.988862396278,-1.10030719372,1.18011643889,-0.649282597806,-0.360117654191,-1.96344382348,2.11243638561,1.23893076501,0.740928257484,0.177488238829,-0.741517654724,-0.803959683807
0.989792304936,-1.10209504754,1.18201874808,-0.652397643146,-0.361687196771,-1.96193414662,2.11586642517,1.23682020673,0.743298442574,0.175888246596,-0.741850339136,-0.804612438457
0.99073029359,-1.10389302977,1.18392222393,-0.655512207009,-0.363253907577,-1.96042876593,2.11930002078,1.23470982798,0.745665741333,0.174286469053,-0.742179599571,-0.805260281209
0.991676381613,-1.10570112046,1.18582687023,-0.658626272849,-0.364817807315,-1.95892765823,2.12273724235,1.23259972998,0.748030224137,0.172682895997,-0.742505485047,-0.80590330645
0.09093707317,0.56727284828,0.06482506621,0.625542839065,0.795798092057,-0.0728549650136,0.400375676913,-0.347437076977,0.40492183794,0.80243665559,-0.195149246235,-0.330644493637
0.0604843846569,0.534182058294,0.012151689389,0.558435856576,0.737898540654,0.0624394112231,0.362071024528,-0.367590613429,0.42609387627,0.770499660401,-0.281206085828,-0.305555294251
0.0287892009052,0.509580451704,-0.0457535974768,0.48651885473,0.676716948855,0.198257509658,0.322959118896,-0.394971407959,0.451041118141,0.736471463721,-0.358611855042,-0.282030252071
-0.0036048887277,0.494936913422,-0.109786501066,0.410682462438,0.612316898063,0.335853404942,0.282634096862,-0.432456298986,0.480695915913,0.70024092776,-0.426566576239,-0.260244017564
-0.0361236698686,0.491611182832,-0.180951427564,0.331813035623,0.544949807275,0.476512254099,0.240752509356,-0.483495519124,0.516080694572,0.661737580556,-0.484506373101,-0.24028944195
-0.0681569527516,0.500613715434,-0.26022139603,0.250761649194,0.475146903381,0.621208864799,0.197189996568,-0.55180044935,0.558132876701,0.620972738483,-0.532277909475,-0.222114073148
-0.0990465980604,0.522262577441,-0.348210279759,0.168334312275,0.403841689806,0.76997632828,0.152288667493,-0.640588521481,0.607340491853,0.578116516793,-0.570327851317,-0.205456820439
-0.128085720194,0.555761547904,-0.444614200161,0.0853003783767,0.332486754037,0.921076457231,0.107130900867,-0.751267571121,0.663166565436,0.533610579302,-0.599829670303,-0.189824332221
-0.154558925309,0.598858281769,-0.54757879734,0.00239657929719,0.263042612292,1.07038312057,0.063648272186,-0.881809454234,0.723450952683,0.488258312772,-0.622579707329,-0.17457663932
-0.177842155207,0.647899237682,-0.653472931413,-0.0797006139427,0.19765971589,1.2116558489,0.0243146466348,-1.02577395805,0.784306403646,0.44316358508,-0.640517764553,-0.159155641002
-0.197537428542,0.698515091244,-0.757574340101,-0.160436550305,0.138047344262,1.33804677885,-0.00859769569234,-1.17325369986,0.84100114651,0.399449932532,-0.655038421758,-0.143333906687
-0.213574809099,0.746704401539,-0.855488803499,-0.239439068207,0.0849055306197,1.4441677396,-0.033792833717,-1.31381648548,0.889522122272,0.357929140357,-0.666599888436,-0.127258736109
-0.226220645506,0.78969849228,-0.944370483071,-0.316534282552,0.0378683553505,1.52746063944,-0.0512703003568,-1.43965285961,0.92775080124,0.318985307831,-0.674927684294,-0.11125511627
-0.235988124003,0.826204048243,-1.02323849902,-0.391703255268,-0.0040589393526,1.58826842081,-0.0621056370138,-1.54703585762,0.955581953436,0.282705451558,-0.679540282318,-0.0955980963587
-0.243500346497,0.856125433313,-1.09252983395,-0.465004612637,-0.0419721367138,1.6289972188,-0.0679639308649,-1.63587632902,0.974270653881,0.2490698783,-0.68016204298,-0.080419654856
-0.249365866811,0.880098330621,-1.1534275332,-0.536502451821,-0.0767510362439,1.65306705994,-0.0706322772438,-1.70837230121,0.98563520869,0.218060290368,-0.676865692209,-0.065733378721
-0.254100098608,0.899078400391,-1.20733082386,-0.606223844116,-0.108979937245,1.66408521567,-0.071707384363,-1.76769097092,0.991486910684,0.189677884373,-0.670024649096,-0.0514948420516
-0.258094997461,0.914069068479,-1.25555572955,-0.674147856006,-0.139000405194,1.66535239307,-0.0724489232891,-1.81707318209,0.993346510917,0.163920986099,-0.660196077563,-0.0376487787772
-0.261622733825,0.925977137041,-1.2992136725,-0.740215447282,-0.16699970868,1.65964248537,-0.0737530570531,-1.8593646789,0.99236637654,0.14076100692,-0.648007634161,-0.0241530136998
-0.264856579583,0.935555692373,-1.3391913679,-0.804347988944,-0.19308635195,1.6491563339,-0.0761928760984,-1.89684449297,0.989361616741,0.120130951496,-0.634074691848,-0.0109852785001
-0.267896609347,0.943396822983,-1.37617574218,-0.8664657552,-0.217339582753,1.63556676047,-0.0800853769182,-1.93122104799,0.98488210347,0.101926014652,-0.618950527344,0.00185900339494
-0.270793301729,0.949948307002,-1.41069229335,-0.92650204571,-0.239835955601,1.62010102202,-0.0855608386854,-1.96370576912,0.97928827677,0.0860112471266,-0.603102943884,0.014372270737
-0.273566257593,0.955539001418,-1.44314236192,-0.984411739938,-0.260660341962,1.60363061811,-0.0926230160444,-1.99511151842,0.972814869346,0.0722316746829,-0.586909044054,0.0265405907775
-0.27621766513,0.960404933229,-1.47383415674,-1.04017484335,-0.27990806022,1.58675391546,-0.101196352682,-2.02594908362,0.965618441034,0.0604219964249,-0.570660900086,0.0383482757283
-0.27874125527,0.964712462987,-1.50300675247,-1.09379630054,-0.297682761859,1.56986596745,-0.111160485288,-2.05651032422,0.957810017391,0.05041453423,-0.5545766937,0.0497809991202
-0.281127826723,0.968577290063,-1.53084795532,-1.14530344017,-0.314092838881,1.55321453059,-0.122374026475,-2.08693479351,0.949475983087,0.042045092629,-0.538813693103,0.0608275569787
-0.283368369584,0.972079272063,-1.55750735296,-1.19474220261,-0.329247794401,1.53694341809,-0.134690051632,-2.11726058899,0.940690529181,0.0351568952875,-0.523480895925,0.0714806023449
-0.285455618319,0.975273558627,-1.5831057774,-1.24217298906,-0.343255206085,1.5211251348,-0.147965543359,-2.14746175973,0.931522427429,0.0296029612036,-0.508650223805,0.0817366984669
-0.287384642721,0.978198708951,-1.60774216995,-1.28766667019,-0.356218465354,1.50578487324,-0.162066646985,-2.17747497339,0.922038219034,0.0252473132165,-0.494365846025,0.0915959783654
-0.289152892603,0.980882455138,-1.63149859024,-1.3313010514,-0.36823525743,1.49091777911,-0.17687115383,-2.20721796364,0.912303280395,0.0219653654456,-0.480651616752,0.101061619759
-0.290759964027,0.983345690351,-1.65444390598,-1.37315792064,-0.379396659659,1.47650110793,-0.19226923956,-2.23660188488,0.902381735443,0.0196437659521,-0.467516818779,0.11013927117
-0.292207249992,0.985605154539,-1.6766365434,-1.41332069452,-0.389786715582,1.46250258606,-0.208163171529,-2.26553926747,0.892335825855,0.0181799010617,-0.454960488629,0.118836507668
-0.293497568346,0.987675186954,-1.69812656537,-1.45187261696,-0.399482353492,1.44888600493,-0.224466461907,-2.29394886877,0.882225104543,0.0174812083671,-0.442974607396,0.127162354559
-0.29463481512,0.989568824732,-1.7189572639,-1.48889543463,-0.408553541063,1.43561483408,-0.241102772174,-2.32175838336,0.872105656306,0.0174643988684,-0.431546414771,0.135126891734
-0.295623664531,0.991298453541,-1.73916639758,-1.52446846534,-0.417063592188,1.42265444063,-0.25800475549,-2.34890571185,0.862029447802,0.0180546541087,-0.420660062496,0.142740936761
-0.296469321535,0.992876159147,-1.75878716626,-1.55866797873,-0.42506956417,1.40997334685,-0.275112943428,-2.37533928676,0.852043847513,0.0191848394211,-0.410297780282,0.150015797489
-0.297177324701,0.994313885457,-1.77784898798,-1.59156681765,-0.432622701395,1.39754383824,-0.292374731588,-2.40101780377,0.842191321117,0.0207947572879,-0.400440687964,0.156963082288
-0.297753393454,0.995623472567,-1.7963781251,-1.6232342005,-0.439768895478,1.38534214449,-0.309743486207,-2.42590959782,0.832509288854,0.022830453329,-0.391069354797,0.163594555988
0.36821789331,0.672902586371,0.955933951724,0.922376136834,0.441014225896,-0.0907945541464,0.0651861818125,-0.436666984997,0.0362228051479,0.881174138687,-0.0790326547694,0.159699946683
0.36840875615,0.672696208719,0.955082686446,0.922416853021,0.441366904697,-0.086390304943,0.063241505479,-0.430245439952,0.0381611484406,0.881858133427,-0.0879057186898,0.159715819648
0.368590587285,0.672500011322,0.954242162562,0.922453267178,0.441710734891,-0.0819863250105,0.0612970740838,-0.423872943775,0.040109380285,0.882534186424,-0.0967278813495,0.159729788249
0.368763391568,0.672313970091,0.953412260065,0.922485419806,0.442045889325,-0.0775864088364,0.0593505411765,-0.417552953077,0.0420651822396,0.883202416272,-0.105504534794,0.159739307371
0.368927171472,0.67213805838,0.952592841484,0.922513347317,0.4423725085,-0.0731903626031,0.05740179662,-0.411284989223,0.0440284531313,0.88386292553,-0.114236199803,0.159744552159
0.36908192878,0.671972250238,0.951783771103,0.922537085171,0.4426907303,-0.068797992859,0.0554507298875,-0.405068582667,0.0459990943452,0.884515815333,-0.122923390258,0.159745695975
0.369227664585,0.671816520395,0.950984914918,0.922556667888,0.443000690061,-0.0644091065257,0.0534972300525,-0.398903272792,0.0479770097816,0.88516118543,-0.131566613323,0.159742910428
0.369364379295,0.671670844254,0.950196140597,0.922572129064,0.443302520621,-0.0600235108747,0.0515411857857,-0.392788607737,0.0499621058192,0.885799134216,-0.140166369576,0.1597363654
0.369492072636,0.671535197879,0.949417317443,0.922583501376,0.443596352389,-0.0556410135031,0.0495824853503,-0.386724144215,0.0519542912789,0.886429758769,-0.14872315315,0.159726229087
0.369610743658,0.671409557989,0.948648316354,0.922590816602,0.443882313393,-0.0512614223109,0.0476210165983,-0.38070944735,0.0539534773898,0.887053154882,-0.157237451857,0.159712668023
0.369720390734,0.671293901943,0.947889009788,0.922594105629,0.444160529337,-0.046884545478,0.0456566669662,-0.374744090508,0.0559595777553,0.887669417094,-0.165709747316,0.15969584711
0.369821011567,0.671188207737,0.947139271724,0.922593398462,0.444431123658,-0.0425101914419,0.0436893234704,-0.368827655139,0.0579725083206,0.888278638724,-0.174140515079,0.159675929654
0.369912603188,0.671092453989,0.946398977633,0.922588724237,0.44469421757,-0.0381381688756,0.0417188727033,-0.36295973062,0.0599921873416,0.8888809119,-0.182530224748,0.159653077387
0.369995161963,0.671006619935,0.945668004435,0.922580111234,0.444949930124,-0.0337682866659,0.0397452008284,-0.357139914103,0.0620185353536,0.889476327588,-0.190879340093,0.1596274505
0.370068683594,0.670930685418,0.944946230475,0.922567586881,0.44519837825,-0.0294003538918,0.0377681935759,-0.351367810371,0.0640514751422,0.890064975623,-0.199188319167,0.159599207666
0.370133163118,0.670864630879,0.944233535485,0.922551177768,0.445439676806,-0.0250341798042,0.0357877362379,-0.345643031692,0.0660909317144,0.890646944738,-0.207457614417,0.159568506071
0.370188594916,0.670808437351,0.943529800553,0.922530909656,0.445673938628,-0.0206695738042,0.0338037136638,-0.339965197681,0.0681368322705,0.891222322587,-0.215687672794,0.159535501438
0.370234972707,0.670762086449,0.942834908093,0.922506807486,0.445901274571,-0.0163063454236,0.0318160102551,-0.334333935163,0.0701891061775,0.891791195779,-0.223878935853,0.159500348052
0.370272289556,0.670725560365,0.942148741815,0.922478895387,0.446121793554,-0.0119443043043,0.0298245099608,-0.328748878047,0.0722476849423,0.892353649897,-0.232031839866,0.159463198787
0.370300537872,0.670698841857,0.941471186697,0.922447196683,0.446335602604,-0.0075832601786,0.0278290962722,-0.32320966719,0.0743125021868,0.892909769531,-0.240146815914,0.159424205129
0.37031970941,0.670681914242,0.940802128953,0.922411733907,0.446542806898,-0.00322302284965,0.0258296522179,-0.31771595028,0.076383493623,0.893459638297,-0.248224289989,0.1593835172
0.370329795272,0.670674761394,0.940141456006,0.922372528801,0.446743509801,0.00113659782764,0.0238260603585,-0.312267381709,0.0784605970289,0.894003338865,-0.256264683089,0.159341283783
0.370330785913,0.670677367728,0.939489056464,0.922329602332,0.446937812909,0.00549579196575,0.0218182027813,-0.306863622461,0.0805437522258,0.89454095298,-0.264268411314,0.159297652342
0.370322671133,0.670689718201,0.93884482009,0.92228297469,0.447125816085,0.00985474966318,0.019805961095,-0.301504339992,0.0826329010554,0.895072561488,-0.272235885953,0.159252769046
0.370305440084,0.670711798302,0.938208637776,0.922232665305,0.447307617495,0.014213661023,0.0177892164245,-0.296189208122,0.0847279873581,0.895598244361,-0.280167513575,0.15920677879
0.370279081272,0.670743594044,0.937580401518,0.922178692847,0.44748331365,0.018572716171,0.0157678494049,-0.290917906924,0.086828956952,0.896118080711,-0.288063696117,0.159159825219
0.370243582552,0.67078509196,0.936960004394,0.922121075234,0.447652999437,0.0229321052738,0.0137417401764,-0.285690122622,0.0889357576124,0.896632148819,-0.295924830969,0.159112050744
0.370198931133,0.670836279097,0.936347340535,0.922059829641,0.447816768153,0.0272920185565,0.0117107683783,-0.280505547483,0.0910483390517,0.897140526156,-0.303751311052,0.159063596566
0.370145113576,0.670897143007,0.935742305105,0.921994972502,0.447974711543,0.0316526463203,0.00967481314357,-0.275363879722,0.0931666529006,0.897643289399,-0.311543524906,0.159014602695
0.370082115796,0.670967671743,0.935144794274,0.921926519519,0.44812691983,0.0360141789599,0.0076337530928,-0.270264823403,0.0952906526891,0.898140514456,-0.319301856764,0.158965207971
0.370009923059,0.671047853852,0.934554705202,0.921854485669,0.448273481748,0.0403768069806,0.00558746632853,-0.26520808834,0.0974202938284,0.898632276482,-0.32702668663,0.158915550077
0.369928519986,0.671137678371,0.933971936007,0.921778885202,0.448414484571,0.0447407210151,0.0035358304292,-0.260193390012,0.0995555335938,0.899118649903,-0.334718390356,0.158865765568
0.369837890549,0.67123713482,0.933396385754,0.921699731657,0.448550014148,0.0491061118404,0.00147872244321,-0.255220449467,0.101696331107,0.899599708429,-0.342377339711,0.15881598988
0.369738018076,0.671346213195,0.932827954425,0.921617037856,0.448680154928,0.0534731703943,-0.000583981117214,-0.250288993237,0.103842647321,0.90007552508,-0.350003902461,0.158766357352
0.369628885241,0.671464903966,0.932266542904,0.921530815918,0.448804989992,0.0578420877916,-0.00265240428209,-0.245398753253,0.105994445003,0.900546172195,-0.35759844243,0.158717001242
0.369510474076,0.671593198069,0.931712052954,0.921441077258,0.448924601081,0.0622130553408,-0.00472667162992,-0.24054946676,0.108151688718,0.901011721459,-0.365161319573,0.158668053747
0.369382765959,0.671731086901,0.931164387197,0.921347832592,0.44903906862,0.0665862645595,-0.00680690829395,-0.235740876238,0.110314344817,0.901472243913,-0.372692890045,0.158619646017
0.369245741621,0.671878562317,0.930623449095,0.921251091944,0.449148471751,0.0709619071904,-0.00889323996851,-0.230972729322,0.11248238142,0.901927809976,-0.380193506261,0.158571908171
0.369099381141,0.672035616621,0.930089142934,0.921150864645,0.449252888355,0.0753401752175,-0.0109857929154,-0.226244778726,0.114655768403,0.902378489458,-0.387663516964,0.158524969315
0.368943663946,0.672202242564,0.929561373798,0.921047159343,0.449352395078,0.0797212608807,-0.0130846939703,-0.221556782169,0.116834477385,0.90282435158,-0.395103267285,0.158478957557
0.36877856881,0.672378433341,0.92904004756,0.920939984001,0.449447067355,0.0841053566921,-0.0151900705494,-0.216908502298,0.119018481711,0.903265464984,-0.402513098807,0.158434000022
0.368604073854,0.672564182579,0.928525070856,0.920829345902,0.449536979438,0.0884926554507,-0.017302050656,-0.212299706622,0.121207756447,0.903701897758,-0.409893349621,0.158390222869
0.368420156543,0.672759484341,0.928016351072,0.920715251655,0.449622204417,0.0928833502574,-0.0194207628868,-0.207730167441,0.12340227836,0.90413371744,-0.417244354387,0.158347751303
0.368226793686,0.672964333115,0.927513796326,0.920597707194,0.449702814243,0.0972776345302,-0.0215463364392,-0.203199661776,0.12560202591,0.904560991042,-0.424566444389,0.15830670959
0.368023961432,0.673178723813,0.927017315451,0.920476717781,0.449778879752,0.101675702019,-0.0236789011175,-0.198707971307,0.12780697924,0.904983785061,-0.431859947591,0.158267221073
0.367811635271,0.673402651764,0.926526817978,0.920352288013,0.449850470685,0.10607774682,-0.0258185873401,-0.194254882308,0.13001712016,0.905402165493,-0.439125188693,0.158229408184
0.367589790032,0.673636112712,0.92604221412,0.92022442182,0.449917655711,0.110483963391,-0.0279655261461,-0.189840185582,0.132232432142,0.905816197847,-0.446362489183,0.15819339246
0.367358399879,0.673879102809,0.925563414758,0.920093122467,0.449980502449,0.114894546564,-0.0301198492025,-0.185463676403,0.134452900304,0.90622594716,-0.453572167389,0.158159294552
0.367117438313,0.674131618615,0.925090331421,0.91995839256,0.450039077486,0.119309691562,-0.032281688811,-0.181125154457,0.136678511406,0.906631478012,-0.460754538529,0.158127234244
0.366866878166,0.674393657087,0.924622876276,0.919820234046,0.4500934464,0.123729594011,-0.034451177915,-0.17682442378,0.138909253835,0.907032854534,-0.467909914763,0.15809733046
0.3666066916,0.674665215581,0.92416096211,0.919678648211,0.450143673776,0.128154449955,-0.0366284501071,-0.172561292708,0.141145117599,0.907430140427,-0.475038605237,0.158069701279
0.366336850106,0.674946291847,0.923704502317,0.91953363569,0.450189823227,0.132584455869,-0.0388136396355,-0.168335573815,0.143386094319,0.90782339897,-0.482140916137,0.15804446395
0.366057324503,0.675236884021,0.923253410879,0.919385196458,0.450231957415,0.137019808676,-0.0410068814121,-0.164147083866,0.145632177215,0.908212693035,-0.48921715073,0.158021734898
0.36576808493,0.675536990624,0.92280760236,0.919233329841,0.450270138063,0.141460705756,-0.043208311019,-0.15999564376,0.147883361104,0.9085980851,-0.496267609413,0.158001629742
0.36546910085,0.675846610559,0.922366991886,0.91907803451,0.450304425979,0.145907344962,-0.0454180647165,-0.155881078481,0.150139642388,0.908979637258,-0.503292589753,0.157984263301
0.365160341043,0.676165743103,0.921931495132,0.918919308486,0.450334881071,0.150359924635,-0.0476362794497,-0.151803217048,0.152401019048,0.909357411232,-0.510292386537,0.157969749611
0.364841773607,0.67649438791,0.921501028312,0.918757149139,0.450361562363,0.154818643614,-0.0498630928565,-0.147761892466,0.154667490637,0.909731468383,-0.517267291806,0.15795820193
0.36451336595,0.676832544999,0.92107550816,0.91859155319,0.450384528012,0.159283701252,-0.052098643275,-0.143756941681,0.15693905827,0.910101869727,-0.524217594905,0.157949732754
0.364175084795,0.677180214755,0.920654851925,0.91842251671,0.450403835324,0.163755297428,-0.0543430697508,-0.139788205531,0.159215724622,0.910468675939,-0.531143582518,0.157944453824
0.363826896167,0.677537397925,0.920238977351,0.91825003512,0.450419540773,0.16823363256,-0.0565965120444,-0.135855528703,0.161497493915,0.910831947369,-0.538045538708,0.15794247614
0.363468765401,0.677904095613,0.91982780267,0.918074103193,0.450431700011,0.172718907619,-0.0588591106395,-0.131958759687,0.163784371919,0.911191744052,-0.54492374496,0.157943909967
0.648568915111,0.260433408713,0.519458327452,0.402247942477,0.688339973422,-0.590070881806,0.832130650787,-0.393204331976,0.461708725764,0.367236188481,-1.67592137843,1.13197690147
0.667730693428,0.275169141666,0.530529618521,0.432323190304,0.710424708889,-1.15012440923,0.991511063381,-0.959927898827,0.62204538102,0.380963398656,-2.7466448296,1.43413427086
0.681975712436,0.280572089163,0.535124278802,0.449844616366,0.724641828452,-1.38829458179,1.05838264629,-1.20004895418,0.68850056267,0.392074840305,-3.2004819967,1.55892844551
0.692315052689,0.279764135871,0.534666119472,0.458341315148,0.731731305868,-1.49321772129,1.08697668879,-1.30505581063,0.716131259195,0.400208970312,-3.39956812792,1.61047855818
0.700627989568,0.275846644005,0.531592788927,0.462244698431,0.735032171322,-1.54046067397,1.09966307064,-1.35158715132,0.727627227317,0.406706766657,-3.48849721439,1.63159437251
0.707984240122,0.270474998427,0.527283548276,0.463990262431,0.736524948659,-1.56212535677,1.10573424025,-1.37218687561,0.732410145378,0.412413605072,-3.52857490235,1.64002648961
0.714903967465,0.264437593911,0.522408078577,0.46474874529,0.737184613076,-1.57231971633,1.10906076823,-1.38115454983,0.734403751765,0.417753077619,-3.5467176599,1.64316220832
0.721628240497,0.258096537355,0.517276604943,0.46505982117,0.737465215095,-1.57734863771,1.1112561534,-1.38488016578,0.735243579819,0.422923990978,-3.55494939348,1.64407990404
0.728266819084,0.251615870491,0.512030309797,0.465168382666,0.73757387836,-1.58005214404,1.11299300282,-1.38624196617,0.735611386336,0.428017443161,-3.55868529268,1.64406265868
0.73486935399,0.245069484737,0.506732974621,0.465184871925,0.737604306933,-1.5817142216,1.11455160655,-1.38654118073,0.735791254133,0.433074795437,-3.56037343029,1.64364513178
0.741458276284,0.238490569168,0.501413314187,0.465158981603,0.737598754861,-1.58291636016,1.11604871251,-1.38636708792,0.735901492913,0.438114775895,-3.56112246169,1.64305000863
0.748043743642,0.231893992499,0.496084223285,0.465113055436,0.737576254384,-1.58392212075,1.11753292543,-1.38598676119,0.73599133956,0.443145874673,-3.56143487542,1.64236998073
0.754630388069,0.225286385289,0.4907514707,0.465057139751,0.737545376478,-1.58485101546,1.11902447315,-1.38552128781,0.736081266772,0.448171961716,-3.56153851051,1.64164360282
0.761220354633,0.218670673795,0.485417616592,0.464995752169,0.73750998186,-1.58575725449,1.12053177448,-1.3850255748,0.736179776811,0.453194823562,-3.56153669468,1.64088689838
0.767814668895,0.212048118038,0.480083776199,0.464930923926,0.737471810276,-1.58666543671,1.1220583376,-1.38452451951,0.736290394081,0.458215307324,-3.56147629314,1.64010652031
0.774413852256,0.205419228151,0.474750413878,0.4648635675,0.737431646098,-1.58758673182,1.12360563045,-1.38402940929,0.736414574715,0.463233836394,-3.56137856297,1.6393052274
0.781018198969,0.198784176566,0.469417700679,0.464794091668,0.737389843167,-1.58852621873,1.1251742742,-1.38354535858,0.736552916334,0.468250642955,-3.56125314571,1.63848416152
0.787627900896,0.192142983519,0.464085675439,0.46472267827,0.737346561194,-1.58948621383,1.12676453908,-1.38307468202,0.736705660632,0.47326587284,-3.56110441384,1.63764379377
0.794243103726,0.185495600587,0.458754317383,0.464649406808,0.737301872303,-1.59046778057,1.12837655009,-1.38261842426,0.736872901972,0.478279632832,-3.5609343495,1.63678431717
0.800863932317,0.178841948321,0.453423578863,0.464574310582,0.737255809055,-1.59147141426,1.1300103724,-1.382177054,0.737054673872,0.483292012016,-3.56074385025,1.63590580954
0.807490502135,0.172181933218,0.448093400124,0.464497401984,0.737208386116,-1.59249735265,1.13166604664,-1.38175077876,0.737250984833,0.488303091419,-3.56053332148,1.63500830091
0.814122924409,0.165515455366,0.442763715969,0.464418683914,0.737159610028,-1.59354571684,1.13334360352,-1.38133968766,0.737461833146,0.493312948363,-3.56030294516,1.63409180145
0.820761308464,0.1588424119,0.437434458767,0.464338154921,0.737109483626,-1.59461657522,1.13504306987,-1.38094381625,0.73768721302,0.498321658432,-3.56005280171,1.633156313
0.827405762775,0.152162698555,0.432105559809,0.46425581153,0.737058008027,-1.59570997245,1.13676447115,-1.38056317587,0.737927117099,0.503329296363,-3.55978292535,1.63220183382
0.834056395441,0.145476210373,0.426776949922,0.464171649293,0.737005183533,-1.59682594263,1.13850783243,-1.38019776699,0.738181537501,0.508335936448,-3.55949332916,1.63122836054
0.840713314403,0.138782842018,0.421448559746,0.464085663256,0.736951010034,-1.59796451527,1.14027317888,-1.37984758526,0.738450466249,0.513341652715,-3.55918401652,1.63023588896
0.847376627542,0.132082487918,0.416120319862,0.463997848181,0.736895487198,-1.59912571798,1.14206053585,-1.37951262424,0.73873389544,0.518346519015,-3.55885498622,1.62922441441
0.854046442727,0.125375042329,0.410792160839,0.463908198637,0.736838614548,-1.60030957773,1.14386992903,-1.37919287667,0.739031817316,0.523350609055,-3.55850623485,1.62819393185
0.86072286783,0.118660399361,0.405464013268,0.463816709045,0.736780391502,-1.60151612137,1.14570138441,-1.37888833504,0.739344224299,0.528353996422,-3.55813775784,1.62714443596
0.867406010742,0.111938452993,0.400135807769,0.463723373699,0.736720817393,-1.60274537593,1.14755492835,-1.37859899179,0.739671108994,0.533356754584,-3.55774954995,1.62607592111
0.874095979377,0.105209097077,0.394807474995,0.463628186775,0.736659891471,-1.60399736869,1.14943058753,-1.3783248395,0.740012464198,0.538358956902,-3.55734160548,1.62498838145
0.880792881673,0.0984722253373,0.389478945633,0.463531142331,0.736597612912,-1.60527212725,1.151328389,-1.37806587089,0.740368282902,0.543360676626,-3.55691391838,1.62388181082
0.887496825595,0.0917277313722,0.384150150407,0.463432234314,0.736533980816,-1.60656967956,1.15324836014,-1.37782207887,0.740738558286,0.548361986901,-3.55646648231,1.62275620285
0.894207919141,0.0849755086521,0.378821020078,0.463331456554,0.736468994209,-1.60789005392,1.15519052868,-1.37759345652,0.741123283727,0.553362960767,-3.55599929063,1.62161155086
0.900926270334,0.0782154505191,0.373491485438,0.463228802773,0.736402652045,-1.60923327899,1.15715492271,-1.37737999714,0.741522452789,0.558363671157,-3.55551233644,1.62044784796
0.907651987234,0.0714474501853,0.368161477315,0.463124266574,0.736334953204,-1.6105993838,1.15914157065,-1.37718169421,0.741936059232,0.563364190903,-3.55500561254,1.61926508697
0.914385177932,0.0646714007316,0.362830926573,0.463017841451,0.736265896491,-1.61198839773,1.16115050129,-1.37699854141,0.742364097002,0.568364592733,-3.5544791115,1.61806326047
0.921125950552,0.0578871951065,0.357499764104,0.462909520783,0.736195480639,-1.61340035053,1.16318174376,-1.37683053263,0.74280656024,0.573364949275,-3.55393282561,1.61684236078
0.927874413257,0.0510947261244,0.352167920835,0.462799297834,0.73612370431,-1.61483527231,1.16523532752,-1.37667766194,0.743263443274,0.578365333053,-3.55336674687,1.61560237995
0.934630674244,0.0442938864645,0.346835327724,0.462687165755,0.736050566089,-1.61629319354,1.16731128241,-1.37653992361,0.74373474062,0.583365816494,-3.55278086706,1.61434330982
0.941394841749,0.0374845686696,0.341501915759,0.462573117582,0.735976064491,-1.61777414506,1.16940963858,-1.37641731212,0.744220446987,0.588366471923,-3.55217517767,1.61306514192
0.948167024047,0.0306666651444,0.336167615959,0.462457146236,0.735900197957,-1.61927815807,1.17153042657,-1.37630982213,0.744720557268,0.593367371569,-3.55154966992,1.61176786757
0.954947329455,0.0238400681543,0.330832359371,0.462339244524,0.735822964855,-1.62080526413,1.17367367723,-1.37621744849,0.745235066546,0.598368587561,-3.5509043348,1.61045147782
0.961735866329,0.0170046698243,0.325496077071,0.462219405135,0.735744363481,-1.62235549517,1.17583942177,-1.37614018627,0.745763970088,0.603370191932,-3.550239163,1.60911596347
0.968532743069,0.0101603621373,0.320158700164,0.462097620645,0.735664392055,-1.62392888349,1.17802769177,-1.3760780307,0.746307263352,0.608372256619,-3.54955414497,1.60776131507
0.975338068118,0.0033070369333,0.31482015978,0.461973883512,0.735583048728,-1.62552546172,1.18023851912,-1.37603097722,0.746864941978,0.613374853463,-3.54884927091,1.60638752291
0.982151949965,-0.00355541409252,0.309480387077,0.461848186079,0.735500331576,-1.62714526289,1.18247193608,-1.37599902148,0.747437001793,0.618378054212,-3.54812453073,1.60499457705
0.988974497145,-0.0104270993906,0.304139313239,0.461720520572,0.735416238602,-1.62878832038,1.18472797525,-1.3759821593,0.74802343881,0.623381930518,-3.5473799141,1.60358246729
0.995805818238,-0.0173081275585,0.298796869475,0.461590879098,0.735330767738,-1.63045466792,1.18700666958,-1.37598038668,0.748624249223,0.628386553939,-3.54661541044,1.60215118319
1.00264602188,-0.024198607342,0.293452987018,0.46145925365,0.73524391684,-1.63214433962,1.18930805237,-1.37599369984,0.749239429413,0.633391995945,-3.54583100889,1.60070071404
1.00949521673,-0.0310986476367,0.288107597125,0.461325636099,0.735155683694,-1.63385736995,1.19163215725,-1.37602209519,0.749868975944,0.638398327909,-3.54502669835,1.5992310489
1.01635351155,-0.0380083574889,0.282760631077,0.461190018203,0.735066066013,-1.63559379374,1.19397901822,-1.37606556929,0.75051288556,0.643405621117,-3.54420246746,1.59774217659
0.0873697243342,0.498269617187,0.827373426312,0.587585449794,0.61945755468,-0.42703550485,0.244063895511,0.264142343798,0.23829479128,0.00608778732068,-0.634211326115,0.0649463879441
0.000958583269764,0.341397842321,1.00401905095,0.46223499348,0.368907598622,-0.379528216345,0.188439802274,0.496543109085,0.213051241703,-0.091843056902,-0.812738910483,0.131585957758
-0.0875169299109,0.191757558244,1.30529951938,0.336230999544,0.0520945801506,-0.404070020017,0.129758166052,0.831802349962,0.18486528519,-0.198932548318,-0.98697213495,0.19690989307
-0.176783154157,0.035737306021,1.74112953846,0.223033983017,-0.340887298985,-0.499019681876,0.0629332090046,1.27291050076,0.155776711839,-0.313089310141,-1.14982112435,0.261053020034
-0.269418480066,-0.110841602112,2.23704270011,0.130185786114,-0.787900373966,-0.628413302966,-0.0125468368594,1.7408559253,0.119202797127,-0.412639561871,-1.2708483922,0.325869720569
-0.369864648705,-0.210626639579,2.66404068911,0.0523492156607,-1.26915883278,-0.731457776969,-0.098351517583,2.11523131987,0.0747728709865,-0.477769395746,-1.31539409497,0.391005602419
-0.478744704795,-0.247269255275,2.96659803099,-0.0216228005787,-1.78843483968,-0.777638747205,-0.197567407243,2.355648788,0.0323084986743,-0.51302018208,-1.27896525002,0.452731040529
-0.5915529868,-0.229111638023,3.17874973117,-0.0956029989023,-2.32970627742,-0.778675707185,-0.30973380509,2.49553878448,-0.00436578963367,-0.521562233903,-1.19486421886,0.509324498603
-0.702062693669,-0.17054932215,3.35149339172,-0.167662351896,-2.8551273088,-0.756705389671,-0.431985327798,2.57813980313,-0.0351020584277,-0.497580182895,-1.10538726068,0.561274048791
-0.805255943965,-0.0842334667543,3.51266622928,-0.236551673929,-3.3359266149,-0.723354329711,-0.560534315913,2.63220195851,-0.05872806823,-0.438472421309,-1.03457447307,0.609433592506
-0.897506347092,0.0200119540065,3.66888873,-0.303002922404,-3.76438189987,-0.679986650494,-0.691132459498,2.67276266071,-0.073123085542,-0.349357518699,-0.98734194937,0.654013625414
-0.975990298616,0.134977668436,3.81825365606,-0.36846880057,-4.14542113218,-0.624313135656,-0.819340811808,2.70648199662,-0.0767176588825,-0.23862333168,-0.96049049849,0.694638288993
-1.03855449911,0.255563861177,3.95773237047,-0.434355578743,-4.48705098884,-0.554155688111,-0.940893806704,2.73576233805,-0.0692357805229,-0.113854420405,-0.949686033379,0.730722971427
-1.08387690945,0.378329694507,4.08534270733,-0.501866042967,-4.796191486,-0.468372404214,-1.05201556816,2.76109369706,-0.0515834153465,0.0193479734409,-0.951506977009,0.761702636448
-1.11159579968,0.501208074816,4.20022645854,-0.572015514415,-5.07792928373,-0.366757656647,-1.14955233435,2.78222849565,-0.0253819899786,0.157108309542,-0.963530406189,0.787086658163
-1.12229803938,0.623323286067,4.30227539441,-0.645666440822,-5.33588172492,-0.249814222048,-1.23092027566,2.79872696212,0.00748610408649,0.296750088431,-0.98399678912,0.806434589661
-1.11739723053,0.744830918435,4.39179352689,-0.723580491413,-5.5726796426,-0.118641028567,-1.29394543024,2.81018018109,0.0451684602482,0.436383278981,-1.01149164727,0.819314351594
-1.09896538524,0.866736172855,4.46926502365,-0.806502975944,-5.79032236774,0.0250397032964,-1.33669623861,2.81627673966,0.0859477335055,0.574645410222,-1.04470370771,0.825271820813
-1.06956103303,0.990674669543,4.53520355496,-0.895272356965,-5.99040592221,0.178749030222,-1.35741163187,2.81681030845,0.128194770787,0.710554453455,-1.08223576049,0.823835555343
-1.03206153798,1.11864784409,4.5900629555,-0.990927374361,-6.17426929247,0.339075258046,-1.35461690509,2.81168594159,0.170231530803,0.843428894292,-1.12245119242,0.814584902284
-0.989478088547,1.25270439561,4.63420896995,-1.09477164398,-6.34309088337,0.501560644166,-1.32748365029,2.80095104421,0.210190342742,0.972837536783,-1.16337157598,0.797304536074
-0.944720862053,1.3945682929,4.66796100395,-1.20835109848,-6.49794778108,0.660797065437,-1.2764059966,2.78484604629,0.245976800306,1.09854727518,-1.20267482284,0.772218677741
-0.900301117965,1.54524688454,4.69170130204,-1.33330975518,-6.63983943255,0.810868254004,-1.20362634028,2.763843547,0.275434251736,1.22044827459,-1.23785394585,0.740239902294
-0.858009052202,1.70470566725,4.70601760397,-1.47112300178,-6.769680711,0.946160198783,-1.1136053894,2.7386369363,0.296734617375,1.33845819099,-1.26655401724,0.70310568606
-0.818665840966,1.8717341554,4.71181239184,-1.62276199459,-6.88828490246,1.06234872737,-1.01282140034,2.71006307456,0.308887562295,1.45243312232,-1.28700861556,0.663269978162
-0.782062541933,2.04409897603,4.71030909309,-1.78839130986,-6.99636875222,1.15720045096,-0.908897410938,2.6789867943,0.312147094407,1.56212459432,-1.29840721072,0.623513865717
-0.747133090096,2.21897061577,4.70292991179,-1.96720907929,-7.09459900359,1.23085834199,-0.809305160181,2.64619931599,0.308106430462,1.66720611289,-1.30102750313,0.586398978766
-0.712300259024,2.39347809631,4.69108673484,-2.15749526771,-7.1836654513,1.28553268865,-0.720129849309,2.61236423844,0.299423399918,1.76735814901,-1.29607821323,0.553788383971
-0.675865053577,2.56518712529,4.67596718963,-2.35686443264,-7.26434051107,1.32479328615,-0.645323607389,2.57800625398,0.289300002087,1.86237226286,-1.28533554722,0.526617185301
-0.636322443414,2.73235632737,4.65838784394,-2.56265348226,-7.33749350052,1.35277184848,-0.586594717709,2.54351774575,0.280924887153,1.95223285269,-1.27072652177,0.504949760669
-0.592546782825,2.8939525681,4.63874402968,-2.77233226045,-7.40405773139,1.37351475783,-0.543793042137,2.50916554865,0.277047922582,2.03715505637,-1.25399282635,0.488227699311
-0.543847402224,3.04950726479,4.61704501948,-2.98382334582,-7.46497203823,1.3905823299,-0.515520292305,2.47509550241,0.279754775759,2.11758027347,-1.23649975056,0.475568309935
-0.489927181614,3.19892105982,4.59300324527,-3.19566175573,-7.52112234551,1.40687437561,-0.499725721891,2.44133972721,0.290420950509,2.19414234879,-1.21918539224,0.466010396924
-0.430787226164,3.34229215675,4.56614568503,-3.40699025494,-7.57329935311,1.42460888566,-0.494157593854,2.40782969512,0.309782015413,2.2676175346,-1.20260523214,0.458668463449
-0.366616783909,3.47979823444,4.53592462053,-3.61743535002,-7.6221764725,1.44537818372,-0.496643636023,2.37441366645,0.338054408277,2.33886693437,-1.18702033793,0.452804512249
-0.297696241828,3.6116310989,4.50181505584,-3.82692575184,-7.66830420262,1.47022872467,-0.505232337311,2.34087488866,0.375059837718,2.40877657785,-1.17249121157,0.447845495776
-0.224328511966,3.73797092664,4.46339284446,-4.03550663849,-7.71211439434,1.49973689403,-0.518244221617,2.30694790551,0.420329677497,2.47819910696,-1.15895779202,0.443372874801
-0.146804004731,3.8589857219,4.42039039289,-4.24318539464,-7.75392884938,1.53407372237,-0.534275937317,2.27233262681,0.473185066355,2.54790167185,-1.14629987961,0.439101443057
-0.0653971386199,3.9748442471,4.37272735358,-4.44982800695,-7.79396931726,1.5730634033,-0.552185527381,2.23670737975,0.532800262975,2.61852577469,-1.13437918592,0.434855671636
0.0196131455843,4.08573366157,4.32051440259,-4.65511235251,-7.832368414,1.61624421185,-0.571072996708,2.19974193677,0.598260407195,2.69056494246,-1.12306626645,0.43054625856
0.107910588266,4.19187560014,4.26403072843,-4.85853400975,-7.86918225254,1.66293756807,-0.590259720433,2.16110985883,0.66862121729,2.76436400533,-1.1122554457,0.426147343821
0.199110183045,4.29353662305,4.20368018808,-5.05945151615,-7.90440544651,1.71232451696,-0.609264603844,2.12049781565,0.742970454693,2.84013932794,-1.10187035039,0.421674807865
0.29274006976,4.39103102636,4.13993537191,-5.25715271914,-7.93798813926,1.76352272499,-0.627774207829,2.07760923352,0.820483996155,2.91801419723,-1.09186252896,0.417166787082
0.388243416057,4.48471582607,4.07328072816,-5.45092369697,-7.96985367283,1.81565457546,-0.645606753425,2.03216097247,0.900467059727,2.99806015903,-1.08220572146,0.412667895942
0.485000175915,4.57497915382,4.00416435822,-5.640106331,-7.99991514154,1.867898945,-0.662673293461,1.98387383096,0.98237417368,3.08033495323,-1.07288825083,0.40821822475
0.582363201022,4.6622242161,3.93296402274,-5.82413750238,-8.02808954182,1.91952391324,-0.678940990192,1.9324592835,1.06580715312,3.16491041006,-1.06390552876,0.403847257091
0.679700870436,4.7468513259,3.85996834955,-6.00256916457,-8.05430920018,1.96990218134,-0.694402646812,1.87760537051,1.15049515739,3.2518874551,-1.05525391885,0.399571968058
0.776439056078,4.82924033432,3.78537095013,-6.17507253619,-8.07853111646,2.01851354092,-0.709054332936,1.81896429475,1.23626297304,3.34139848551,-1.04692644237,0.395397897143
0.872097531443,4.90973519591,3.7092737557,-6.34143122465,-8.10074542528,2.06493914271,-0.722880579616,1.75614363579,1.32299321263,3.43359904979,-1.0389102628,0.391321983323
0.966318450176,4.98863161099,3.63169603465,-6.50152795408,-8.1209842371,2.10885135229,-0.735845182766,1.68870268191,1.4105864113,3.52865117091,-1.03118561615,0.387336232897
1.05888639989,5.06616793889,3.55258653622,-6.65532859695,-8.13933172006,2.15000156931,-0.747885378506,1.61615541205,1.49892129599,3.6267004376,-1.02372582447,0.383431650766
1.14974047762,5.14251905032,3.47183739554,-6.802866031,-8.15593550529,2.18820712462,-0.758907785923,1.53798205969,1.58781657154,3.72784880811,-1.01649814944,0.379602150314
1.23897889435,5.21779259491,3.3892994472,-6.94422529879,-8.17101839328,2.22333750485,-0.76878566191,1.45365164257,1.67699573176,3.83212537635,-1.00946541989,0.375848290192
1.326856026,5.29202734397,3.30479923777,-7.0795307468,-8.18488798534,2.25529972784,-0.777358329433,1.36265781972,1.76605764646,3.93945831648,-1.00258851879,0.372180649793
1.41377093933,5.36519380007,3.21815820052,-7.20893524779,-8.19794050317,2.28402269368,-0.784434795954,1.2645692363,1.85445764923,4.04965265653,-0.995829862694,0.368622476203
1.50024573512,5.43719800548,3.12921410603,-7.33261120282,-8.21065424037,2.30944075631,-0.789804157232,1.15909244264,1.94150573514,4.16237977113,-0.989157872288,0.365210996091
1.58689221429,5.50789012035,3.03784405988,-7.450742754,-8.22356864996,2.33147756069,-0.793254847019,1.04614035971,2.02638888279,4.27718441087,-0.982552074263,0.361996639596
1.67436695882,5.57707939886,2.94398718027,-7.56351856661,-8.23724775903,2.35003218616,-0.794602703892,0.925893234262,2.10822181891,4.39351255822,-0.976007952882,0.359039570677
1.76331798494,5.64455620587,2.84766406348,-7.67112476931,-8.25223132087,2.36497039214,-0.793724343636,0.798834939323,2.18612394118,4.51075817426,-0.969540216462,0.356403498672
1.85432975742,5.71011964057,2.74898974805,-7.77373820094,-8.26898229768,2.3761236698,-0.790588687033,0.665748992623,2.2593110183,4.62832052016,-0.963183111006,0.35414766765
1.94787577233,5.773606872,2.64817749124,-7.87152079075,-8.28784225,2.3832974359,-0.785277784291,0.527667648898,2.32718270151,4.74565929846,-0.956987047123,0.352318784116
2.04428743044,5.83491873504,2.54553225058,-7.96461625936,-8.30900488689,2.38628729788,-0.777989960163,0.385781360131,2.38938546698,4.86233512305,-0.951011969268,0.350944926561
2.14374420798,5.89403654481,2.44143485555,-8.0531500252,-8.3325126167,2.38489988721,-0.769023505052,0.241328349347,2.44583720582,4.97802799464,-0.945319035615,0.3500329208
2.24628466815,5.95102744133,2.3363197495,-8.1372323304,-8.35827405056,2.3789735497,-0.758745237781,0.095488779409,2.49671141526,5.09253381106,-0.939962677897,0.349569510779
2.35183301706,6.00603871902,2.2306502418,-8.21696368258,-8.38609524773,2.36839480679,-0.74755228662,-0.050696593641,2.5423900824,5.20574485836,-0.934984751061,0.349525499461
2.46023345395,6.05928407095,2.12489515001,-8.29244127039,-8.41571579066,2.35310852265,-0.735835851575,-0.196373709679,2.58340027117,5.31762261754,-0.930411557262,0.349861391165
2.57128481696,6.11102565317,2.01950969316,-8.36376520072,-8.44684221893,2.33312203034,-0.723953137895,-0.340889338878,2.62034914589,5.42817028692,-0.926253567753,0.350533071036
2.68477010029,6.16155542598,1.91492200678,-8.43104398291,-8.47917440052,2.30850510246,-0.712209937011,-0.483779726624,2.65386780968,5.53740972372,-0.922507060989,0.35149650137
2.8004780569,6.2111779917,1.81152523166,-8.49439929295,-8.51242350572,2.27938820922,-0.700853188442,-0.624743610727,2.68456890742,5.64536465118,-0.919156737952,0.352710978536
2.91821633685,6.26019580727,1.70967414805,-8.55397044732,-8.54632244727,2.2459611657,-0.690071096744,-0.76360837009,2.71301856713,5.7520498854,-0.916178536864,0.354140944397
3.03781702491,6.30889663742,1.60968489255,-8.60991913954,-8.58063073202,2.20847344909,-0.679997953573,-0.900295506537,2.73972068582,5.85746524127,-0.913542158946,0.355756597747
3.15913605565,6.35754257831,1.51183631141,-8.66243488865,-8.61513584756,2.16723653269,-0.670721246637,-1.03478905532,2.76511059443,5.96159249618,-0.911213093491,0.357533629202
3.28204805637,6.40635988435,1.4163717961,-8.71174138382,-8.64965294389,2.12262773175,-0.662289408787,-1.16710855799,2.78955517457,6.06439401574,-0.909154131185,0.359452376193
3.40643799686,6.4555290697,1.32350085152,-8.75810352394,-8.68402398316,2.0750943394,-0.654719313082,-1.29728705262,2.8133569976,6.16581210016,-0.907326473168,0.361496628942
3.53219084748,6.50517522722,1.23340005598,-8.80183446551,-8.71811693269,2.02515624458,-0.648003176784,-1.4253539894,2.83676065441,6.26576861065,-0.905690598214,0.363652257534
3.65918039813,6.55535912416,1.14621343203,-8.84330143415,-8.75182507535,1.97340479781,-0.642114852563,-1.55132282637,2.85995997436,6.3641648745,-0.90420706113,0.365905795419
3.78725849626,6.60607029248,1.06205253332,-8.88292850937,-8.78506615398,1.92049553946,-0.637015582789,-1.67518307768,2.88310525193,6.46088219187,-0.902837371827,0.368243109225
3.91624614665,6.65722387828,0.980996742814,-8.92119423225,-8.8177808762,1.86713272798,-0.632659231124,-1.79689660874,2.90630992776,6.55578343678,-0.901545047779,0.370648298892
4.04592801543,6.70866322188,0.903094343533,-8.95862196907,-8.84993030354,1.81404461216,-0.628996861695,-1.91639789685,2.92965643636,6.6487162274,-0.90029684294,0.373102985909
4.17605169718,6.76016975763,0.828364830766,-8.99576175581,-8.881491843,1.76195015426,-0.625980399115,-2.03359776734,2.95320115226,6.73951791801,-0.899064045233,0.375586135128
4.30633248556,6.81148070103,0.756802677777,-9.03316395036,-8.91245392307,1.7115201921,-0.623565058323,-2.14838981301,2.97697853024,6.82802226496,-0.897823633179,0.378074495026
4.43646335223,6.8623132554,0.688382392866,-9.07134718618,-8.94280987581,1.6633381917,-0.621710335676,-2.26065840935,3.00100462517,6.91406713961,-0.896559035212,0.380543627988
4.56612863951,6.91239220749,0.623064324965,-9.1107651876,-8.97255190735,1.61786691201,-0.620379593244,-2.37028707788,3.02528018136,6.99750226771,-0.895260279922,0.382969361639
4.69501904126,6.96147651861,0.560800429448,-9.15177809643,-9.00166616206,1.57542676883,-0.619538566006,-2.47716602044,3.04979341594,7.07819583718,-0.893923461658,0.385329376031
4.82284518514,7.00938046941,0.501539197929,-9.19463342841,-9.0301296901,1.53618937274,-0.619153355315,-2.5811979573,3.07452253115,7.15603902352,-0.892549623931,0.387604603436
4.94934767026,7.0559862062,0.445229188694,-9.23945965747,-9.05790967247,1.50018635808,-0.619188540204,-2.68230186204,3.0994379249,7.23094797425,-0.891143306114,0.389780180027
5.07430252511,7.1012466792,0.391820965932,-9.28627247755,-9.08496471891,1.46733043036,-0.619605914519,-2.78041465102,3.12450405736,7.30286338585,-0.889711048995,0.391845826361
5.19752226726,7.14518012524,0.341267616824,-9.33499112064,-9.11124763199,1.43744360209,-0.620364102413,-2.87549122686,3.14968096447,7.37174828066,-0.888260105107,0.393795687162
5.31885363567,7.18785870247,0.293524248506,-9.38546057357,-9.13670884977,1.41028727344,-0.621419025539,-2.96750343095,3.17492545718,7.43758481101,-0.886797490965,0.3956277731
5.43817342584,7.22939433633,0.248546933526,-9.43747538068,-9.16129984218,1.3855898482,-0.622724989746,-3.05643844667,3.20019207787,7.50037087055,-0.885329405361,0.397343190812
5.55538374098,7.26992443661,0.206291506724,-9.49080161963,-9.18497595594,1.3630692667,-0.624236072892,-3.14229707283,3.22543389099,7.56011707061,-0.883860959028,0.398945329842
5.67040758327,7.30959929269,0.166712485637,-9.54519500591,-9.20769846539,1.34244951184,-0.625907517862,-3.22509212732,3.25060316773,7.61684436205,-0.882396126548,0.400439123762
5.78318526046,7.34857203949,0.129762251733,-9.6004143908,-9.22943580574,1.32347138844,-0.627696921892,-3.30484709642,3.27565199984,7.67058234709,-0.880937831795,0.401830445281
5.89367171919,7.38699136155,0.0953905264551,-9.65623086925,-9.25016410373,1.3058985732,-0.629565116949,-3.38159504107,3.30053285583,7.72136817528,-0.87948809687,0.403125649406
6.00183468817,7.42499665262,0.0635441139556,-9.71243323769,-9.26986717948,1.28952016364,-0.631476722717,-3.45537771302,3.32519907986,7.76924585331,-0.878048207927,0.40433125052
6.10765341552,7.46271514536,0.0341668553981,-9.76883071282,-9.28853619507,1.27415088243,-0.633400409758,-3.52624481163,3.3496053295,7.81426579732,-0.876618871554,0.405453706785
6.21111777476,7.50026049558,0.00719973571237,-9.82525376788,-9.3061690966,1.25962987235,-0.635308936411,-3.59425331522,3.37370794936,7.85648448975,-0.875200349782,0.406499283459
6.31222755354,7.53773236882,-0.0174189084961,-9.88155378034,-9.32276995742,1.24581875978,-0.63717902689,-3.6594668354,3.39746528101,7.895964147,-0.873792570697,0.407473970587
6.41099179563,7.57521667568,-0.039753119433,-9.93760199737,-9.33834829366,1.23259943281,-0.638991149391,-3.72195496216,3.42083791287,7.93277234591,-0.8723952162,0.408383436307
6.50742812117,7.61278620112,-0.0598690152296,-9.99328815777,-9.35291839446,1.2198718002,-0.640729239366,-3.78179258436,3.4437888755,7.96698158842,-0.87100779043,0.40923300273
6.60156199295,7.6505014545,-0.0778344728179,-10.0485189798,-9.36649868919,1.20755167187,-0.642380399352,-3.83905918421,3.46628378883,7.99866880511,-0.869629672716,0.410027635898
6.69342592599,7.68841162888,-0.0937188091245,-10.1032166343,-9.3791111617,1.19556882158,-0.643934595296,-3.8938381129,3.48829096733,8.02791480977,-0.868260158616,0.410771944651
6.78305865463,7.72655559976,-0.10759246871,-10.1573172642,-9.39078081402,1.18386524621,-0.645384360913,-3.94621585958,3.50978148838,8.05480372235,-0.866898491965,0.411470185349
6.87050427965,7.76496292134,-0.119526723118,-10.2107695791,-9.40153517882,1.1723936129,-0.646724515948,-3.99628132785,3.53072922865,8.07942237846,-0.865543890222,0.412126270747
6.95581141895,7.80365479521,-0.129593385372,-10.2635335342,-9.41140387794,1.1611158753,-0.647951900864,-4.04412513309,3.55111087189,8.10185974152,-0.864195564792,0.41274378197
7.03903238357,7.84264499717,-0.137864541884,-10.3155790945,-9.420418224,1.15000203843,-0.649065128563,-4.08983893285,3.5709058916,8.12220633135,-0.862852737582,0.413325982957
